digraph Tree {
node [shape=box] ;
0 [label="X[25] <= 0.401\ngini = 0.82\nsamples = 303\nvalue = [85, 90, 17, 5, 5, 8, 3, 2, 4, 3, 10, 14, 5, 7\n1, 3, 1, 2, 3, 5, 4, 17, 9]"] ;
1 [label="X[83] <= 0.054\ngini = 0.534\nsamples = 60\nvalue = [7, 40, 4, 1, 0, 0, 1, 0, 1, 0, 1, 0, 1, 2\n0, 0, 0, 0, 0, 0, 0, 1, 1]"] ;
0 -> 1 [labeldistance=2.5, labelangle=45, headlabel="True"] ;
2 [label="X[62] <= 8.367\ngini = 0.478\nsamples = 56\nvalue = [3, 40, 4, 1, 0, 0, 1, 0, 1, 0, 1, 0, 1, 2\n0, 0, 0, 0, 0, 0, 0, 1, 1]"] ;
1 -> 2 ;
3 [label="X[118] <= 0.243\ngini = 0.688\nsamples = 8\nvalue = [0, 1, 4, 0, 0, 0, 1, 0, 0, 0, 0, 0, 1, 1, 0\n0, 0, 0, 0, 0, 0, 0, 0]"] ;
2 -> 3 ;
4 [label="X[84] <= 0.062\ngini = 0.32\nsamples = 5\nvalue = [0, 0, 4, 0, 0, 0, 0, 0, 0, 0, 0, 0, 1, 0, 0\n0, 0, 0, 0, 0, 0, 0, 0]"] ;
3 -> 4 ;
5 [label="gini = 0.0\nsamples = 4\nvalue = [0, 0, 4, 0, 0, 0, 0, 0, 0, 0, 0, 0, 0, 0, 0\n0, 0, 0, 0, 0, 0, 0, 0]"] ;
4 -> 5 ;
6 [label="gini = 0.0\nsamples = 1\nvalue = [0, 0, 0, 0, 0, 0, 0, 0, 0, 0, 0, 0, 1, 0, 0\n0, 0, 0, 0, 0, 0, 0, 0]"] ;
4 -> 6 ;
7 [label="X[65] <= 0.635\ngini = 0.667\nsamples = 3\nvalue = [0, 1, 0, 0, 0, 0, 1, 0, 0, 0, 0, 0, 0, 1, 0\n0, 0, 0, 0, 0, 0, 0, 0]"] ;
3 -> 7 ;
8 [label="gini = 0.0\nsamples = 1\nvalue = [0, 1, 0, 0, 0, 0, 0, 0, 0, 0, 0, 0, 0, 0, 0\n0, 0, 0, 0, 0, 0, 0, 0]"] ;
7 -> 8 ;
9 [label="X[1] <= 1.5\ngini = 0.5\nsamples = 2\nvalue = [0, 0, 0, 0, 0, 0, 1, 0, 0, 0, 0, 0, 0, 1, 0\n0, 0, 0, 0, 0, 0, 0, 0]"] ;
7 -> 9 ;
10 [label="gini = 0.0\nsamples = 1\nvalue = [0, 0, 0, 0, 0, 0, 1, 0, 0, 0, 0, 0, 0, 0, 0\n0, 0, 0, 0, 0, 0, 0, 0]"] ;
9 -> 10 ;
11 [label="gini = 0.0\nsamples = 1\nvalue = [0, 0, 0, 0, 0, 0, 0, 0, 0, 0, 0, 0, 0, 1, 0\n0, 0, 0, 0, 0, 0, 0, 0]"] ;
9 -> 11 ;
12 [label="X[114] <= 2.096\ngini = 0.333\nsamples = 48\nvalue = [3, 39, 0, 1, 0, 0, 0, 0, 1, 0, 1, 0, 0, 1\n0, 0, 0, 0, 0, 0, 0, 1, 1]"] ;
2 -> 12 ;
13 [label="X[85] <= 0.551\ngini = 0.146\nsamples = 39\nvalue = [0, 36, 0, 1, 0, 0, 0, 0, 0, 0, 0, 0, 0, 1\n0, 0, 0, 0, 0, 0, 0, 1, 0]"] ;
12 -> 13 ;
14 [label="gini = 0.0\nsamples = 1\nvalue = [0, 0, 0, 1, 0, 0, 0, 0, 0, 0, 0, 0, 0, 0, 0\n0, 0, 0, 0, 0, 0, 0, 0]"] ;
13 -> 14 ;
15 [label="X[111] <= 0.418\ngini = 0.101\nsamples = 38\nvalue = [0, 36, 0, 0, 0, 0, 0, 0, 0, 0, 0, 0, 0, 1\n0, 0, 0, 0, 0, 0, 0, 1, 0]"] ;
13 -> 15 ;
16 [label="gini = 0.053\nsamples = 37\nvalue = [0, 36, 0, 0, 0, 0, 0, 0, 0, 0, 0, 0, 0, 0\n0, 0, 0, 0, 0, 0, 0, 1, 0]"] ;
15 -> 16 ;
17 [label="gini = 0.0\nsamples = 1\nvalue = [0, 0, 0, 0, 0, 0, 0, 0, 0, 0, 0, 0, 0, 1, 0\n0, 0, 0, 0, 0, 0, 0, 0]"] ;
15 -> 17 ;
18 [label="X[94] <= 0.18\ngini = 0.741\nsamples = 9\nvalue = [3, 3, 0, 0, 0, 0, 0, 0, 1, 0, 1, 0, 0, 0, 0\n0, 0, 0, 0, 0, 0, 0, 1]"] ;
12 -> 18 ;
19 [label="X[78] <= 0.012\ngini = 0.667\nsamples = 6\nvalue = [0, 3, 0, 0, 0, 0, 0, 0, 1, 0, 1, 0, 0, 0, 0\n0, 0, 0, 0, 0, 0, 0, 1]"] ;
18 -> 19 ;
20 [label="gini = 0.0\nsamples = 3\nvalue = [0, 3, 0, 0, 0, 0, 0, 0, 0, 0, 0, 0, 0, 0, 0\n0, 0, 0, 0, 0, 0, 0, 0]"] ;
19 -> 20 ;
21 [label="gini = 0.667\nsamples = 3\nvalue = [0, 0, 0, 0, 0, 0, 0, 0, 1, 0, 1, 0, 0, 0, 0\n0, 0, 0, 0, 0, 0, 0, 1]"] ;
19 -> 21 ;
22 [label="gini = 0.0\nsamples = 3\nvalue = [3, 0, 0, 0, 0, 0, 0, 0, 0, 0, 0, 0, 0, 0, 0\n0, 0, 0, 0, 0, 0, 0, 0]"] ;
18 -> 22 ;
23 [label="gini = 0.0\nsamples = 4\nvalue = [4, 0, 0, 0, 0, 0, 0, 0, 0, 0, 0, 0, 0, 0, 0\n0, 0, 0, 0, 0, 0, 0, 0]"] ;
1 -> 23 ;
24 [label="X[62] <= 81.007\ngini = 0.838\nsamples = 243\nvalue = [78, 50, 13, 4, 5, 8, 2, 2, 3, 3, 9, 14, 4, 5\n1, 3, 1, 2, 3, 5, 4, 16, 8]"] ;
0 -> 24 [labeldistance=2.5, labelangle=-45, headlabel="False"] ;
25 [label="X[35] <= 1.5\ngini = 0.853\nsamples = 204\nvalue = [53, 50, 13, 4, 5, 8, 2, 2, 3, 3, 9, 10, 1, 5\n1, 2, 1, 0, 3, 4, 3, 14, 8]"] ;
24 -> 25 ;
26 [label="X[53] <= 3.5\ngini = 0.785\nsamples = 60\nvalue = [10, 24, 6, 2, 0, 4, 0, 1, 0, 0, 2, 0, 0, 0\n0, 0, 0, 0, 1, 1, 1, 5, 3]"] ;
25 -> 26 ;
27 [label="X[61] <= 10.5\ngini = 0.837\nsamples = 28\nvalue = [8, 4, 5, 1, 0, 3, 0, 1, 0, 0, 1, 0, 0, 0, 0\n0, 0, 0, 1, 0, 0, 3, 1]"] ;
26 -> 27 ;
28 [label="X[46] <= 3.0\ngini = 0.5\nsamples = 6\nvalue = [0, 1, 4, 0, 0, 1, 0, 0, 0, 0, 0, 0, 0, 0, 0\n0, 0, 0, 0, 0, 0, 0, 0]"] ;
27 -> 28 ;
29 [label="gini = 0.5\nsamples = 2\nvalue = [0, 1, 0, 0, 0, 1, 0, 0, 0, 0, 0, 0, 0, 0, 0\n0, 0, 0, 0, 0, 0, 0, 0]"] ;
28 -> 29 ;
30 [label="gini = 0.0\nsamples = 4\nvalue = [0, 0, 4, 0, 0, 0, 0, 0, 0, 0, 0, 0, 0, 0, 0\n0, 0, 0, 0, 0, 0, 0, 0]"] ;
28 -> 30 ;
31 [label="X[114] <= 2.149\ngini = 0.81\nsamples = 22\nvalue = [8, 3, 1, 1, 0, 2, 0, 1, 0, 0, 1, 0, 0, 0, 0\n0, 0, 0, 1, 0, 0, 3, 1]"] ;
27 -> 31 ;
32 [label="gini = 0.494\nsamples = 9\nvalue = [6, 2, 0, 1, 0, 0, 0, 0, 0, 0, 0, 0, 0, 0, 0\n0, 0, 0, 0, 0, 0, 0, 0]"] ;
31 -> 32 ;
33 [label="gini = 0.864\nsamples = 13\nvalue = [2, 1, 1, 0, 0, 2, 0, 1, 0, 0, 1, 0, 0, 0, 0\n0, 0, 0, 1, 0, 0, 3, 1]"] ;
31 -> 33 ;
34 [label="X[113] <= 0.035\ngini = 0.592\nsamples = 32\nvalue = [2, 20, 1, 1, 0, 1, 0, 0, 0, 0, 1, 0, 0, 0\n0, 0, 0, 0, 0, 1, 1, 2, 2]"] ;
26 -> 34 ;
35 [label="X[99] <= 0.092\ngini = 0.133\nsamples = 14\nvalue = [0, 13, 0, 0, 0, 1, 0, 0, 0, 0, 0, 0, 0, 0\n0, 0, 0, 0, 0, 0, 0, 0, 0]"] ;
34 -> 35 ;
36 [label="gini = 0.0\nsamples = 12\nvalue = [0, 12, 0, 0, 0, 0, 0, 0, 0, 0, 0, 0, 0, 0\n0, 0, 0, 0, 0, 0, 0, 0, 0]"] ;
35 -> 36 ;
37 [label="gini = 0.5\nsamples = 2\nvalue = [0, 1, 0, 0, 0, 1, 0, 0, 0, 0, 0, 0, 0, 0, 0\n0, 0, 0, 0, 0, 0, 0, 0]"] ;
35 -> 37 ;
38 [label="X[86] <= 0.283\ngini = 0.796\nsamples = 18\nvalue = [2, 7, 1, 1, 0, 0, 0, 0, 0, 0, 1, 0, 0, 0, 0\n0, 0, 0, 0, 1, 1, 2, 2]"] ;
34 -> 38 ;
39 [label="gini = 0.651\nsamples = 13\nvalue = [2, 7, 0, 1, 0, 0, 0, 0, 0, 0, 0, 0, 0, 0, 0\n0, 0, 0, 0, 0, 0, 2, 1]"] ;
38 -> 39 ;
40 [label="gini = 0.8\nsamples = 5\nvalue = [0, 0, 1, 0, 0, 0, 0, 0, 0, 0, 1, 0, 0, 0, 0\n0, 0, 0, 0, 1, 1, 0, 1]"] ;
38 -> 40 ;
41 [label="X[105] <= 0.112\ngini = 0.858\nsamples = 144\nvalue = [43, 26, 7, 2, 5, 4, 2, 1, 3, 3, 7, 10, 1, 5\n1, 2, 1, 0, 2, 3, 2, 9, 5]"] ;
25 -> 41 ;
42 [label="X[22] <= 4.5\ngini = 0.531\nsamples = 21\nvalue = [14, 1, 2, 0, 0, 0, 0, 0, 0, 0, 0, 0, 0, 0\n0, 0, 0, 0, 1, 0, 1, 2, 0]"] ;
41 -> 42 ;
43 [label="X[105] <= 0.062\ngini = 0.776\nsamples = 7\nvalue = [1, 1, 2, 0, 0, 0, 0, 0, 0, 0, 0, 0, 0, 0, 0\n0, 0, 0, 1, 0, 0, 2, 0]"] ;
42 -> 43 ;
44 [label="gini = 0.0\nsamples = 2\nvalue = [0, 0, 2, 0, 0, 0, 0, 0, 0, 0, 0, 0, 0, 0, 0\n0, 0, 0, 0, 0, 0, 0, 0]"] ;
43 -> 44 ;
45 [label="gini = 0.72\nsamples = 5\nvalue = [1, 1, 0, 0, 0, 0, 0, 0, 0, 0, 0, 0, 0, 0, 0\n0, 0, 0, 1, 0, 0, 2, 0]"] ;
43 -> 45 ;
46 [label="X[6] <= 2.5\ngini = 0.133\nsamples = 14\nvalue = [13, 0, 0, 0, 0, 0, 0, 0, 0, 0, 0, 0, 0, 0\n0, 0, 0, 0, 0, 0, 1, 0, 0]"] ;
42 -> 46 ;
47 [label="gini = 0.0\nsamples = 13\nvalue = [13, 0, 0, 0, 0, 0, 0, 0, 0, 0, 0, 0, 0, 0\n0, 0, 0, 0, 0, 0, 0, 0, 0]"] ;
46 -> 47 ;
48 [label="gini = 0.0\nsamples = 1\nvalue = [0, 0, 0, 0, 0, 0, 0, 0, 0, 0, 0, 0, 0, 0, 0\n0, 0, 0, 0, 0, 1, 0, 0]"] ;
46 -> 48 ;
49 [label="X[22] <= 42.5\ngini = 0.879\nsamples = 123\nvalue = [29, 25, 5, 2, 5, 4, 2, 1, 3, 3, 7, 10, 1, 5\n1, 2, 1, 0, 1, 3, 1, 7, 5]"] ;
41 -> 49 ;
50 [label="X[90] <= 0.001\ngini = 0.875\nsamples = 118\nvalue = [28, 25, 5, 2, 5, 4, 2, 1, 3, 3, 7, 10, 1, 5\n1, 2, 1, 0, 1, 3, 1, 7, 1]"] ;
49 -> 50 ;
51 [label="gini = 0.0\nsamples = 3\nvalue = [0, 0, 0, 0, 3, 0, 0, 0, 0, 0, 0, 0, 0, 0, 0\n0, 0, 0, 0, 0, 0, 0, 0]"] ;
50 -> 51 ;
52 [label="gini = 0.87\nsamples = 115\nvalue = [28, 25, 5, 2, 2, 4, 2, 1, 3, 3, 7, 10, 1, 5\n1, 2, 1, 0, 1, 3, 1, 7, 1]"] ;
50 -> 52 ;
53 [label="X[19] <= 31.5\ngini = 0.32\nsamples = 5\nvalue = [1, 0, 0, 0, 0, 0, 0, 0, 0, 0, 0, 0, 0, 0, 0\n0, 0, 0, 0, 0, 0, 0, 4]"] ;
49 -> 53 ;
54 [label="gini = 0.0\nsamples = 4\nvalue = [0, 0, 0, 0, 0, 0, 0, 0, 0, 0, 0, 0, 0, 0, 0\n0, 0, 0, 0, 0, 0, 0, 4]"] ;
53 -> 54 ;
55 [label="gini = 0.0\nsamples = 1\nvalue = [1, 0, 0, 0, 0, 0, 0, 0, 0, 0, 0, 0, 0, 0, 0\n0, 0, 0, 0, 0, 0, 0, 0]"] ;
53 -> 55 ;
56 [label="X[48] <= 43.0\ngini = 0.565\nsamples = 39\nvalue = [25, 0, 0, 0, 0, 0, 0, 0, 0, 0, 0, 4, 3, 0\n0, 1, 0, 2, 0, 1, 1, 2, 0]"] ;
24 -> 56 ;
57 [label="X[86] <= 0.005\ngini = 0.083\nsamples = 23\nvalue = [22, 0, 0, 0, 0, 0, 0, 0, 0, 0, 0, 1, 0, 0\n0, 0, 0, 0, 0, 0, 0, 0, 0]"] ;
56 -> 57 ;
58 [label="gini = 0.0\nsamples = 1\nvalue = [0, 0, 0, 0, 0, 0, 0, 0, 0, 0, 0, 1, 0, 0, 0\n0, 0, 0, 0, 0, 0, 0, 0]"] ;
57 -> 58 ;
59 [label="gini = 0.0\nsamples = 22\nvalue = [22, 0, 0, 0, 0, 0, 0, 0, 0, 0, 0, 0, 0, 0\n0, 0, 0, 0, 0, 0, 0, 0, 0]"] ;
57 -> 59 ;
60 [label="X[25] <= 0.591\ngini = 0.852\nsamples = 16\nvalue = [3, 0, 0, 0, 0, 0, 0, 0, 0, 0, 0, 3, 3, 0, 0\n1, 0, 2, 0, 1, 1, 2, 0]"] ;
56 -> 60 ;
61 [label="X[77] <= 0.168\ngini = 0.375\nsamples = 4\nvalue = [0, 0, 0, 0, 0, 0, 0, 0, 0, 0, 0, 3, 0, 0, 0\n0, 0, 0, 0, 0, 1, 0, 0]"] ;
60 -> 61 ;
62 [label="gini = 0.0\nsamples = 3\nvalue = [0, 0, 0, 0, 0, 0, 0, 0, 0, 0, 0, 3, 0, 0, 0\n0, 0, 0, 0, 0, 0, 0, 0]"] ;
61 -> 62 ;
63 [label="gini = 0.0\nsamples = 1\nvalue = [0, 0, 0, 0, 0, 0, 0, 0, 0, 0, 0, 0, 0, 0, 0\n0, 0, 0, 0, 0, 1, 0, 0]"] ;
61 -> 63 ;
64 [label="X[112] <= 0.088\ngini = 0.806\nsamples = 12\nvalue = [3, 0, 0, 0, 0, 0, 0, 0, 0, 0, 0, 0, 3, 0, 0\n1, 0, 2, 0, 1, 0, 2, 0]"] ;
60 -> 64 ;
65 [label="X[25] <= 1.2\ngini = 0.75\nsamples = 8\nvalue = [3, 0, 0, 0, 0, 0, 0, 0, 0, 0, 0, 0, 0, 0, 0\n1, 0, 2, 0, 1, 0, 1, 0]"] ;
64 -> 65 ;
66 [label="gini = 0.667\nsamples = 3\nvalue = [0, 0, 0, 0, 0, 0, 0, 0, 0, 0, 0, 0, 0, 0, 0\n1, 0, 1, 0, 0, 0, 1, 0]"] ;
65 -> 66 ;
67 [label="gini = 0.56\nsamples = 5\nvalue = [3, 0, 0, 0, 0, 0, 0, 0, 0, 0, 0, 0, 0, 0, 0\n0, 0, 1, 0, 1, 0, 0, 0]"] ;
65 -> 67 ;
68 [label="X[73] <= 0.003\ngini = 0.375\nsamples = 4\nvalue = [0, 0, 0, 0, 0, 0, 0, 0, 0, 0, 0, 0, 3, 0, 0\n0, 0, 0, 0, 0, 0, 1, 0]"] ;
64 -> 68 ;
69 [label="gini = 0.0\nsamples = 1\nvalue = [0, 0, 0, 0, 0, 0, 0, 0, 0, 0, 0, 0, 0, 0, 0\n0, 0, 0, 0, 0, 0, 1, 0]"] ;
68 -> 69 ;
70 [label="gini = 0.0\nsamples = 3\nvalue = [0, 0, 0, 0, 0, 0, 0, 0, 0, 0, 0, 0, 3, 0, 0\n0, 0, 0, 0, 0, 0, 0, 0]"] ;
68 -> 70 ;
}