digraph Tree {
node [shape=box] ;
0 [label="X[25] <= 0.401\ngini = 0.82\nsamples = 303\nvalue = [85, 90, 17, 5, 5, 8, 3, 2, 4, 3, 10, 14, 5, 7\n1, 3, 1, 2, 3, 5, 4, 17, 9]"] ;
1 [label="X[83] <= 0.054\ngini = 0.534\nsamples = 60\nvalue = [7, 40, 4, 1, 0, 0, 1, 0, 1, 0, 1, 0, 1, 2\n0, 0, 0, 0, 0, 0, 0, 1, 1]"] ;
0 -> 1 [labeldistance=2.5, labelangle=45, headlabel="True"] ;
2 [label="X[62] <= 8.367\ngini = 0.478\nsamples = 56\nvalue = [3, 40, 4, 1, 0, 0, 1, 0, 1, 0, 1, 0, 1, 2\n0, 0, 0, 0, 0, 0, 0, 1, 1]"] ;
1 -> 2 ;
3 [label="X[118] <= 0.243\ngini = 0.688\nsamples = 8\nvalue = [0, 1, 4, 0, 0, 0, 1, 0, 0, 0, 0, 0, 1, 1, 0\n0, 0, 0, 0, 0, 0, 0, 0]"] ;
2 -> 3 ;
4 [label="X[5] <= 0.5\ngini = 0.32\nsamples = 5\nvalue = [0, 0, 4, 0, 0, 0, 0, 0, 0, 0, 0, 0, 1, 0, 0\n0, 0, 0, 0, 0, 0, 0, 0]"] ;
3 -> 4 ;
5 [label="gini = 0.0\nsamples = 4\nvalue = [0, 0, 4, 0, 0, 0, 0, 0, 0, 0, 0, 0, 0, 0, 0\n0, 0, 0, 0, 0, 0, 0, 0]"] ;
4 -> 5 ;
6 [label="gini = 0.0\nsamples = 1\nvalue = [0, 0, 0, 0, 0, 0, 0, 0, 0, 0, 0, 0, 1, 0, 0\n0, 0, 0, 0, 0, 0, 0, 0]"] ;
4 -> 6 ;
7 [label="X[1] <= 1.5\ngini = 0.667\nsamples = 3\nvalue = [0, 1, 0, 0, 0, 0, 1, 0, 0, 0, 0, 0, 0, 1, 0\n0, 0, 0, 0, 0, 0, 0, 0]"] ;
3 -> 7 ;
8 [label="gini = 0.0\nsamples = 1\nvalue = [0, 0, 0, 0, 0, 0, 1, 0, 0, 0, 0, 0, 0, 0, 0\n0, 0, 0, 0, 0, 0, 0, 0]"] ;
7 -> 8 ;
9 [label="X[77] <= 0.381\ngini = 0.5\nsamples = 2\nvalue = [0, 1, 0, 0, 0, 0, 0, 0, 0, 0, 0, 0, 0, 1, 0\n0, 0, 0, 0, 0, 0, 0, 0]"] ;
7 -> 9 ;
10 [label="gini = 0.0\nsamples = 1\nvalue = [0, 1, 0, 0, 0, 0, 0, 0, 0, 0, 0, 0, 0, 0, 0\n0, 0, 0, 0, 0, 0, 0, 0]"] ;
9 -> 10 ;
11 [label="gini = 0.0\nsamples = 1\nvalue = [0, 0, 0, 0, 0, 0, 0, 0, 0, 0, 0, 0, 0, 1, 0\n0, 0, 0, 0, 0, 0, 0, 0]"] ;
9 -> 11 ;
12 [label="X[114] <= 2.096\ngini = 0.333\nsamples = 48\nvalue = [3, 39, 0, 1, 0, 0, 0, 0, 1, 0, 1, 0, 0, 1\n0, 0, 0, 0, 0, 0, 0, 1, 1]"] ;
2 -> 12 ;
13 [label="X[85] <= 0.551\ngini = 0.146\nsamples = 39\nvalue = [0, 36, 0, 1, 0, 0, 0, 0, 0, 0, 0, 0, 0, 1\n0, 0, 0, 0, 0, 0, 0, 1, 0]"] ;
12 -> 13 ;
14 [label="gini = 0.0\nsamples = 1\nvalue = [0, 0, 0, 1, 0, 0, 0, 0, 0, 0, 0, 0, 0, 0, 0\n0, 0, 0, 0, 0, 0, 0, 0]"] ;
13 -> 14 ;
15 [label="X[111] <= 0.418\ngini = 0.101\nsamples = 38\nvalue = [0, 36, 0, 0, 0, 0, 0, 0, 0, 0, 0, 0, 0, 1\n0, 0, 0, 0, 0, 0, 0, 1, 0]"] ;
13 -> 15 ;
16 [label="X[75] <= 0.052\ngini = 0.053\nsamples = 37\nvalue = [0, 36, 0, 0, 0, 0, 0, 0, 0, 0, 0, 0, 0, 0\n0, 0, 0, 0, 0, 0, 0, 1, 0]"] ;
15 -> 16 ;
17 [label="gini = 0.0\nsamples = 33\nvalue = [0, 33, 0, 0, 0, 0, 0, 0, 0, 0, 0, 0, 0, 0\n0, 0, 0, 0, 0, 0, 0, 0, 0]"] ;
16 -> 17 ;
18 [label="X[85] <= 0.732\ngini = 0.375\nsamples = 4\nvalue = [0, 3, 0, 0, 0, 0, 0, 0, 0, 0, 0, 0, 0, 0, 0\n0, 0, 0, 0, 0, 0, 1, 0]"] ;
16 -> 18 ;
19 [label="gini = 0.0\nsamples = 3\nvalue = [0, 3, 0, 0, 0, 0, 0, 0, 0, 0, 0, 0, 0, 0, 0\n0, 0, 0, 0, 0, 0, 0, 0]"] ;
18 -> 19 ;
20 [label="gini = 0.0\nsamples = 1\nvalue = [0, 0, 0, 0, 0, 0, 0, 0, 0, 0, 0, 0, 0, 0, 0\n0, 0, 0, 0, 0, 0, 1, 0]"] ;
18 -> 20 ;
21 [label="gini = 0.0\nsamples = 1\nvalue = [0, 0, 0, 0, 0, 0, 0, 0, 0, 0, 0, 0, 0, 1, 0\n0, 0, 0, 0, 0, 0, 0, 0]"] ;
15 -> 21 ;
22 [label="X[69] <= 0.177\ngini = 0.741\nsamples = 9\nvalue = [3, 3, 0, 0, 0, 0, 0, 0, 1, 0, 1, 0, 0, 0, 0\n0, 0, 0, 0, 0, 0, 0, 1]"] ;
12 -> 22 ;
23 [label="X[78] <= 0.012\ngini = 0.667\nsamples = 6\nvalue = [0, 3, 0, 0, 0, 0, 0, 0, 1, 0, 1, 0, 0, 0, 0\n0, 0, 0, 0, 0, 0, 0, 1]"] ;
22 -> 23 ;
24 [label="gini = 0.0\nsamples = 3\nvalue = [0, 3, 0, 0, 0, 0, 0, 0, 0, 0, 0, 0, 0, 0, 0\n0, 0, 0, 0, 0, 0, 0, 0]"] ;
23 -> 24 ;
25 [label="X[46] <= 49.5\ngini = 0.667\nsamples = 3\nvalue = [0, 0, 0, 0, 0, 0, 0, 0, 1, 0, 1, 0, 0, 0, 0\n0, 0, 0, 0, 0, 0, 0, 1]"] ;
23 -> 25 ;
26 [label="X[64] <= 27978.051\ngini = 0.5\nsamples = 2\nvalue = [0, 0, 0, 0, 0, 0, 0, 0, 1, 0, 1, 0, 0, 0, 0\n0, 0, 0, 0, 0, 0, 0, 0]"] ;
25 -> 26 ;
27 [label="gini = 0.0\nsamples = 1\nvalue = [0, 0, 0, 0, 0, 0, 0, 0, 1, 0, 0, 0, 0, 0, 0\n0, 0, 0, 0, 0, 0, 0, 0]"] ;
26 -> 27 ;
28 [label="gini = 0.0\nsamples = 1\nvalue = [0, 0, 0, 0, 0, 0, 0, 0, 0, 0, 1, 0, 0, 0, 0\n0, 0, 0, 0, 0, 0, 0, 0]"] ;
26 -> 28 ;
29 [label="gini = 0.0\nsamples = 1\nvalue = [0, 0, 0, 0, 0, 0, 0, 0, 0, 0, 0, 0, 0, 0, 0\n0, 0, 0, 0, 0, 0, 0, 1]"] ;
25 -> 29 ;
30 [label="gini = 0.0\nsamples = 3\nvalue = [3, 0, 0, 0, 0, 0, 0, 0, 0, 0, 0, 0, 0, 0, 0\n0, 0, 0, 0, 0, 0, 0, 0]"] ;
22 -> 30 ;
31 [label="gini = 0.0\nsamples = 4\nvalue = [4, 0, 0, 0, 0, 0, 0, 0, 0, 0, 0, 0, 0, 0, 0\n0, 0, 0, 0, 0, 0, 0, 0]"] ;
1 -> 31 ;
32 [label="X[62] <= 81.007\ngini = 0.838\nsamples = 243\nvalue = [78, 50, 13, 4, 5, 8, 2, 2, 3, 3, 9, 14, 4, 5\n1, 3, 1, 2, 3, 5, 4, 16, 8]"] ;
0 -> 32 [labeldistance=2.5, labelangle=-45, headlabel="False"] ;
33 [label="X[35] <= 1.5\ngini = 0.853\nsamples = 204\nvalue = [53, 50, 13, 4, 5, 8, 2, 2, 3, 3, 9, 10, 1, 5\n1, 2, 1, 0, 3, 4, 3, 14, 8]"] ;
32 -> 33 ;
34 [label="X[53] <= 3.5\ngini = 0.785\nsamples = 60\nvalue = [10, 24, 6, 2, 0, 4, 0, 1, 0, 0, 2, 0, 0, 0\n0, 0, 0, 0, 1, 1, 1, 5, 3]"] ;
33 -> 34 ;
35 [label="X[61] <= 10.5\ngini = 0.837\nsamples = 28\nvalue = [8, 4, 5, 1, 0, 3, 0, 1, 0, 0, 1, 0, 0, 0, 0\n0, 0, 0, 1, 0, 0, 3, 1]"] ;
34 -> 35 ;
36 [label="X[20] <= 6.0\ngini = 0.5\nsamples = 6\nvalue = [0, 1, 4, 0, 0, 1, 0, 0, 0, 0, 0, 0, 0, 0, 0\n0, 0, 0, 0, 0, 0, 0, 0]"] ;
35 -> 36 ;
37 [label="X[12] <= 5.5\ngini = 0.5\nsamples = 2\nvalue = [0, 1, 0, 0, 0, 1, 0, 0, 0, 0, 0, 0, 0, 0, 0\n0, 0, 0, 0, 0, 0, 0, 0]"] ;
36 -> 37 ;
38 [label="gini = 0.0\nsamples = 1\nvalue = [0, 0, 0, 0, 0, 1, 0, 0, 0, 0, 0, 0, 0, 0, 0\n0, 0, 0, 0, 0, 0, 0, 0]"] ;
37 -> 38 ;
39 [label="gini = 0.0\nsamples = 1\nvalue = [0, 1, 0, 0, 0, 0, 0, 0, 0, 0, 0, 0, 0, 0, 0\n0, 0, 0, 0, 0, 0, 0, 0]"] ;
37 -> 39 ;
40 [label="gini = 0.0\nsamples = 4\nvalue = [0, 0, 4, 0, 0, 0, 0, 0, 0, 0, 0, 0, 0, 0, 0\n0, 0, 0, 0, 0, 0, 0, 0]"] ;
36 -> 40 ;
41 [label="X[114] <= 2.149\ngini = 0.81\nsamples = 22\nvalue = [8, 3, 1, 1, 0, 2, 0, 1, 0, 0, 1, 0, 0, 0, 0\n0, 0, 0, 1, 0, 0, 3, 1]"] ;
35 -> 41 ;
42 [label="X[112] <= 0.08\ngini = 0.494\nsamples = 9\nvalue = [6, 2, 0, 1, 0, 0, 0, 0, 0, 0, 0, 0, 0, 0, 0\n0, 0, 0, 0, 0, 0, 0, 0]"] ;
41 -> 42 ;
43 [label="X[66] <= 0.188\ngini = 0.5\nsamples = 2\nvalue = [0, 1, 0, 1, 0, 0, 0, 0, 0, 0, 0, 0, 0, 0, 0\n0, 0, 0, 0, 0, 0, 0, 0]"] ;
42 -> 43 ;
44 [label="gini = 0.0\nsamples = 1\nvalue = [0, 1, 0, 0, 0, 0, 0, 0, 0, 0, 0, 0, 0, 0, 0\n0, 0, 0, 0, 0, 0, 0, 0]"] ;
43 -> 44 ;
45 [label="gini = 0.0\nsamples = 1\nvalue = [0, 0, 0, 1, 0, 0, 0, 0, 0, 0, 0, 0, 0, 0, 0\n0, 0, 0, 0, 0, 0, 0, 0]"] ;
43 -> 45 ;
46 [label="X[110] <= 0.243\ngini = 0.245\nsamples = 7\nvalue = [6, 1, 0, 0, 0, 0, 0, 0, 0, 0, 0, 0, 0, 0, 0\n0, 0, 0, 0, 0, 0, 0, 0]"] ;
42 -> 46 ;
47 [label="gini = 0.0\nsamples = 6\nvalue = [6, 0, 0, 0, 0, 0, 0, 0, 0, 0, 0, 0, 0, 0, 0\n0, 0, 0, 0, 0, 0, 0, 0]"] ;
46 -> 47 ;
48 [label="gini = 0.0\nsamples = 1\nvalue = [0, 1, 0, 0, 0, 0, 0, 0, 0, 0, 0, 0, 0, 0, 0\n0, 0, 0, 0, 0, 0, 0, 0]"] ;
46 -> 48 ;
49 [label="X[93] <= 0.031\ngini = 0.864\nsamples = 13\nvalue = [2, 1, 1, 0, 0, 2, 0, 1, 0, 0, 1, 0, 0, 0, 0\n0, 0, 0, 1, 0, 0, 3, 1]"] ;
41 -> 49 ;
50 [label="X[111] <= 0.434\ngini = 0.843\nsamples = 11\nvalue = [2, 1, 1, 0, 0, 0, 0, 1, 0, 0, 1, 0, 0, 0, 0\n0, 0, 0, 1, 0, 0, 3, 1]"] ;
49 -> 50 ;
51 [label="X[33] <= 3.5\ngini = 0.864\nsamples = 9\nvalue = [2, 1, 1, 0, 0, 0, 0, 1, 0, 0, 1, 0, 0, 0, 0\n0, 0, 0, 1, 0, 0, 1, 1]"] ;
50 -> 51 ;
52 [label="X[63] <= 557.145\ngini = 0.8\nsamples = 5\nvalue = [0, 1, 1, 0, 0, 0, 0, 1, 0, 0, 0, 0, 0, 0, 0\n0, 0, 0, 1, 0, 0, 0, 1]"] ;
51 -> 52 ;
53 [label="gini = 0.0\nsamples = 1\nvalue = [0, 0, 1, 0, 0, 0, 0, 0, 0, 0, 0, 0, 0, 0, 0\n0, 0, 0, 0, 0, 0, 0, 0]"] ;
52 -> 53 ;
54 [label="X[1] <= 2.5\ngini = 0.75\nsamples = 4\nvalue = [0, 1, 0, 0, 0, 0, 0, 1, 0, 0, 0, 0, 0, 0, 0\n0, 0, 0, 1, 0, 0, 0, 1]"] ;
52 -> 54 ;
55 [label="gini = 0.0\nsamples = 1\nvalue = [0, 0, 0, 0, 0, 0, 0, 0, 0, 0, 0, 0, 0, 0, 0\n0, 0, 0, 0, 0, 0, 0, 1]"] ;
54 -> 55 ;
56 [label="X[110] <= 0.021\ngini = 0.667\nsamples = 3\nvalue = [0, 1, 0, 0, 0, 0, 0, 1, 0, 0, 0, 0, 0, 0, 0\n0, 0, 0, 1, 0, 0, 0, 0]"] ;
54 -> 56 ;
57 [label="gini = 0.0\nsamples = 1\nvalue = [0, 1, 0, 0, 0, 0, 0, 0, 0, 0, 0, 0, 0, 0, 0\n0, 0, 0, 0, 0, 0, 0, 0]"] ;
56 -> 57 ;
58 [label="X[81] <= 0.105\ngini = 0.5\nsamples = 2\nvalue = [0, 0, 0, 0, 0, 0, 0, 1, 0, 0, 0, 0, 0, 0, 0\n0, 0, 0, 1, 0, 0, 0, 0]"] ;
56 -> 58 ;
59 [label="gini = 0.0\nsamples = 1\nvalue = [0, 0, 0, 0, 0, 0, 0, 0, 0, 0, 0, 0, 0, 0, 0\n0, 0, 0, 1, 0, 0, 0, 0]"] ;
58 -> 59 ;
60 [label="gini = 0.0\nsamples = 1\nvalue = [0, 0, 0, 0, 0, 0, 0, 1, 0, 0, 0, 0, 0, 0, 0\n0, 0, 0, 0, 0, 0, 0, 0]"] ;
58 -> 60 ;
61 [label="gini = 0.625\nsamples = 4\nvalue = [2, 0, 0, 0, 0, 0, 0, 0, 0, 0, 1, 0, 0, 0, 0\n0, 0, 0, 0, 0, 0, 1, 0]"] ;
51 -> 61 ;
62 [label="gini = 0.0\nsamples = 2\nvalue = [0, 0, 0, 0, 0, 0, 0, 0, 0, 0, 0, 0, 0, 0, 0\n0, 0, 0, 0, 0, 0, 2, 0]"] ;
50 -> 62 ;
63 [label="gini = 0.0\nsamples = 2\nvalue = [0, 0, 0, 0, 0, 2, 0, 0, 0, 0, 0, 0, 0, 0, 0\n0, 0, 0, 0, 0, 0, 0, 0]"] ;
49 -> 63 ;
64 [label="X[113] <= 0.035\ngini = 0.592\nsamples = 32\nvalue = [2, 20, 1, 1, 0, 1, 0, 0, 0, 0, 1, 0, 0, 0\n0, 0, 0, 0, 0, 1, 1, 2, 2]"] ;
34 -> 64 ;
65 [label="X[9] <= 1.5\ngini = 0.133\nsamples = 14\nvalue = [0, 13, 0, 0, 0, 1, 0, 0, 0, 0, 0, 0, 0, 0\n0, 0, 0, 0, 0, 0, 0, 0, 0]"] ;
64 -> 65 ;
66 [label="gini = 0.0\nsamples = 12\nvalue = [0, 12, 0, 0, 0, 0, 0, 0, 0, 0, 0, 0, 0, 0\n0, 0, 0, 0, 0, 0, 0, 0, 0]"] ;
65 -> 66 ;
67 [label="X[75] <= 0.046\ngini = 0.5\nsamples = 2\nvalue = [0, 1, 0, 0, 0, 1, 0, 0, 0, 0, 0, 0, 0, 0, 0\n0, 0, 0, 0, 0, 0, 0, 0]"] ;
65 -> 67 ;
68 [label="gini = 0.0\nsamples = 1\nvalue = [0, 1, 0, 0, 0, 0, 0, 0, 0, 0, 0, 0, 0, 0, 0\n0, 0, 0, 0, 0, 0, 0, 0]"] ;
67 -> 68 ;
69 [label="gini = 0.0\nsamples = 1\nvalue = [0, 0, 0, 0, 0, 1, 0, 0, 0, 0, 0, 0, 0, 0, 0\n0, 0, 0, 0, 0, 0, 0, 0]"] ;
67 -> 69 ;
70 [label="X[86] <= 0.283\ngini = 0.796\nsamples = 18\nvalue = [2, 7, 1, 1, 0, 0, 0, 0, 0, 0, 1, 0, 0, 0, 0\n0, 0, 0, 0, 1, 1, 2, 2]"] ;
64 -> 70 ;
71 [label="X[110] <= 0.1\ngini = 0.651\nsamples = 13\nvalue = [2, 7, 0, 1, 0, 0, 0, 0, 0, 0, 0, 0, 0, 0, 0\n0, 0, 0, 0, 0, 0, 2, 1]"] ;
70 -> 71 ;
72 [label="X[89] <= 0.208\ngini = 0.406\nsamples = 8\nvalue = [1, 6, 0, 0, 0, 0, 0, 0, 0, 0, 0, 0, 0, 0, 0\n0, 0, 0, 0, 0, 0, 0, 1]"] ;
71 -> 72 ;
73 [label="gini = 0.0\nsamples = 6\nvalue = [0, 6, 0, 0, 0, 0, 0, 0, 0, 0, 0, 0, 0, 0, 0\n0, 0, 0, 0, 0, 0, 0, 0]"] ;
72 -> 73 ;
74 [label="X[92] <= 0.031\ngini = 0.5\nsamples = 2\nvalue = [1, 0, 0, 0, 0, 0, 0, 0, 0, 0, 0, 0, 0, 0, 0\n0, 0, 0, 0, 0, 0, 0, 1]"] ;
72 -> 74 ;
75 [label="gini = 0.0\nsamples = 1\nvalue = [0, 0, 0, 0, 0, 0, 0, 0, 0, 0, 0, 0, 0, 0, 0\n0, 0, 0, 0, 0, 0, 0, 1]"] ;
74 -> 75 ;
76 [label="gini = 0.0\nsamples = 1\nvalue = [1, 0, 0, 0, 0, 0, 0, 0, 0, 0, 0, 0, 0, 0, 0\n0, 0, 0, 0, 0, 0, 0, 0]"] ;
74 -> 76 ;
77 [label="X[85] <= 0.802\ngini = 0.72\nsamples = 5\nvalue = [1, 1, 0, 1, 0, 0, 0, 0, 0, 0, 0, 0, 0, 0, 0\n0, 0, 0, 0, 0, 0, 2, 0]"] ;
71 -> 77 ;
78 [label="X[33] <= 7.0\ngini = 0.667\nsamples = 3\nvalue = [1, 1, 0, 1, 0, 0, 0, 0, 0, 0, 0, 0, 0, 0, 0\n0, 0, 0, 0, 0, 0, 0, 0]"] ;
77 -> 78 ;
79 [label="X[94] <= 0.213\ngini = 0.5\nsamples = 2\nvalue = [0, 1, 0, 1, 0, 0, 0, 0, 0, 0, 0, 0, 0, 0, 0\n0, 0, 0, 0, 0, 0, 0, 0]"] ;
78 -> 79 ;
80 [label="gini = 0.0\nsamples = 1\nvalue = [0, 1, 0, 0, 0, 0, 0, 0, 0, 0, 0, 0, 0, 0, 0\n0, 0, 0, 0, 0, 0, 0, 0]"] ;
79 -> 80 ;
81 [label="gini = 0.0\nsamples = 1\nvalue = [0, 0, 0, 1, 0, 0, 0, 0, 0, 0, 0, 0, 0, 0, 0\n0, 0, 0, 0, 0, 0, 0, 0]"] ;
79 -> 81 ;
82 [label="gini = 0.0\nsamples = 1\nvalue = [1, 0, 0, 0, 0, 0, 0, 0, 0, 0, 0, 0, 0, 0, 0\n0, 0, 0, 0, 0, 0, 0, 0]"] ;
78 -> 82 ;
83 [label="gini = 0.0\nsamples = 2\nvalue = [0, 0, 0, 0, 0, 0, 0, 0, 0, 0, 0, 0, 0, 0, 0\n0, 0, 0, 0, 0, 0, 2, 0]"] ;
77 -> 83 ;
84 [label="X[71] <= 0.009\ngini = 0.8\nsamples = 5\nvalue = [0, 0, 1, 0, 0, 0, 0, 0, 0, 0, 1, 0, 0, 0, 0\n0, 0, 0, 0, 1, 1, 0, 1]"] ;
70 -> 84 ;
85 [label="X[31] <= 3.0\ngini = 0.667\nsamples = 3\nvalue = [0, 0, 1, 0, 0, 0, 0, 0, 0, 0, 0, 0, 0, 0, 0\n0, 0, 0, 0, 0, 1, 0, 1]"] ;
84 -> 85 ;
86 [label="X[72] <= 0.059\ngini = 0.5\nsamples = 2\nvalue = [0, 0, 0, 0, 0, 0, 0, 0, 0, 0, 0, 0, 0, 0, 0\n0, 0, 0, 0, 0, 1, 0, 1]"] ;
85 -> 86 ;
87 [label="gini = 0.0\nsamples = 1\nvalue = [0, 0, 0, 0, 0, 0, 0, 0, 0, 0, 0, 0, 0, 0, 0\n0, 0, 0, 0, 0, 1, 0, 0]"] ;
86 -> 87 ;
88 [label="gini = 0.0\nsamples = 1\nvalue = [0, 0, 0, 0, 0, 0, 0, 0, 0, 0, 0, 0, 0, 0, 0\n0, 0, 0, 0, 0, 0, 0, 1]"] ;
86 -> 88 ;
89 [label="gini = 0.0\nsamples = 1\nvalue = [0, 0, 1, 0, 0, 0, 0, 0, 0, 0, 0, 0, 0, 0, 0\n0, 0, 0, 0, 0, 0, 0, 0]"] ;
85 -> 89 ;
90 [label="X[5] <= 9.5\ngini = 0.5\nsamples = 2\nvalue = [0, 0, 0, 0, 0, 0, 0, 0, 0, 0, 1, 0, 0, 0, 0\n0, 0, 0, 0, 1, 0, 0, 0]"] ;
84 -> 90 ;
91 [label="gini = 0.0\nsamples = 1\nvalue = [0, 0, 0, 0, 0, 0, 0, 0, 0, 0, 1, 0, 0, 0, 0\n0, 0, 0, 0, 0, 0, 0, 0]"] ;
90 -> 91 ;
92 [label="gini = 0.0\nsamples = 1\nvalue = [0, 0, 0, 0, 0, 0, 0, 0, 0, 0, 0, 0, 0, 0, 0\n0, 0, 0, 0, 1, 0, 0, 0]"] ;
90 -> 92 ;
93 [label="X[105] <= 0.112\ngini = 0.858\nsamples = 144\nvalue = [43, 26, 7, 2, 5, 4, 2, 1, 3, 3, 7, 10, 1, 5\n1, 2, 1, 0, 2, 3, 2, 9, 5]"] ;
33 -> 93 ;
94 [label="X[22] <= 4.5\ngini = 0.531\nsamples = 21\nvalue = [14, 1, 2, 0, 0, 0, 0, 0, 0, 0, 0, 0, 0, 0\n0, 0, 0, 0, 1, 0, 1, 2, 0]"] ;
93 -> 94 ;
95 [label="X[33] <= 1.5\ngini = 0.776\nsamples = 7\nvalue = [1, 1, 2, 0, 0, 0, 0, 0, 0, 0, 0, 0, 0, 0, 0\n0, 0, 0, 1, 0, 0, 2, 0]"] ;
94 -> 95 ;
96 [label="gini = 0.0\nsamples = 2\nvalue = [0, 0, 0, 0, 0, 0, 0, 0, 0, 0, 0, 0, 0, 0, 0\n0, 0, 0, 0, 0, 0, 2, 0]"] ;
95 -> 96 ;
97 [label="X[105] <= 0.068\ngini = 0.72\nsamples = 5\nvalue = [1, 1, 2, 0, 0, 0, 0, 0, 0, 0, 0, 0, 0, 0, 0\n0, 0, 0, 1, 0, 0, 0, 0]"] ;
95 -> 97 ;
98 [label="gini = 0.0\nsamples = 2\nvalue = [0, 0, 2, 0, 0, 0, 0, 0, 0, 0, 0, 0, 0, 0, 0\n0, 0, 0, 0, 0, 0, 0, 0]"] ;
97 -> 98 ;
99 [label="X[70] <= 0.029\ngini = 0.667\nsamples = 3\nvalue = [1, 1, 0, 0, 0, 0, 0, 0, 0, 0, 0, 0, 0, 0, 0\n0, 0, 0, 1, 0, 0, 0, 0]"] ;
97 -> 99 ;
100 [label="gini = 0.0\nsamples = 1\nvalue = [0, 1, 0, 0, 0, 0, 0, 0, 0, 0, 0, 0, 0, 0, 0\n0, 0, 0, 0, 0, 0, 0, 0]"] ;
99 -> 100 ;
101 [label="X[35] <= 12.0\ngini = 0.5\nsamples = 2\nvalue = [1, 0, 0, 0, 0, 0, 0, 0, 0, 0, 0, 0, 0, 0, 0\n0, 0, 0, 1, 0, 0, 0, 0]"] ;
99 -> 101 ;
102 [label="gini = 0.0\nsamples = 1\nvalue = [0, 0, 0, 0, 0, 0, 0, 0, 0, 0, 0, 0, 0, 0, 0\n0, 0, 0, 1, 0, 0, 0, 0]"] ;
101 -> 102 ;
103 [label="gini = 0.0\nsamples = 1\nvalue = [1, 0, 0, 0, 0, 0, 0, 0, 0, 0, 0, 0, 0, 0, 0\n0, 0, 0, 0, 0, 0, 0, 0]"] ;
101 -> 103 ;
104 [label="X[73] <= 0.049\ngini = 0.133\nsamples = 14\nvalue = [13, 0, 0, 0, 0, 0, 0, 0, 0, 0, 0, 0, 0, 0\n0, 0, 0, 0, 0, 0, 1, 0, 0]"] ;
94 -> 104 ;
105 [label="gini = 0.0\nsamples = 13\nvalue = [13, 0, 0, 0, 0, 0, 0, 0, 0, 0, 0, 0, 0, 0\n0, 0, 0, 0, 0, 0, 0, 0, 0]"] ;
104 -> 105 ;
106 [label="gini = 0.0\nsamples = 1\nvalue = [0, 0, 0, 0, 0, 0, 0, 0, 0, 0, 0, 0, 0, 0, 0\n0, 0, 0, 0, 0, 1, 0, 0]"] ;
104 -> 106 ;
107 [label="X[22] <= 42.5\ngini = 0.879\nsamples = 123\nvalue = [29, 25, 5, 2, 5, 4, 2, 1, 3, 3, 7, 10, 1, 5\n1, 2, 1, 0, 1, 3, 1, 7, 5]"] ;
93 -> 107 ;
108 [label="X[90] <= 0.001\ngini = 0.875\nsamples = 118\nvalue = [28, 25, 5, 2, 5, 4, 2, 1, 3, 3, 7, 10, 1, 5\n1, 2, 1, 0, 1, 3, 1, 7, 1]"] ;
107 -> 108 ;
109 [label="gini = 0.0\nsamples = 3\nvalue = [0, 0, 0, 0, 3, 0, 0, 0, 0, 0, 0, 0, 0, 0, 0\n0, 0, 0, 0, 0, 0, 0, 0]"] ;
108 -> 109 ;
110 [label="X[113] <= 0.027\ngini = 0.87\nsamples = 115\nvalue = [28, 25, 5, 2, 2, 4, 2, 1, 3, 3, 7, 10, 1, 5\n1, 2, 1, 0, 1, 3, 1, 7, 1]"] ;
108 -> 110 ;
111 [label="X[100] <= 0.061\ngini = 0.278\nsamples = 6\nvalue = [0, 5, 0, 0, 0, 1, 0, 0, 0, 0, 0, 0, 0, 0, 0\n0, 0, 0, 0, 0, 0, 0, 0]"] ;
110 -> 111 ;
112 [label="gini = 0.0\nsamples = 1\nvalue = [0, 0, 0, 0, 0, 1, 0, 0, 0, 0, 0, 0, 0, 0, 0\n0, 0, 0, 0, 0, 0, 0, 0]"] ;
111 -> 112 ;
113 [label="gini = 0.0\nsamples = 5\nvalue = [0, 5, 0, 0, 0, 0, 0, 0, 0, 0, 0, 0, 0, 0, 0\n0, 0, 0, 0, 0, 0, 0, 0]"] ;
111 -> 113 ;
114 [label="X[113] <= 0.083\ngini = 0.875\nsamples = 109\nvalue = [28, 20, 5, 2, 2, 3, 2, 1, 3, 3, 7, 10, 1, 5\n1, 2, 1, 0, 1, 3, 1, 7, 1]"] ;
110 -> 114 ;
115 [label="X[45] <= 10.0\ngini = 0.72\nsamples = 20\nvalue = [10, 0, 1, 0, 1, 0, 0, 0, 1, 0, 2, 0, 0, 1\n1, 0, 0, 0, 0, 1, 1, 1, 0]"] ;
114 -> 115 ;
116 [label="X[2] <= 1.5\ngini = 0.533\nsamples = 15\nvalue = [10, 0, 0, 0, 1, 0, 0, 0, 1, 0, 0, 0, 0, 1\n1, 0, 0, 0, 0, 0, 0, 1, 0]"] ;
115 -> 116 ;
117 [label="X[67] <= 0.034\ngini = 0.5\nsamples = 2\nvalue = [0, 0, 0, 0, 0, 0, 0, 0, 0, 0, 0, 0, 0, 0, 1\n0, 0, 0, 0, 0, 0, 1, 0]"] ;
116 -> 117 ;
118 [label="gini = 0.0\nsamples = 1\nvalue = [0, 0, 0, 0, 0, 0, 0, 0, 0, 0, 0, 0, 0, 0, 1\n0, 0, 0, 0, 0, 0, 0, 0]"] ;
117 -> 118 ;
119 [label="gini = 0.0\nsamples = 1\nvalue = [0, 0, 0, 0, 0, 0, 0, 0, 0, 0, 0, 0, 0, 0, 0\n0, 0, 0, 0, 0, 0, 1, 0]"] ;
117 -> 119 ;
120 [label="X[111] <= 0.102\ngini = 0.391\nsamples = 13\nvalue = [10, 0, 0, 0, 1, 0, 0, 0, 1, 0, 0, 0, 0, 1\n0, 0, 0, 0, 0, 0, 0, 0, 0]"] ;
116 -> 120 ;
121 [label="X[77] <= 0.154\ngini = 0.5\nsamples = 2\nvalue = [0, 0, 0, 0, 1, 0, 0, 0, 1, 0, 0, 0, 0, 0, 0\n0, 0, 0, 0, 0, 0, 0, 0]"] ;
120 -> 121 ;
122 [label="gini = 0.0\nsamples = 1\nvalue = [0, 0, 0, 0, 1, 0, 0, 0, 0, 0, 0, 0, 0, 0, 0\n0, 0, 0, 0, 0, 0, 0, 0]"] ;
121 -> 122 ;
123 [label="gini = 0.0\nsamples = 1\nvalue = [0, 0, 0, 0, 0, 0, 0, 0, 1, 0, 0, 0, 0, 0, 0\n0, 0, 0, 0, 0, 0, 0, 0]"] ;
121 -> 123 ;
124 [label="X[84] <= 0.176\ngini = 0.165\nsamples = 11\nvalue = [10, 0, 0, 0, 0, 0, 0, 0, 0, 0, 0, 0, 0, 1\n0, 0, 0, 0, 0, 0, 0, 0, 0]"] ;
120 -> 124 ;
125 [label="gini = 0.0\nsamples = 10\nvalue = [10, 0, 0, 0, 0, 0, 0, 0, 0, 0, 0, 0, 0, 0\n0, 0, 0, 0, 0, 0, 0, 0, 0]"] ;
124 -> 125 ;
126 [label="gini = 0.0\nsamples = 1\nvalue = [0, 0, 0, 0, 0, 0, 0, 0, 0, 0, 0, 0, 0, 1, 0\n0, 0, 0, 0, 0, 0, 0, 0]"] ;
124 -> 126 ;
127 [label="X[91] <= 0.013\ngini = 0.72\nsamples = 5\nvalue = [0, 0, 1, 0, 0, 0, 0, 0, 0, 0, 2, 0, 0, 0, 0\n0, 0, 0, 0, 1, 1, 0, 0]"] ;
115 -> 127 ;
128 [label="X[47] <= 57.5\ngini = 0.444\nsamples = 3\nvalue = [0, 0, 0, 0, 0, 0, 0, 0, 0, 0, 2, 0, 0, 0, 0\n0, 0, 0, 0, 1, 0, 0, 0]"] ;
127 -> 128 ;
129 [label="gini = 0.0\nsamples = 2\nvalue = [0, 0, 0, 0, 0, 0, 0, 0, 0, 0, 2, 0, 0, 0, 0\n0, 0, 0, 0, 0, 0, 0, 0]"] ;
128 -> 129 ;
130 [label="gini = 0.0\nsamples = 1\nvalue = [0, 0, 0, 0, 0, 0, 0, 0, 0, 0, 0, 0, 0, 0, 0\n0, 0, 0, 0, 1, 0, 0, 0]"] ;
128 -> 130 ;
131 [label="X[33] <= 10.0\ngini = 0.5\nsamples = 2\nvalue = [0, 0, 1, 0, 0, 0, 0, 0, 0, 0, 0, 0, 0, 0, 0\n0, 0, 0, 0, 0, 1, 0, 0]"] ;
127 -> 131 ;
132 [label="gini = 0.0\nsamples = 1\nvalue = [0, 0, 0, 0, 0, 0, 0, 0, 0, 0, 0, 0, 0, 0, 0\n0, 0, 0, 0, 0, 1, 0, 0]"] ;
131 -> 132 ;
133 [label="gini = 0.0\nsamples = 1\nvalue = [0, 0, 1, 0, 0, 0, 0, 0, 0, 0, 0, 0, 0, 0, 0\n0, 0, 0, 0, 0, 0, 0, 0]"] ;
131 -> 133 ;
134 [label="X[113] <= 0.266\ngini = 0.879\nsamples = 89\nvalue = [18, 20, 4, 2, 1, 3, 2, 1, 2, 3, 5, 10, 1, 4\n0, 2, 1, 0, 1, 2, 0, 6, 1]"] ;
114 -> 134 ;
135 [label="X[105] <= 0.24\ngini = 0.886\nsamples = 83\nvalue = [13, 20, 4, 2, 1, 3, 2, 1, 2, 3, 5, 9, 1, 4\n0, 2, 1, 0, 1, 2, 0, 6, 1]"] ;
134 -> 135 ;
136 [label="X[111] <= 0.053\ngini = 0.926\nsamples = 47\nvalue = [6, 5, 2, 2, 1, 3, 2, 1, 1, 2, 4, 5, 1, 4, 0\n0, 1, 0, 1, 2, 0, 3, 1]"] ;
135 -> 136 ;
137 [label="X[28] <= 0.5\ngini = 0.56\nsamples = 5\nvalue = [0, 1, 1, 0, 0, 0, 0, 0, 0, 0, 0, 0, 0, 0, 0\n0, 0, 0, 0, 0, 0, 3, 0]"] ;
136 -> 137 ;
138 [label="X[114] <= 2.147\ngini = 0.5\nsamples = 2\nvalue = [0, 1, 1, 0, 0, 0, 0, 0, 0, 0, 0, 0, 0, 0, 0\n0, 0, 0, 0, 0, 0, 0, 0]"] ;
137 -> 138 ;
139 [label="gini = 0.0\nsamples = 1\nvalue = [0, 0, 1, 0, 0, 0, 0, 0, 0, 0, 0, 0, 0, 0, 0\n0, 0, 0, 0, 0, 0, 0, 0]"] ;
138 -> 139 ;
140 [label="gini = 0.0\nsamples = 1\nvalue = [0, 1, 0, 0, 0, 0, 0, 0, 0, 0, 0, 0, 0, 0, 0\n0, 0, 0, 0, 0, 0, 0, 0]"] ;
138 -> 140 ;
141 [label="gini = 0.0\nsamples = 3\nvalue = [0, 0, 0, 0, 0, 0, 0, 0, 0, 0, 0, 0, 0, 0, 0\n0, 0, 0, 0, 0, 0, 3, 0]"] ;
137 -> 141 ;
142 [label="X[78] <= 0.03\ngini = 0.92\nsamples = 42\nvalue = [6, 4, 1, 2, 1, 3, 2, 1, 1, 2, 4, 5, 1, 4, 0\n0, 1, 0, 1, 2, 0, 0, 1]"] ;
136 -> 142 ;
143 [label="X[118] <= 0.201\ngini = 0.921\nsamples = 38\nvalue = [3, 4, 1, 2, 0, 3, 2, 1, 1, 2, 4, 5, 1, 4, 0\n0, 1, 0, 1, 2, 0, 0, 1]"] ;
142 -> 143 ;
144 [label="X[94] <= 0.154\ngini = 0.878\nsamples = 24\nvalue = [3, 3, 1, 1, 0, 3, 0, 1, 0, 0, 0, 5, 0, 3, 0\n0, 1, 0, 0, 2, 0, 0, 1]"] ;
143 -> 144 ;
145 [label="X[90] <= 0.031\ngini = 0.883\nsamples = 18\nvalue = [1, 3, 1, 1, 0, 3, 0, 1, 0, 0, 0, 1, 0, 3, 0\n0, 1, 0, 0, 2, 0, 0, 1]"] ;
144 -> 145 ;
146 [label="gini = 0.867\nsamples = 16\nvalue = [1, 3, 1, 1, 0, 3, 0, 1, 0, 0, 0, 1, 0, 3, 0\n0, 1, 0, 0, 0, 0, 0, 1]"] ;
145 -> 146 ;
147 [label="gini = 0.0\nsamples = 2\nvalue = [0, 0, 0, 0, 0, 0, 0, 0, 0, 0, 0, 0, 0, 0, 0\n0, 0, 0, 0, 2, 0, 0, 0]"] ;
145 -> 147 ;
148 [label="X[114] <= 2.221\ngini = 0.444\nsamples = 6\nvalue = [2, 0, 0, 0, 0, 0, 0, 0, 0, 0, 0, 4, 0, 0, 0\n0, 0, 0, 0, 0, 0, 0, 0]"] ;
144 -> 148 ;
149 [label="gini = 0.0\nsamples = 2\nvalue = [2, 0, 0, 0, 0, 0, 0, 0, 0, 0, 0, 0, 0, 0, 0\n0, 0, 0, 0, 0, 0, 0, 0]"] ;
148 -> 149 ;
150 [label="gini = 0.0\nsamples = 4\nvalue = [0, 0, 0, 0, 0, 0, 0, 0, 0, 0, 0, 4, 0, 0, 0\n0, 0, 0, 0, 0, 0, 0, 0]"] ;
148 -> 150 ;
151 [label="X[89] <= 0.143\ngini = 0.847\nsamples = 14\nvalue = [0, 1, 0, 1, 0, 0, 2, 0, 1, 2, 4, 0, 1, 1, 0\n0, 0, 0, 1, 0, 0, 0, 0]"] ;
143 -> 151 ;
152 [label="X[15] <= 14.5\ngini = 0.5\nsamples = 6\nvalue = [0, 0, 0, 0, 0, 0, 0, 0, 0, 1, 4, 0, 1, 0, 0\n0, 0, 0, 0, 0, 0, 0, 0]"] ;
151 -> 152 ;
153 [label="gini = 0.0\nsamples = 4\nvalue = [0, 0, 0, 0, 0, 0, 0, 0, 0, 0, 4, 0, 0, 0, 0\n0, 0, 0, 0, 0, 0, 0, 0]"] ;
152 -> 153 ;
154 [label="gini = 0.5\nsamples = 2\nvalue = [0, 0, 0, 0, 0, 0, 0, 0, 0, 1, 0, 0, 1, 0, 0\n0, 0, 0, 0, 0, 0, 0, 0]"] ;
152 -> 154 ;
155 [label="X[60] <= 83.5\ngini = 0.844\nsamples = 8\nvalue = [0, 1, 0, 1, 0, 0, 2, 0, 1, 1, 0, 0, 0, 1, 0\n0, 0, 0, 1, 0, 0, 0, 0]"] ;
151 -> 155 ;
156 [label="gini = 0.0\nsamples = 2\nvalue = [0, 0, 0, 0, 0, 0, 2, 0, 0, 0, 0, 0, 0, 0, 0\n0, 0, 0, 0, 0, 0, 0, 0]"] ;
155 -> 156 ;
157 [label="gini = 0.833\nsamples = 6\nvalue = [0, 1, 0, 1, 0, 0, 0, 0, 1, 1, 0, 0, 0, 1, 0\n0, 0, 0, 1, 0, 0, 0, 0]"] ;
155 -> 157 ;
158 [label="X[61] <= 16.0\ngini = 0.375\nsamples = 4\nvalue = [3, 0, 0, 0, 1, 0, 0, 0, 0, 0, 0, 0, 0, 0, 0\n0, 0, 0, 0, 0, 0, 0, 0]"] ;
142 -> 158 ;
159 [label="gini = 0.0\nsamples = 3\nvalue = [3, 0, 0, 0, 0, 0, 0, 0, 0, 0, 0, 0, 0, 0, 0\n0, 0, 0, 0, 0, 0, 0, 0]"] ;
158 -> 159 ;
160 [label="gini = 0.0\nsamples = 1\nvalue = [0, 0, 0, 0, 1, 0, 0, 0, 0, 0, 0, 0, 0, 0, 0\n0, 0, 0, 0, 0, 0, 0, 0]"] ;
158 -> 160 ;
161 [label="X[111] <= 0.173\ngini = 0.761\nsamples = 36\nvalue = [7, 15, 2, 0, 0, 0, 0, 0, 1, 1, 1, 4, 0, 0\n0, 2, 0, 0, 0, 0, 0, 3, 0]"] ;
135 -> 161 ;
162 [label="X[72] <= 0.057\ngini = 0.417\nsamples = 12\nvalue = [0, 9, 1, 0, 0, 0, 0, 0, 0, 0, 0, 1, 0, 0, 0\n1, 0, 0, 0, 0, 0, 0, 0]"] ;
161 -> 162 ;
163 [label="X[110] <= 0.013\ngini = 0.667\nsamples = 3\nvalue = [0, 0, 1, 0, 0, 0, 0, 0, 0, 0, 0, 1, 0, 0, 0\n1, 0, 0, 0, 0, 0, 0, 0]"] ;
162 -> 163 ;
164 [label="gini = 0.0\nsamples = 1\nvalue = [0, 0, 0, 0, 0, 0, 0, 0, 0, 0, 0, 0, 0, 0, 0\n1, 0, 0, 0, 0, 0, 0, 0]"] ;
163 -> 164 ;
165 [label="X[66] <= 0.053\ngini = 0.5\nsamples = 2\nvalue = [0, 0, 1, 0, 0, 0, 0, 0, 0, 0, 0, 1, 0, 0, 0\n0, 0, 0, 0, 0, 0, 0, 0]"] ;
163 -> 165 ;
166 [label="gini = 0.0\nsamples = 1\nvalue = [0, 0, 0, 0, 0, 0, 0, 0, 0, 0, 0, 1, 0, 0, 0\n0, 0, 0, 0, 0, 0, 0, 0]"] ;
165 -> 166 ;
167 [label="gini = 0.0\nsamples = 1\nvalue = [0, 0, 1, 0, 0, 0, 0, 0, 0, 0, 0, 0, 0, 0, 0\n0, 0, 0, 0, 0, 0, 0, 0]"] ;
165 -> 167 ;
168 [label="gini = 0.0\nsamples = 9\nvalue = [0, 9, 0, 0, 0, 0, 0, 0, 0, 0, 0, 0, 0, 0, 0\n0, 0, 0, 0, 0, 0, 0, 0]"] ;
162 -> 168 ;
169 [label="X[99] <= 0.102\ngini = 0.812\nsamples = 24\nvalue = [7, 6, 1, 0, 0, 0, 0, 0, 1, 1, 1, 3, 0, 0, 0\n1, 0, 0, 0, 0, 0, 3, 0]"] ;
161 -> 169 ;
170 [label="X[99] <= 0.092\ngini = 0.625\nsamples = 4\nvalue = [0, 0, 1, 0, 0, 0, 0, 0, 0, 1, 0, 0, 0, 0, 0\n0, 0, 0, 0, 0, 0, 2, 0]"] ;
169 -> 170 ;
171 [label="X[116] <= 0.472\ngini = 0.5\nsamples = 2\nvalue = [0, 0, 1, 0, 0, 0, 0, 0, 0, 1, 0, 0, 0, 0, 0\n0, 0, 0, 0, 0, 0, 0, 0]"] ;
170 -> 171 ;
172 [label="gini = 0.0\nsamples = 1\nvalue = [0, 0, 1, 0, 0, 0, 0, 0, 0, 0, 0, 0, 0, 0, 0\n0, 0, 0, 0, 0, 0, 0, 0]"] ;
171 -> 172 ;
173 [label="gini = 0.0\nsamples = 1\nvalue = [0, 0, 0, 0, 0, 0, 0, 0, 0, 1, 0, 0, 0, 0, 0\n0, 0, 0, 0, 0, 0, 0, 0]"] ;
171 -> 173 ;
174 [label="gini = 0.0\nsamples = 2\nvalue = [0, 0, 0, 0, 0, 0, 0, 0, 0, 0, 0, 0, 0, 0, 0\n0, 0, 0, 0, 0, 0, 2, 0]"] ;
170 -> 174 ;
175 [label="X[99] <= 0.232\ngini = 0.755\nsamples = 20\nvalue = [7, 6, 0, 0, 0, 0, 0, 0, 1, 0, 1, 3, 0, 0, 0\n1, 0, 0, 0, 0, 0, 1, 0]"] ;
169 -> 175 ;
176 [label="X[72] <= 0.16\ngini = 0.692\nsamples = 17\nvalue = [7, 6, 0, 0, 0, 0, 0, 0, 1, 0, 0, 1, 0, 0, 0\n1, 0, 0, 0, 0, 0, 1, 0]"] ;
175 -> 176 ;
177 [label="X[16] <= 2.0\ngini = 0.583\nsamples = 12\nvalue = [7, 3, 0, 0, 0, 0, 0, 0, 0, 0, 0, 0, 0, 0, 0\n1, 0, 0, 0, 0, 0, 1, 0]"] ;
176 -> 177 ;
178 [label="gini = 0.406\nsamples = 8\nvalue = [6, 0, 0, 0, 0, 0, 0, 0, 0, 0, 0, 0, 0, 0, 0\n1, 0, 0, 0, 0, 0, 1, 0]"] ;
177 -> 178 ;
179 [label="gini = 0.375\nsamples = 4\nvalue = [1, 3, 0, 0, 0, 0, 0, 0, 0, 0, 0, 0, 0, 0, 0\n0, 0, 0, 0, 0, 0, 0, 0]"] ;
177 -> 179 ;
180 [label="X[64] <= 6748.29\ngini = 0.56\nsamples = 5\nvalue = [0, 3, 0, 0, 0, 0, 0, 0, 1, 0, 0, 1, 0, 0, 0\n0, 0, 0, 0, 0, 0, 0, 0]"] ;
176 -> 180 ;
181 [label="gini = 0.5\nsamples = 2\nvalue = [0, 0, 0, 0, 0, 0, 0, 0, 1, 0, 0, 1, 0, 0, 0\n0, 0, 0, 0, 0, 0, 0, 0]"] ;
180 -> 181 ;
182 [label="gini = 0.0\nsamples = 3\nvalue = [0, 3, 0, 0, 0, 0, 0, 0, 0, 0, 0, 0, 0, 0, 0\n0, 0, 0, 0, 0, 0, 0, 0]"] ;
180 -> 182 ;
183 [label="X[45] <= 2.0\ngini = 0.444\nsamples = 3\nvalue = [0, 0, 0, 0, 0, 0, 0, 0, 0, 0, 1, 2, 0, 0, 0\n0, 0, 0, 0, 0, 0, 0, 0]"] ;
175 -> 183 ;
184 [label="gini = 0.0\nsamples = 2\nvalue = [0, 0, 0, 0, 0, 0, 0, 0, 0, 0, 0, 2, 0, 0, 0\n0, 0, 0, 0, 0, 0, 0, 0]"] ;
183 -> 184 ;
185 [label="gini = 0.0\nsamples = 1\nvalue = [0, 0, 0, 0, 0, 0, 0, 0, 0, 0, 1, 0, 0, 0, 0\n0, 0, 0, 0, 0, 0, 0, 0]"] ;
183 -> 185 ;
186 [label="X[46] <= 4.5\ngini = 0.278\nsamples = 6\nvalue = [5, 0, 0, 0, 0, 0, 0, 0, 0, 0, 0, 1, 0, 0, 0\n0, 0, 0, 0, 0, 0, 0, 0]"] ;
134 -> 186 ;
187 [label="gini = 0.0\nsamples = 1\nvalue = [0, 0, 0, 0, 0, 0, 0, 0, 0, 0, 0, 1, 0, 0, 0\n0, 0, 0, 0, 0, 0, 0, 0]"] ;
186 -> 187 ;
188 [label="gini = 0.0\nsamples = 5\nvalue = [5, 0, 0, 0, 0, 0, 0, 0, 0, 0, 0, 0, 0, 0, 0\n0, 0, 0, 0, 0, 0, 0, 0]"] ;
186 -> 188 ;
189 [label="X[113] <= 0.093\ngini = 0.32\nsamples = 5\nvalue = [1, 0, 0, 0, 0, 0, 0, 0, 0, 0, 0, 0, 0, 0, 0\n0, 0, 0, 0, 0, 0, 0, 4]"] ;
107 -> 189 ;
190 [label="gini = 0.0\nsamples = 1\nvalue = [1, 0, 0, 0, 0, 0, 0, 0, 0, 0, 0, 0, 0, 0, 0\n0, 0, 0, 0, 0, 0, 0, 0]"] ;
189 -> 190 ;
191 [label="gini = 0.0\nsamples = 4\nvalue = [0, 0, 0, 0, 0, 0, 0, 0, 0, 0, 0, 0, 0, 0, 0\n0, 0, 0, 0, 0, 0, 0, 4]"] ;
189 -> 191 ;
192 [label="X[48] <= 43.0\ngini = 0.565\nsamples = 39\nvalue = [25, 0, 0, 0, 0, 0, 0, 0, 0, 0, 0, 4, 3, 0\n0, 1, 0, 2, 0, 1, 1, 2, 0]"] ;
32 -> 192 ;
193 [label="X[116] <= 0.034\ngini = 0.083\nsamples = 23\nvalue = [22, 0, 0, 0, 0, 0, 0, 0, 0, 0, 0, 1, 0, 0\n0, 0, 0, 0, 0, 0, 0, 0, 0]"] ;
192 -> 193 ;
194 [label="gini = 0.0\nsamples = 1\nvalue = [0, 0, 0, 0, 0, 0, 0, 0, 0, 0, 0, 1, 0, 0, 0\n0, 0, 0, 0, 0, 0, 0, 0]"] ;
193 -> 194 ;
195 [label="gini = 0.0\nsamples = 22\nvalue = [22, 0, 0, 0, 0, 0, 0, 0, 0, 0, 0, 0, 0, 0\n0, 0, 0, 0, 0, 0, 0, 0, 0]"] ;
193 -> 195 ;
196 [label="X[25] <= 0.591\ngini = 0.852\nsamples = 16\nvalue = [3, 0, 0, 0, 0, 0, 0, 0, 0, 0, 0, 3, 3, 0, 0\n1, 0, 2, 0, 1, 1, 2, 0]"] ;
192 -> 196 ;
197 [label="X[24] <= 8.292\ngini = 0.375\nsamples = 4\nvalue = [0, 0, 0, 0, 0, 0, 0, 0, 0, 0, 0, 3, 0, 0, 0\n0, 0, 0, 0, 0, 1, 0, 0]"] ;
196 -> 197 ;
198 [label="gini = 0.0\nsamples = 1\nvalue = [0, 0, 0, 0, 0, 0, 0, 0, 0, 0, 0, 0, 0, 0, 0\n0, 0, 0, 0, 0, 1, 0, 0]"] ;
197 -> 198 ;
199 [label="gini = 0.0\nsamples = 3\nvalue = [0, 0, 0, 0, 0, 0, 0, 0, 0, 0, 0, 3, 0, 0, 0\n0, 0, 0, 0, 0, 0, 0, 0]"] ;
197 -> 199 ;
200 [label="X[112] <= 0.088\ngini = 0.806\nsamples = 12\nvalue = [3, 0, 0, 0, 0, 0, 0, 0, 0, 0, 0, 0, 3, 0, 0\n1, 0, 2, 0, 1, 0, 2, 0]"] ;
196 -> 200 ;
201 [label="X[25] <= 1.2\ngini = 0.75\nsamples = 8\nvalue = [3, 0, 0, 0, 0, 0, 0, 0, 0, 0, 0, 0, 0, 0, 0\n1, 0, 2, 0, 1, 0, 1, 0]"] ;
200 -> 201 ;
202 [label="X[56] <= 14.5\ngini = 0.667\nsamples = 3\nvalue = [0, 0, 0, 0, 0, 0, 0, 0, 0, 0, 0, 0, 0, 0, 0\n1, 0, 1, 0, 0, 0, 1, 0]"] ;
201 -> 202 ;
203 [label="X[26] <= 1.833\ngini = 0.5\nsamples = 2\nvalue = [0, 0, 0, 0, 0, 0, 0, 0, 0, 0, 0, 0, 0, 0, 0\n0, 0, 1, 0, 0, 0, 1, 0]"] ;
202 -> 203 ;
204 [label="gini = 0.0\nsamples = 1\nvalue = [0, 0, 0, 0, 0, 0, 0, 0, 0, 0, 0, 0, 0, 0, 0\n0, 0, 1, 0, 0, 0, 0, 0]"] ;
203 -> 204 ;
205 [label="gini = 0.0\nsamples = 1\nvalue = [0, 0, 0, 0, 0, 0, 0, 0, 0, 0, 0, 0, 0, 0, 0\n0, 0, 0, 0, 0, 0, 1, 0]"] ;
203 -> 205 ;
206 [label="gini = 0.0\nsamples = 1\nvalue = [0, 0, 0, 0, 0, 0, 0, 0, 0, 0, 0, 0, 0, 0, 0\n1, 0, 0, 0, 0, 0, 0, 0]"] ;
202 -> 206 ;
207 [label="X[44] <= 2.0\ngini = 0.56\nsamples = 5\nvalue = [3, 0, 0, 0, 0, 0, 0, 0, 0, 0, 0, 0, 0, 0, 0\n0, 0, 1, 0, 1, 0, 0, 0]"] ;
201 -> 207 ;
208 [label="gini = 0.5\nsamples = 2\nvalue = [1, 0, 0, 0, 0, 0, 0, 0, 0, 0, 0, 0, 0, 0, 0\n0, 0, 1, 0, 0, 0, 0, 0]"] ;
207 -> 208 ;
209 [label="X[36] <= 24.5\ngini = 0.444\nsamples = 3\nvalue = [2, 0, 0, 0, 0, 0, 0, 0, 0, 0, 0, 0, 0, 0, 0\n0, 0, 0, 0, 1, 0, 0, 0]"] ;
207 -> 209 ;
210 [label="gini = 0.0\nsamples = 1\nvalue = [1, 0, 0, 0, 0, 0, 0, 0, 0, 0, 0, 0, 0, 0, 0\n0, 0, 0, 0, 0, 0, 0, 0]"] ;
209 -> 210 ;
211 [label="gini = 0.5\nsamples = 2\nvalue = [1, 0, 0, 0, 0, 0, 0, 0, 0, 0, 0, 0, 0, 0, 0\n0, 0, 0, 0, 1, 0, 0, 0]"] ;
209 -> 211 ;
212 [label="X[72] <= 0.011\ngini = 0.375\nsamples = 4\nvalue = [0, 0, 0, 0, 0, 0, 0, 0, 0, 0, 0, 0, 3, 0, 0\n0, 0, 0, 0, 0, 0, 1, 0]"] ;
200 -> 212 ;
213 [label="gini = 0.0\nsamples = 1\nvalue = [0, 0, 0, 0, 0, 0, 0, 0, 0, 0, 0, 0, 0, 0, 0\n0, 0, 0, 0, 0, 0, 1, 0]"] ;
212 -> 213 ;
214 [label="gini = 0.0\nsamples = 3\nvalue = [0, 0, 0, 0, 0, 0, 0, 0, 0, 0, 0, 0, 3, 0, 0\n0, 0, 0, 0, 0, 0, 0, 0]"] ;
212 -> 214 ;
}