digraph Tree {
node [shape=box] ;
0 [label="X[22] <= 13.5\ngini = 0.828\nsamples = 303\nvalue = [87, 32, 24, 16, 76, 8, 13, 10, 10, 9, 2, 4, 6\n6]"] ;
1 [label="X[83] <= 0.054\ngini = 0.843\nsamples = 251\nvalue = [49, 32, 24, 16, 72, 8, 11, 9, 8, 8, 2, 3, 5\n4]"] ;
0 -> 1 [labeldistance=2.5, labelangle=45, headlabel="True"] ;
2 [label="X[25] <= 0.408\ngini = 0.845\nsamples = 241\nvalue = [40, 31, 24, 16, 72, 8, 11, 9, 8, 8, 2, 3, 5\n4]"] ;
1 -> 2 ;
3 [label="X[62] <= 10.635\ngini = 0.756\nsamples = 55\nvalue = [0, 14, 11, 1, 20, 1, 0, 3, 3, 1, 0, 0, 1, 0]"] ;
2 -> 3 ;
4 [label="X[53] <= 1.5\ngini = 0.747\nsamples = 17\nvalue = [0, 0, 7, 1, 3, 1, 0, 3, 2, 0, 0, 0, 0, 0]"] ;
3 -> 4 ;
5 [label="X[89] <= 0.333\ngini = 0.611\nsamples = 6\nvalue = [0, 0, 0, 1, 0, 0, 0, 3, 2, 0, 0, 0, 0, 0]"] ;
4 -> 5 ;
6 [label="gini = 0.0\nsamples = 2\nvalue = [0, 0, 0, 0, 0, 0, 0, 0, 2, 0, 0, 0, 0, 0]"] ;
5 -> 6 ;
7 [label="X[72] <= 0.367\ngini = 0.375\nsamples = 4\nvalue = [0, 0, 0, 1, 0, 0, 0, 3, 0, 0, 0, 0, 0, 0]"] ;
5 -> 7 ;
8 [label="gini = 0.0\nsamples = 3\nvalue = [0, 0, 0, 0, 0, 0, 0, 3, 0, 0, 0, 0, 0, 0]"] ;
7 -> 8 ;
9 [label="gini = 0.0\nsamples = 1\nvalue = [0, 0, 0, 1, 0, 0, 0, 0, 0, 0, 0, 0, 0, 0]"] ;
7 -> 9 ;
10 [label="X[85] <= 0.586\ngini = 0.512\nsamples = 11\nvalue = [0, 0, 7, 0, 3, 1, 0, 0, 0, 0, 0, 0, 0, 0]"] ;
4 -> 10 ;
11 [label="X[69] <= 0.351\ngini = 0.5\nsamples = 2\nvalue = [0, 0, 0, 0, 1, 1, 0, 0, 0, 0, 0, 0, 0, 0]"] ;
10 -> 11 ;
12 [label="gini = 0.0\nsamples = 1\nvalue = [0, 0, 0, 0, 1, 0, 0, 0, 0, 0, 0, 0, 0, 0]"] ;
11 -> 12 ;
13 [label="gini = 0.0\nsamples = 1\nvalue = [0, 0, 0, 0, 0, 1, 0, 0, 0, 0, 0, 0, 0, 0]"] ;
11 -> 13 ;
14 [label="X[53] <= 4.5\ngini = 0.346\nsamples = 9\nvalue = [0, 0, 7, 0, 2, 0, 0, 0, 0, 0, 0, 0, 0, 0]"] ;
10 -> 14 ;
15 [label="X[47] <= 2.5\ngini = 0.219\nsamples = 8\nvalue = [0, 0, 7, 0, 1, 0, 0, 0, 0, 0, 0, 0, 0, 0]"] ;
14 -> 15 ;
16 [label="gini = 0.0\nsamples = 7\nvalue = [0, 0, 7, 0, 0, 0, 0, 0, 0, 0, 0, 0, 0, 0]"] ;
15 -> 16 ;
17 [label="gini = 0.0\nsamples = 1\nvalue = [0, 0, 0, 0, 1, 0, 0, 0, 0, 0, 0, 0, 0, 0]"] ;
15 -> 17 ;
18 [label="gini = 0.0\nsamples = 1\nvalue = [0, 0, 0, 0, 1, 0, 0, 0, 0, 0, 0, 0, 0, 0]"] ;
14 -> 18 ;
19 [label="X[77] <= 0.186\ngini = 0.651\nsamples = 38\nvalue = [0, 14, 4, 0, 17, 0, 0, 0, 1, 1, 0, 0, 1, 0]"] ;
3 -> 19 ;
20 [label="X[94] <= 0.134\ngini = 0.298\nsamples = 11\nvalue = [0, 2, 0, 0, 9, 0, 0, 0, 0, 0, 0, 0, 0, 0]"] ;
19 -> 20 ;
21 [label="X[18] <= 0.5\ngini = 0.444\nsamples = 3\nvalue = [0, 2, 0, 0, 1, 0, 0, 0, 0, 0, 0, 0, 0, 0]"] ;
20 -> 21 ;
22 [label="gini = 0.0\nsamples = 2\nvalue = [0, 2, 0, 0, 0, 0, 0, 0, 0, 0, 0, 0, 0, 0]"] ;
21 -> 22 ;
23 [label="gini = 0.0\nsamples = 1\nvalue = [0, 0, 0, 0, 1, 0, 0, 0, 0, 0, 0, 0, 0, 0]"] ;
21 -> 23 ;
24 [label="gini = 0.0\nsamples = 8\nvalue = [0, 0, 0, 0, 8, 0, 0, 0, 0, 0, 0, 0, 0, 0]"] ;
20 -> 24 ;
25 [label="X[86] <= 0.354\ngini = 0.689\nsamples = 27\nvalue = [0, 12, 4, 0, 8, 0, 0, 0, 1, 1, 0, 0, 1, 0]"] ;
19 -> 25 ;
26 [label="X[86] <= 0.112\ngini = 0.656\nsamples = 25\nvalue = [0, 12, 2, 0, 8, 0, 0, 0, 1, 1, 0, 0, 1, 0]"] ;
25 -> 26 ;
27 [label="gini = 0.0\nsamples = 4\nvalue = [0, 4, 0, 0, 0, 0, 0, 0, 0, 0, 0, 0, 0, 0]"] ;
26 -> 27 ;
28 [label="X[75] <= 0.031\ngini = 0.694\nsamples = 21\nvalue = [0, 8, 2, 0, 8, 0, 0, 0, 1, 1, 0, 0, 1, 0]"] ;
26 -> 28 ;
29 [label="gini = 0.632\nsamples = 19\nvalue = [0, 8, 2, 0, 8, 0, 0, 0, 0, 0, 0, 0, 1, 0]"] ;
28 -> 29 ;
30 [label="gini = 0.5\nsamples = 2\nvalue = [0, 0, 0, 0, 0, 0, 0, 0, 1, 1, 0, 0, 0, 0]"] ;
28 -> 30 ;
31 [label="gini = 0.0\nsamples = 2\nvalue = [0, 0, 2, 0, 0, 0, 0, 0, 0, 0, 0, 0, 0, 0]"] ;
25 -> 31 ;
32 [label="X[62] <= 21.094\ngini = 0.846\nsamples = 186\nvalue = [40, 17, 13, 15, 52, 7, 11, 6, 5, 7, 2, 3, 4\n4]"] ;
2 -> 32 ;
33 [label="X[70] <= 0.16\ngini = 0.73\nsamples = 80\nvalue = [14, 5, 4, 10, 37, 1, 1, 3, 2, 2, 0, 0, 0, 1]"] ;
32 -> 33 ;
34 [label="X[114] <= 2.365\ngini = 0.691\nsamples = 71\nvalue = [14, 5, 2, 4, 36, 1, 1, 3, 2, 2, 0, 0, 0, 1]"] ;
33 -> 34 ;
35 [label="X[112] <= 0.128\ngini = 0.76\nsamples = 59\nvalue = [14, 5, 2, 4, 24, 1, 1, 3, 2, 2, 0, 0, 0, 1]"] ;
34 -> 35 ;
36 [label="X[111] <= 0.321\ngini = 0.772\nsamples = 43\nvalue = [14, 2, 2, 3, 14, 1, 1, 2, 1, 2, 0, 0, 0, 1]"] ;
35 -> 36 ;
37 [label="gini = 0.766\nsamples = 34\nvalue = [7, 2, 2, 3, 14, 1, 0, 1, 1, 2, 0, 0, 0, 1]"] ;
36 -> 37 ;
38 [label="gini = 0.37\nsamples = 9\nvalue = [7, 0, 0, 0, 0, 0, 1, 1, 0, 0, 0, 0, 0, 0]"] ;
36 -> 38 ;
39 [label="X[86] <= 0.363\ngini = 0.562\nsamples = 16\nvalue = [0, 3, 0, 1, 10, 0, 0, 1, 1, 0, 0, 0, 0, 0]"] ;
35 -> 39 ;
40 [label="gini = 0.391\nsamples = 13\nvalue = [0, 1, 0, 0, 10, 0, 0, 1, 1, 0, 0, 0, 0, 0]"] ;
39 -> 40 ;
41 [label="gini = 0.444\nsamples = 3\nvalue = [0, 2, 0, 1, 0, 0, 0, 0, 0, 0, 0, 0, 0, 0]"] ;
39 -> 41 ;
42 [label="gini = 0.0\nsamples = 12\nvalue = [0, 0, 0, 0, 12, 0, 0, 0, 0, 0, 0, 0, 0, 0]"] ;
34 -> 42 ;
43 [label="X[73] <= 0.095\ngini = 0.494\nsamples = 9\nvalue = [0, 0, 2, 6, 1, 0, 0, 0, 0, 0, 0, 0, 0, 0]"] ;
33 -> 43 ;
44 [label="X[31] <= 3.5\ngini = 0.245\nsamples = 7\nvalue = [0, 0, 0, 6, 1, 0, 0, 0, 0, 0, 0, 0, 0, 0]"] ;
43 -> 44 ;
45 [label="gini = 0.0\nsamples = 6\nvalue = [0, 0, 0, 6, 0, 0, 0, 0, 0, 0, 0, 0, 0, 0]"] ;
44 -> 45 ;
46 [label="gini = 0.0\nsamples = 1\nvalue = [0, 0, 0, 0, 1, 0, 0, 0, 0, 0, 0, 0, 0, 0]"] ;
44 -> 46 ;
47 [label="gini = 0.0\nsamples = 2\nvalue = [0, 0, 2, 0, 0, 0, 0, 0, 0, 0, 0, 0, 0, 0]"] ;
43 -> 47 ;
48 [label="X[70] <= 0.003\ngini = 0.878\nsamples = 106\nvalue = [26, 12, 9, 5, 15, 6, 10, 3, 3, 5, 2, 3, 4, 3]"] ;
32 -> 48 ;
49 [label="gini = 0.0\nsamples = 3\nvalue = [0, 0, 0, 0, 0, 3, 0, 0, 0, 0, 0, 0, 0, 0]"] ;
48 -> 49 ;
50 [label="X[34] <= 2.5\ngini = 0.874\nsamples = 103\nvalue = [26, 12, 9, 5, 15, 3, 10, 3, 3, 5, 2, 3, 4, 3]"] ;
48 -> 50 ;
51 [label="X[46] <= 12.0\ngini = 0.82\nsamples = 16\nvalue = [0, 3, 5, 2, 0, 0, 2, 1, 0, 1, 0, 1, 1, 0]"] ;
50 -> 51 ;
52 [label="X[53] <= 3.5\ngini = 0.568\nsamples = 9\nvalue = [0, 3, 5, 0, 0, 0, 0, 0, 0, 1, 0, 0, 0, 0]"] ;
51 -> 52 ;
53 [label="gini = 0.444\nsamples = 3\nvalue = [0, 2, 0, 0, 0, 0, 0, 0, 0, 1, 0, 0, 0, 0]"] ;
52 -> 53 ;
54 [label="gini = 0.278\nsamples = 6\nvalue = [0, 1, 5, 0, 0, 0, 0, 0, 0, 0, 0, 0, 0, 0]"] ;
52 -> 54 ;
55 [label="X[70] <= 0.025\ngini = 0.776\nsamples = 7\nvalue = [0, 0, 0, 2, 0, 0, 2, 1, 0, 0, 0, 1, 1, 0]"] ;
51 -> 55 ;
56 [label="gini = 0.0\nsamples = 2\nvalue = [0, 0, 0, 2, 0, 0, 0, 0, 0, 0, 0, 0, 0, 0]"] ;
55 -> 56 ;
57 [label="gini = 0.72\nsamples = 5\nvalue = [0, 0, 0, 0, 0, 0, 2, 1, 0, 0, 0, 1, 1, 0]"] ;
55 -> 57 ;
58 [label="X[114] <= 2.216\ngini = 0.85\nsamples = 87\nvalue = [26, 9, 4, 3, 15, 3, 8, 2, 3, 4, 2, 2, 3, 3]"] ;
50 -> 58 ;
59 [label="X[114] <= 2.028\ngini = 0.664\nsamples = 27\nvalue = [15, 3, 1, 1, 2, 1, 1, 1, 0, 1, 1, 0, 0, 0]"] ;
58 -> 59 ;
60 [label="gini = 0.72\nsamples = 5\nvalue = [0, 2, 0, 0, 1, 0, 1, 1, 0, 0, 0, 0, 0, 0]"] ;
59 -> 60 ;
61 [label="gini = 0.521\nsamples = 22\nvalue = [15, 1, 1, 1, 1, 1, 0, 0, 0, 1, 1, 0, 0, 0]"] ;
59 -> 61 ;
62 [label="X[47] <= 11.5\ngini = 0.879\nsamples = 60\nvalue = [11, 6, 3, 2, 13, 2, 7, 1, 3, 3, 1, 2, 3, 3]"] ;
58 -> 62 ;
63 [label="gini = 0.837\nsamples = 45\nvalue = [10, 3, 3, 2, 12, 1, 7, 1, 0, 3, 0, 1, 0, 2]"] ;
62 -> 63 ;
64 [label="gini = 0.853\nsamples = 15\nvalue = [1, 3, 0, 0, 1, 1, 0, 0, 3, 0, 1, 1, 3, 1]"] ;
62 -> 64 ;
65 [label="X[96] <= 0.146\ngini = 0.18\nsamples = 10\nvalue = [9, 1, 0, 0, 0, 0, 0, 0, 0, 0, 0, 0, 0, 0]"] ;
1 -> 65 ;
66 [label="gini = 0.0\nsamples = 9\nvalue = [9, 0, 0, 0, 0, 0, 0, 0, 0, 0, 0, 0, 0, 0]"] ;
65 -> 66 ;
67 [label="gini = 0.0\nsamples = 1\nvalue = [0, 1, 0, 0, 0, 0, 0, 0, 0, 0, 0, 0, 0, 0]"] ;
65 -> 67 ;
68 [label="X[60] <= 502.0\ngini = 0.454\nsamples = 52\nvalue = [38, 0, 0, 0, 4, 0, 2, 1, 2, 1, 0, 1, 1, 2]"] ;
0 -> 68 [labeldistance=2.5, labelangle=-45, headlabel="False"] ;
69 [label="X[0] <= 7.0\ngini = 0.722\nsamples = 6\nvalue = [1, 0, 0, 0, 2, 0, 1, 0, 0, 0, 0, 0, 0, 2]"] ;
68 -> 69 ;
70 [label="gini = 0.0\nsamples = 2\nvalue = [0, 0, 0, 0, 2, 0, 0, 0, 0, 0, 0, 0, 0, 0]"] ;
69 -> 70 ;
71 [label="X[33] <= 5.5\ngini = 0.625\nsamples = 4\nvalue = [1, 0, 0, 0, 0, 0, 1, 0, 0, 0, 0, 0, 0, 2]"] ;
69 -> 71 ;
72 [label="gini = 0.0\nsamples = 2\nvalue = [0, 0, 0, 0, 0, 0, 0, 0, 0, 0, 0, 0, 0, 2]"] ;
71 -> 72 ;
73 [label="X[96] <= 0.037\ngini = 0.5\nsamples = 2\nvalue = [1, 0, 0, 0, 0, 0, 1, 0, 0, 0, 0, 0, 0, 0]"] ;
71 -> 73 ;
74 [label="gini = 0.0\nsamples = 1\nvalue = [1, 0, 0, 0, 0, 0, 0, 0, 0, 0, 0, 0, 0, 0]"] ;
73 -> 74 ;
75 [label="gini = 0.0\nsamples = 1\nvalue = [0, 0, 0, 0, 0, 0, 1, 0, 0, 0, 0, 0, 0, 0]"] ;
73 -> 75 ;
76 [label="X[104] <= 0.011\ngini = 0.347\nsamples = 46\nvalue = [37, 0, 0, 0, 2, 0, 1, 1, 2, 1, 0, 1, 1, 0]"] ;
68 -> 76 ;
77 [label="X[113] <= 0.279\ngini = 0.288\nsamples = 44\nvalue = [37, 0, 0, 0, 0, 0, 1, 1, 2, 1, 0, 1, 1, 0]"] ;
76 -> 77 ;
78 [label="X[92] <= 0.11\ngini = 0.255\nsamples = 43\nvalue = [37, 0, 0, 0, 0, 0, 0, 1, 2, 1, 0, 1, 1, 0]"] ;
77 -> 78 ;
79 [label="X[0] <= 119.0\ngini = 0.22\nsamples = 42\nvalue = [37, 0, 0, 0, 0, 0, 0, 1, 2, 0, 0, 1, 1, 0]"] ;
78 -> 79 ;
80 [label="X[114] <= 2.152\ngini = 0.183\nsamples = 41\nvalue = [37, 0, 0, 0, 0, 0, 0, 1, 1, 0, 0, 1, 1, 0]"] ;
79 -> 80 ;
81 [label="gini = 0.0\nsamples = 1\nvalue = [0, 0, 0, 0, 0, 0, 0, 0, 1, 0, 0, 0, 0, 0]"] ;
80 -> 81 ;
82 [label="X[86] <= 0.168\ngini = 0.142\nsamples = 40\nvalue = [37, 0, 0, 0, 0, 0, 0, 1, 0, 0, 0, 1, 1, 0]"] ;
80 -> 82 ;
83 [label="gini = 0.056\nsamples = 35\nvalue = [34, 0, 0, 0, 0, 0, 0, 0, 0, 0, 0, 0, 1, 0]"] ;
82 -> 83 ;
84 [label="gini = 0.56\nsamples = 5\nvalue = [3, 0, 0, 0, 0, 0, 0, 1, 0, 0, 0, 1, 0, 0]"] ;
82 -> 84 ;
85 [label="gini = 0.0\nsamples = 1\nvalue = [0, 0, 0, 0, 0, 0, 0, 0, 1, 0, 0, 0, 0, 0]"] ;
79 -> 85 ;
86 [label="gini = 0.0\nsamples = 1\nvalue = [0, 0, 0, 0, 0, 0, 0, 0, 0, 1, 0, 0, 0, 0]"] ;
78 -> 86 ;
87 [label="gini = 0.0\nsamples = 1\nvalue = [0, 0, 0, 0, 0, 0, 1, 0, 0, 0, 0, 0, 0, 0]"] ;
77 -> 87 ;
88 [label="gini = 0.0\nsamples = 2\nvalue = [0, 0, 0, 0, 2, 0, 0, 0, 0, 0, 0, 0, 0, 0]"] ;
76 -> 88 ;
}