digraph Tree {
node [shape=box] ;
0 [label="X[25] <= 0.401\ngini = 0.82\nsamples = 303\nvalue = [85, 90, 17, 5, 5, 8, 3, 2, 4, 3, 10, 14, 5, 7\n1, 3, 1, 2, 3, 5, 4, 17, 9]"] ;
1 [label="X[18] <= 1.5\ngini = 0.534\nsamples = 60\nvalue = [7, 40, 4, 1, 0, 0, 1, 0, 1, 0, 1, 0, 1, 2\n0, 0, 0, 0, 0, 0, 0, 1, 1]"] ;
0 -> 1 [labeldistance=2.5, labelangle=45, headlabel="True"] ;
2 [label="gini = 0.478\nsamples = 56\nvalue = [3, 40, 4, 1, 0, 0, 1, 0, 1, 0, 1, 0, 1, 2\n0, 0, 0, 0, 0, 0, 0, 1, 1]"] ;
1 -> 2 ;
3 [label="gini = 0.0\nsamples = 4\nvalue = [4, 0, 0, 0, 0, 0, 0, 0, 0, 0, 0, 0, 0, 0, 0\n0, 0, 0, 0, 0, 0, 0, 0]"] ;
1 -> 3 ;
4 [label="X[62] <= 81.007\ngini = 0.838\nsamples = 243\nvalue = [78, 50, 13, 4, 5, 8, 2, 2, 3, 3, 9, 14, 4, 5\n1, 3, 1, 2, 3, 5, 4, 16, 8]"] ;
0 -> 4 [labeldistance=2.5, labelangle=-45, headlabel="False"] ;
5 [label="gini = 0.853\nsamples = 204\nvalue = [53, 50, 13, 4, 5, 8, 2, 2, 3, 3, 9, 10, 1, 5\n1, 2, 1, 0, 3, 4, 3, 14, 8]"] ;
4 -> 5 ;
6 [label="gini = 0.565\nsamples = 39\nvalue = [25, 0, 0, 0, 0, 0, 0, 0, 0, 0, 0, 4, 3, 0\n0, 1, 0, 2, 0, 1, 1, 2, 0]"] ;
4 -> 6 ;
}