digraph Tree {
node [shape=box] ;
0 [label="X[22] <= 13.5\ngini = 0.828\nsamples = 303\nvalue = [87, 32, 24, 16, 76, 8, 13, 10, 10, 9, 2, 4, 6\n6]"] ;
1 [label="X[83] <= 0.054\ngini = 0.843\nsamples = 251\nvalue = [49, 32, 24, 16, 72, 8, 11, 9, 8, 8, 2, 3, 5\n4]"] ;
0 -> 1 [labeldistance=2.5, labelangle=45, headlabel="True"] ;
2 [label="X[25] <= 0.408\ngini = 0.845\nsamples = 241\nvalue = [40, 31, 24, 16, 72, 8, 11, 9, 8, 8, 2, 3, 5\n4]"] ;
1 -> 2 ;
3 [label="X[62] <= 10.635\ngini = 0.756\nsamples = 55\nvalue = [0, 14, 11, 1, 20, 1, 0, 3, 3, 1, 0, 0, 1, 0]"] ;
2 -> 3 ;
4 [label="X[53] <= 1.5\ngini = 0.747\nsamples = 17\nvalue = [0, 0, 7, 1, 3, 1, 0, 3, 2, 0, 0, 0, 0, 0]"] ;
3 -> 4 ;
5 [label="X[89] <= 0.333\ngini = 0.611\nsamples = 6\nvalue = [0, 0, 0, 1, 0, 0, 0, 3, 2, 0, 0, 0, 0, 0]"] ;
4 -> 5 ;
6 [label="gini = 0.0\nsamples = 2\nvalue = [0, 0, 0, 0, 0, 0, 0, 0, 2, 0, 0, 0, 0, 0]"] ;
5 -> 6 ;
7 [label="X[87] <= 0.1\ngini = 0.375\nsamples = 4\nvalue = [0, 0, 0, 1, 0, 0, 0, 3, 0, 0, 0, 0, 0, 0]"] ;
5 -> 7 ;
8 [label="gini = 0.0\nsamples = 3\nvalue = [0, 0, 0, 0, 0, 0, 0, 3, 0, 0, 0, 0, 0, 0]"] ;
7 -> 8 ;
9 [label="gini = 0.0\nsamples = 1\nvalue = [0, 0, 0, 1, 0, 0, 0, 0, 0, 0, 0, 0, 0, 0]"] ;
7 -> 9 ;
10 [label="X[85] <= 0.586\ngini = 0.512\nsamples = 11\nvalue = [0, 0, 7, 0, 3, 1, 0, 0, 0, 0, 0, 0, 0, 0]"] ;
4 -> 10 ;
11 [label="X[84] <= 0.091\ngini = 0.5\nsamples = 2\nvalue = [0, 0, 0, 0, 1, 1, 0, 0, 0, 0, 0, 0, 0, 0]"] ;
10 -> 11 ;
12 [label="gini = 0.0\nsamples = 1\nvalue = [0, 0, 0, 0, 0, 1, 0, 0, 0, 0, 0, 0, 0, 0]"] ;
11 -> 12 ;
13 [label="gini = 0.0\nsamples = 1\nvalue = [0, 0, 0, 0, 1, 0, 0, 0, 0, 0, 0, 0, 0, 0]"] ;
11 -> 13 ;
14 [label="X[111] <= 0.397\ngini = 0.346\nsamples = 9\nvalue = [0, 0, 7, 0, 2, 0, 0, 0, 0, 0, 0, 0, 0, 0]"] ;
10 -> 14 ;
15 [label="X[47] <= 2.5\ngini = 0.219\nsamples = 8\nvalue = [0, 0, 7, 0, 1, 0, 0, 0, 0, 0, 0, 0, 0, 0]"] ;
14 -> 15 ;
16 [label="gini = 0.0\nsamples = 7\nvalue = [0, 0, 7, 0, 0, 0, 0, 0, 0, 0, 0, 0, 0, 0]"] ;
15 -> 16 ;
17 [label="gini = 0.0\nsamples = 1\nvalue = [0, 0, 0, 0, 1, 0, 0, 0, 0, 0, 0, 0, 0, 0]"] ;
15 -> 17 ;
18 [label="gini = 0.0\nsamples = 1\nvalue = [0, 0, 0, 0, 1, 0, 0, 0, 0, 0, 0, 0, 0, 0]"] ;
14 -> 18 ;
19 [label="X[66] <= 0.117\ngini = 0.651\nsamples = 38\nvalue = [0, 14, 4, 0, 17, 0, 0, 0, 1, 1, 0, 0, 1, 0]"] ;
3 -> 19 ;
20 [label="X[94] <= 0.134\ngini = 0.298\nsamples = 11\nvalue = [0, 2, 0, 0, 9, 0, 0, 0, 0, 0, 0, 0, 0, 0]"] ;
19 -> 20 ;
21 [label="X[35] <= 8.0\ngini = 0.444\nsamples = 3\nvalue = [0, 2, 0, 0, 1, 0, 0, 0, 0, 0, 0, 0, 0, 0]"] ;
20 -> 21 ;
22 [label="gini = 0.0\nsamples = 2\nvalue = [0, 2, 0, 0, 0, 0, 0, 0, 0, 0, 0, 0, 0, 0]"] ;
21 -> 22 ;
23 [label="gini = 0.0\nsamples = 1\nvalue = [0, 0, 0, 0, 1, 0, 0, 0, 0, 0, 0, 0, 0, 0]"] ;
21 -> 23 ;
24 [label="gini = 0.0\nsamples = 8\nvalue = [0, 0, 0, 0, 8, 0, 0, 0, 0, 0, 0, 0, 0, 0]"] ;
20 -> 24 ;
25 [label="X[86] <= 0.354\ngini = 0.689\nsamples = 27\nvalue = [0, 12, 4, 0, 8, 0, 0, 0, 1, 1, 0, 0, 1, 0]"] ;
19 -> 25 ;
26 [label="X[114] <= 2.096\ngini = 0.656\nsamples = 25\nvalue = [0, 12, 2, 0, 8, 0, 0, 0, 1, 1, 0, 0, 1, 0]"] ;
25 -> 26 ;
27 [label="X[70] <= 0.036\ngini = 0.597\nsamples = 23\nvalue = [0, 12, 2, 0, 8, 0, 0, 0, 0, 1, 0, 0, 0, 0]"] ;
26 -> 27 ;
28 [label="gini = 0.0\nsamples = 2\nvalue = [0, 0, 0, 0, 2, 0, 0, 0, 0, 0, 0, 0, 0, 0]"] ;
27 -> 28 ;
29 [label="X[86] <= 0.178\ngini = 0.58\nsamples = 21\nvalue = [0, 12, 2, 0, 6, 0, 0, 0, 0, 1, 0, 0, 0, 0]"] ;
27 -> 29 ;
30 [label="X[75] <= 0.052\ngini = 0.278\nsamples = 6\nvalue = [0, 5, 0, 0, 0, 0, 0, 0, 0, 1, 0, 0, 0, 0]"] ;
29 -> 30 ;
31 [label="gini = 0.0\nsamples = 5\nvalue = [0, 5, 0, 0, 0, 0, 0, 0, 0, 0, 0, 0, 0, 0]"] ;
30 -> 31 ;
32 [label="gini = 0.0\nsamples = 1\nvalue = [0, 0, 0, 0, 0, 0, 0, 0, 0, 1, 0, 0, 0, 0]"] ;
30 -> 32 ;
33 [label="X[10] <= 1.5\ngini = 0.604\nsamples = 15\nvalue = [0, 7, 2, 0, 6, 0, 0, 0, 0, 0, 0, 0, 0, 0]"] ;
29 -> 33 ;
34 [label="gini = 0.594\nsamples = 8\nvalue = [0, 4, 1, 0, 3, 0, 0, 0, 0, 0, 0, 0, 0, 0]"] ;
33 -> 34 ;
35 [label="gini = 0.612\nsamples = 7\nvalue = [0, 3, 1, 0, 3, 0, 0, 0, 0, 0, 0, 0, 0, 0]"] ;
33 -> 35 ;
36 [label="X[110] <= 0.128\ngini = 0.5\nsamples = 2\nvalue = [0, 0, 0, 0, 0, 0, 0, 0, 1, 0, 0, 0, 1, 0]"] ;
26 -> 36 ;
37 [label="gini = 0.0\nsamples = 1\nvalue = [0, 0, 0, 0, 0, 0, 0, 0, 0, 0, 0, 0, 1, 0]"] ;
36 -> 37 ;
38 [label="gini = 0.0\nsamples = 1\nvalue = [0, 0, 0, 0, 0, 0, 0, 0, 1, 0, 0, 0, 0, 0]"] ;
36 -> 38 ;
39 [label="gini = 0.0\nsamples = 2\nvalue = [0, 0, 2, 0, 0, 0, 0, 0, 0, 0, 0, 0, 0, 0]"] ;
25 -> 39 ;
40 [label="X[62] <= 21.094\ngini = 0.846\nsamples = 186\nvalue = [40, 17, 13, 15, 52, 7, 11, 6, 5, 7, 2, 3, 4\n4]"] ;
2 -> 40 ;
41 [label="X[70] <= 0.16\ngini = 0.73\nsamples = 80\nvalue = [14, 5, 4, 10, 37, 1, 1, 3, 2, 2, 0, 0, 0, 1]"] ;
40 -> 41 ;
42 [label="X[114] <= 2.365\ngini = 0.691\nsamples = 71\nvalue = [14, 5, 2, 4, 36, 1, 1, 3, 2, 2, 0, 0, 0, 1]"] ;
41 -> 42 ;
43 [label="X[112] <= 0.128\ngini = 0.76\nsamples = 59\nvalue = [14, 5, 2, 4, 24, 1, 1, 3, 2, 2, 0, 0, 0, 1]"] ;
42 -> 43 ;
44 [label="X[111] <= 0.321\ngini = 0.772\nsamples = 43\nvalue = [14, 2, 2, 3, 14, 1, 1, 2, 1, 2, 0, 0, 0, 1]"] ;
43 -> 44 ;
45 [label="X[59] <= 22.5\ngini = 0.766\nsamples = 34\nvalue = [7, 2, 2, 3, 14, 1, 0, 1, 1, 2, 0, 0, 0, 1]"] ;
44 -> 45 ;
46 [label="X[90] <= 0.041\ngini = 0.815\nsamples = 9\nvalue = [0, 2, 2, 0, 1, 1, 0, 1, 0, 2, 0, 0, 0, 0]"] ;
45 -> 46 ;
47 [label="gini = 0.0\nsamples = 2\nvalue = [0, 0, 2, 0, 0, 0, 0, 0, 0, 0, 0, 0, 0, 0]"] ;
46 -> 47 ;
48 [label="X[87] <= 0.16\ngini = 0.776\nsamples = 7\nvalue = [0, 2, 0, 0, 1, 1, 0, 1, 0, 2, 0, 0, 0, 0]"] ;
46 -> 48 ;
49 [label="X[90] <= 0.076\ngini = 0.72\nsamples = 5\nvalue = [0, 2, 0, 0, 1, 1, 0, 1, 0, 0, 0, 0, 0, 0]"] ;
48 -> 49 ;
50 [label="X[29] <= 3.5\ngini = 0.667\nsamples = 3\nvalue = [0, 0, 0, 0, 1, 1, 0, 1, 0, 0, 0, 0, 0, 0]"] ;
49 -> 50 ;
51 [label="gini = 0.5\nsamples = 2\nvalue = [0, 0, 0, 0, 1, 1, 0, 0, 0, 0, 0, 0, 0, 0]"] ;
50 -> 51 ;
52 [label="gini = 0.0\nsamples = 1\nvalue = [0, 0, 0, 0, 0, 0, 0, 1, 0, 0, 0, 0, 0, 0]"] ;
50 -> 52 ;
53 [label="gini = 0.0\nsamples = 2\nvalue = [0, 2, 0, 0, 0, 0, 0, 0, 0, 0, 0, 0, 0, 0]"] ;
49 -> 53 ;
54 [label="gini = 0.0\nsamples = 2\nvalue = [0, 0, 0, 0, 0, 0, 0, 0, 0, 2, 0, 0, 0, 0]"] ;
48 -> 54 ;
55 [label="X[64] <= 10203.75\ngini = 0.634\nsamples = 25\nvalue = [7, 0, 0, 3, 13, 0, 0, 0, 1, 0, 0, 0, 0, 1]"] ;
45 -> 55 ;
56 [label="gini = 0.0\nsamples = 3\nvalue = [3, 0, 0, 0, 0, 0, 0, 0, 0, 0, 0, 0, 0, 0]"] ;
55 -> 56 ;
57 [label="X[116] <= 0.675\ngini = 0.595\nsamples = 22\nvalue = [4, 0, 0, 3, 13, 0, 0, 0, 1, 0, 0, 0, 0, 1]"] ;
55 -> 57 ;
58 [label="gini = 0.0\nsamples = 6\nvalue = [0, 0, 0, 0, 6, 0, 0, 0, 0, 0, 0, 0, 0, 0]"] ;
57 -> 58 ;
59 [label="X[62] <= 16.371\ngini = 0.703\nsamples = 16\nvalue = [4, 0, 0, 3, 7, 0, 0, 0, 1, 0, 0, 0, 0, 1]"] ;
57 -> 59 ;
60 [label="X[58] <= 19.5\ngini = 0.278\nsamples = 6\nvalue = [0, 0, 0, 1, 5, 0, 0, 0, 0, 0, 0, 0, 0, 0]"] ;
59 -> 60 ;
61 [label="gini = 0.5\nsamples = 2\nvalue = [0, 0, 0, 1, 1, 0, 0, 0, 0, 0, 0, 0, 0, 0]"] ;
60 -> 61 ;
62 [label="gini = 0.0\nsamples = 4\nvalue = [0, 0, 0, 0, 4, 0, 0, 0, 0, 0, 0, 0, 0, 0]"] ;
60 -> 62 ;
63 [label="X[114] <= 2.193\ngini = 0.74\nsamples = 10\nvalue = [4, 0, 0, 2, 2, 0, 0, 0, 1, 0, 0, 0, 0, 1]"] ;
59 -> 63 ;
64 [label="gini = 0.444\nsamples = 6\nvalue = [4, 0, 0, 0, 2, 0, 0, 0, 0, 0, 0, 0, 0, 0]"] ;
63 -> 64 ;
65 [label="gini = 0.625\nsamples = 4\nvalue = [0, 0, 0, 2, 0, 0, 0, 0, 1, 0, 0, 0, 0, 1]"] ;
63 -> 65 ;
66 [label="X[113] <= 0.056\ngini = 0.37\nsamples = 9\nvalue = [7, 0, 0, 0, 0, 0, 1, 1, 0, 0, 0, 0, 0, 0]"] ;
44 -> 66 ;
67 [label="X[51] <= 19.0\ngini = 0.5\nsamples = 2\nvalue = [0, 0, 0, 0, 0, 0, 1, 1, 0, 0, 0, 0, 0, 0]"] ;
66 -> 67 ;
68 [label="gini = 0.0\nsamples = 1\nvalue = [0, 0, 0, 0, 0, 0, 1, 0, 0, 0, 0, 0, 0, 0]"] ;
67 -> 68 ;
69 [label="gini = 0.0\nsamples = 1\nvalue = [0, 0, 0, 0, 0, 0, 0, 1, 0, 0, 0, 0, 0, 0]"] ;
67 -> 69 ;
70 [label="gini = 0.0\nsamples = 7\nvalue = [7, 0, 0, 0, 0, 0, 0, 0, 0, 0, 0, 0, 0, 0]"] ;
66 -> 70 ;
71 [label="X[86] <= 0.363\ngini = 0.562\nsamples = 16\nvalue = [0, 3, 0, 1, 10, 0, 0, 1, 1, 0, 0, 0, 0, 0]"] ;
43 -> 71 ;
72 [label="X[77] <= 0.17\ngini = 0.391\nsamples = 13\nvalue = [0, 1, 0, 0, 10, 0, 0, 1, 1, 0, 0, 0, 0, 0]"] ;
71 -> 72 ;
73 [label="gini = 0.0\nsamples = 1\nvalue = [0, 0, 0, 0, 0, 0, 0, 0, 1, 0, 0, 0, 0, 0]"] ;
72 -> 73 ;
74 [label="X[100] <= 0.195\ngini = 0.292\nsamples = 12\nvalue = [0, 1, 0, 0, 10, 0, 0, 1, 0, 0, 0, 0, 0, 0]"] ;
72 -> 74 ;
75 [label="X[90] <= 0.03\ngini = 0.165\nsamples = 11\nvalue = [0, 1, 0, 0, 10, 0, 0, 0, 0, 0, 0, 0, 0, 0]"] ;
74 -> 75 ;
76 [label="gini = 0.0\nsamples = 1\nvalue = [0, 1, 0, 0, 0, 0, 0, 0, 0, 0, 0, 0, 0, 0]"] ;
75 -> 76 ;
77 [label="gini = 0.0\nsamples = 10\nvalue = [0, 0, 0, 0, 10, 0, 0, 0, 0, 0, 0, 0, 0, 0]"] ;
75 -> 77 ;
78 [label="gini = 0.0\nsamples = 1\nvalue = [0, 0, 0, 0, 0, 0, 0, 1, 0, 0, 0, 0, 0, 0]"] ;
74 -> 78 ;
79 [label="X[72] <= 0.171\ngini = 0.444\nsamples = 3\nvalue = [0, 2, 0, 1, 0, 0, 0, 0, 0, 0, 0, 0, 0, 0]"] ;
71 -> 79 ;
80 [label="gini = 0.0\nsamples = 2\nvalue = [0, 2, 0, 0, 0, 0, 0, 0, 0, 0, 0, 0, 0, 0]"] ;
79 -> 80 ;
81 [label="gini = 0.0\nsamples = 1\nvalue = [0, 0, 0, 1, 0, 0, 0, 0, 0, 0, 0, 0, 0, 0]"] ;
79 -> 81 ;
82 [label="gini = 0.0\nsamples = 12\nvalue = [0, 0, 0, 0, 12, 0, 0, 0, 0, 0, 0, 0, 0, 0]"] ;
42 -> 82 ;
83 [label="X[73] <= 0.095\ngini = 0.494\nsamples = 9\nvalue = [0, 0, 2, 6, 1, 0, 0, 0, 0, 0, 0, 0, 0, 0]"] ;
41 -> 83 ;
84 [label="X[10] <= 2.5\ngini = 0.245\nsamples = 7\nvalue = [0, 0, 0, 6, 1, 0, 0, 0, 0, 0, 0, 0, 0, 0]"] ;
83 -> 84 ;
85 [label="gini = 0.0\nsamples = 6\nvalue = [0, 0, 0, 6, 0, 0, 0, 0, 0, 0, 0, 0, 0, 0]"] ;
84 -> 85 ;
86 [label="gini = 0.0\nsamples = 1\nvalue = [0, 0, 0, 0, 1, 0, 0, 0, 0, 0, 0, 0, 0, 0]"] ;
84 -> 86 ;
87 [label="gini = 0.0\nsamples = 2\nvalue = [0, 0, 2, 0, 0, 0, 0, 0, 0, 0, 0, 0, 0, 0]"] ;
83 -> 87 ;
88 [label="X[70] <= 0.003\ngini = 0.878\nsamples = 106\nvalue = [26, 12, 9, 5, 15, 6, 10, 3, 3, 5, 2, 3, 4, 3]"] ;
40 -> 88 ;
89 [label="gini = 0.0\nsamples = 3\nvalue = [0, 0, 0, 0, 0, 3, 0, 0, 0, 0, 0, 0, 0, 0]"] ;
88 -> 89 ;
90 [label="X[34] <= 2.5\ngini = 0.874\nsamples = 103\nvalue = [26, 12, 9, 5, 15, 3, 10, 3, 3, 5, 2, 3, 4, 3]"] ;
88 -> 90 ;
91 [label="X[46] <= 12.0\ngini = 0.82\nsamples = 16\nvalue = [0, 3, 5, 2, 0, 0, 2, 1, 0, 1, 0, 1, 1, 0]"] ;
90 -> 91 ;
92 [label="X[53] <= 3.5\ngini = 0.568\nsamples = 9\nvalue = [0, 3, 5, 0, 0, 0, 0, 0, 0, 1, 0, 0, 0, 0]"] ;
91 -> 92 ;
93 [label="X[15] <= 7.5\ngini = 0.444\nsamples = 3\nvalue = [0, 2, 0, 0, 0, 0, 0, 0, 0, 1, 0, 0, 0, 0]"] ;
92 -> 93 ;
94 [label="gini = 0.0\nsamples = 1\nvalue = [0, 0, 0, 0, 0, 0, 0, 0, 0, 1, 0, 0, 0, 0]"] ;
93 -> 94 ;
95 [label="gini = 0.0\nsamples = 2\nvalue = [0, 2, 0, 0, 0, 0, 0, 0, 0, 0, 0, 0, 0, 0]"] ;
93 -> 95 ;
96 [label="X[29] <= 3.0\ngini = 0.278\nsamples = 6\nvalue = [0, 1, 5, 0, 0, 0, 0, 0, 0, 0, 0, 0, 0, 0]"] ;
92 -> 96 ;
97 [label="gini = 0.5\nsamples = 2\nvalue = [0, 1, 1, 0, 0, 0, 0, 0, 0, 0, 0, 0, 0, 0]"] ;
96 -> 97 ;
98 [label="gini = 0.0\nsamples = 4\nvalue = [0, 0, 4, 0, 0, 0, 0, 0, 0, 0, 0, 0, 0, 0]"] ;
96 -> 98 ;
99 [label="X[96] <= 0.025\ngini = 0.776\nsamples = 7\nvalue = [0, 0, 0, 2, 0, 0, 2, 1, 0, 0, 0, 1, 1, 0]"] ;
91 -> 99 ;
100 [label="gini = 0.0\nsamples = 2\nvalue = [0, 0, 0, 2, 0, 0, 0, 0, 0, 0, 0, 0, 0, 0]"] ;
99 -> 100 ;
101 [label="X[99] <= 0.038\ngini = 0.72\nsamples = 5\nvalue = [0, 0, 0, 0, 0, 0, 2, 1, 0, 0, 0, 1, 1, 0]"] ;
99 -> 101 ;
102 [label="X[63] <= 2242.415\ngini = 0.667\nsamples = 3\nvalue = [0, 0, 0, 0, 0, 0, 0, 1, 0, 0, 0, 1, 1, 0]"] ;
101 -> 102 ;
103 [label="gini = 0.0\nsamples = 1\nvalue = [0, 0, 0, 0, 0, 0, 0, 0, 0, 0, 0, 0, 1, 0]"] ;
102 -> 103 ;
104 [label="X[28] <= 4.5\ngini = 0.5\nsamples = 2\nvalue = [0, 0, 0, 0, 0, 0, 0, 1, 0, 0, 0, 1, 0, 0]"] ;
102 -> 104 ;
105 [label="gini = 0.0\nsamples = 1\nvalue = [0, 0, 0, 0, 0, 0, 0, 0, 0, 0, 0, 1, 0, 0]"] ;
104 -> 105 ;
106 [label="gini = 0.0\nsamples = 1\nvalue = [0, 0, 0, 0, 0, 0, 0, 1, 0, 0, 0, 0, 0, 0]"] ;
104 -> 106 ;
107 [label="gini = 0.0\nsamples = 2\nvalue = [0, 0, 0, 0, 0, 0, 2, 0, 0, 0, 0, 0, 0, 0]"] ;
101 -> 107 ;
108 [label="X[114] <= 2.216\ngini = 0.85\nsamples = 87\nvalue = [26, 9, 4, 3, 15, 3, 8, 2, 3, 4, 2, 2, 3, 3]"] ;
90 -> 108 ;
109 [label="X[114] <= 2.028\ngini = 0.664\nsamples = 27\nvalue = [15, 3, 1, 1, 2, 1, 1, 1, 0, 1, 1, 0, 0, 0]"] ;
108 -> 109 ;
110 [label="X[67] <= 0.095\ngini = 0.72\nsamples = 5\nvalue = [0, 2, 0, 0, 1, 0, 1, 1, 0, 0, 0, 0, 0, 0]"] ;
109 -> 110 ;
111 [label="gini = 0.0\nsamples = 2\nvalue = [0, 2, 0, 0, 0, 0, 0, 0, 0, 0, 0, 0, 0, 0]"] ;
110 -> 111 ;
112 [label="X[98] <= 0.052\ngini = 0.667\nsamples = 3\nvalue = [0, 0, 0, 0, 1, 0, 1, 1, 0, 0, 0, 0, 0, 0]"] ;
110 -> 112 ;
113 [label="gini = 0.0\nsamples = 1\nvalue = [0, 0, 0, 0, 0, 0, 1, 0, 0, 0, 0, 0, 0, 0]"] ;
112 -> 113 ;
114 [label="X[103] <= 0.023\ngini = 0.5\nsamples = 2\nvalue = [0, 0, 0, 0, 1, 0, 0, 1, 0, 0, 0, 0, 0, 0]"] ;
112 -> 114 ;
115 [label="gini = 0.0\nsamples = 1\nvalue = [0, 0, 0, 0, 1, 0, 0, 0, 0, 0, 0, 0, 0, 0]"] ;
114 -> 115 ;
116 [label="gini = 0.0\nsamples = 1\nvalue = [0, 0, 0, 0, 0, 0, 0, 1, 0, 0, 0, 0, 0, 0]"] ;
114 -> 116 ;
117 [label="X[110] <= 0.024\ngini = 0.521\nsamples = 22\nvalue = [15, 1, 1, 1, 1, 1, 0, 0, 0, 1, 1, 0, 0, 0]"] ;
109 -> 117 ;
118 [label="X[91] <= 0.005\ngini = 0.667\nsamples = 3\nvalue = [0, 1, 1, 1, 0, 0, 0, 0, 0, 0, 0, 0, 0, 0]"] ;
117 -> 118 ;
119 [label="gini = 0.0\nsamples = 1\nvalue = [0, 0, 1, 0, 0, 0, 0, 0, 0, 0, 0, 0, 0, 0]"] ;
118 -> 119 ;
120 [label="X[51] <= 78.0\ngini = 0.5\nsamples = 2\nvalue = [0, 1, 0, 1, 0, 0, 0, 0, 0, 0, 0, 0, 0, 0]"] ;
118 -> 120 ;
121 [label="gini = 0.0\nsamples = 1\nvalue = [0, 1, 0, 0, 0, 0, 0, 0, 0, 0, 0, 0, 0, 0]"] ;
120 -> 121 ;
122 [label="gini = 0.0\nsamples = 1\nvalue = [0, 0, 0, 1, 0, 0, 0, 0, 0, 0, 0, 0, 0, 0]"] ;
120 -> 122 ;
123 [label="X[68] <= 0.001\ngini = 0.366\nsamples = 19\nvalue = [15, 0, 0, 0, 1, 1, 0, 0, 0, 1, 1, 0, 0, 0]"] ;
117 -> 123 ;
124 [label="X[111] <= 0.059\ngini = 0.215\nsamples = 17\nvalue = [15, 0, 0, 0, 0, 1, 0, 0, 0, 1, 0, 0, 0, 0]"] ;
123 -> 124 ;
125 [label="gini = 0.0\nsamples = 1\nvalue = [0, 0, 0, 0, 0, 1, 0, 0, 0, 0, 0, 0, 0, 0]"] ;
124 -> 125 ;
126 [label="X[112] <= 0.102\ngini = 0.117\nsamples = 16\nvalue = [15, 0, 0, 0, 0, 0, 0, 0, 0, 1, 0, 0, 0, 0]"] ;
124 -> 126 ;
127 [label="gini = 0.0\nsamples = 14\nvalue = [14, 0, 0, 0, 0, 0, 0, 0, 0, 0, 0, 0, 0, 0]"] ;
126 -> 127 ;
128 [label="X[105] <= 0.241\ngini = 0.5\nsamples = 2\nvalue = [1, 0, 0, 0, 0, 0, 0, 0, 0, 1, 0, 0, 0, 0]"] ;
126 -> 128 ;
129 [label="gini = 0.0\nsamples = 1\nvalue = [0, 0, 0, 0, 0, 0, 0, 0, 0, 1, 0, 0, 0, 0]"] ;
128 -> 129 ;
130 [label="gini = 0.0\nsamples = 1\nvalue = [1, 0, 0, 0, 0, 0, 0, 0, 0, 0, 0, 0, 0, 0]"] ;
128 -> 130 ;
131 [label="X[5] <= 13.5\ngini = 0.5\nsamples = 2\nvalue = [0, 0, 0, 0, 1, 0, 0, 0, 0, 0, 1, 0, 0, 0]"] ;
123 -> 131 ;
132 [label="gini = 0.0\nsamples = 1\nvalue = [0, 0, 0, 0, 1, 0, 0, 0, 0, 0, 0, 0, 0, 0]"] ;
131 -> 132 ;
133 [label="gini = 0.0\nsamples = 1\nvalue = [0, 0, 0, 0, 0, 0, 0, 0, 0, 0, 1, 0, 0, 0]"] ;
131 -> 133 ;
134 [label="X[47] <= 11.5\ngini = 0.879\nsamples = 60\nvalue = [11, 6, 3, 2, 13, 2, 7, 1, 3, 3, 1, 2, 3, 3]"] ;
108 -> 134 ;
135 [label="X[9] <= 2.5\ngini = 0.837\nsamples = 45\nvalue = [10, 3, 3, 2, 12, 1, 7, 1, 0, 3, 0, 1, 0, 2]"] ;
134 -> 135 ;
136 [label="X[111] <= 0.188\ngini = 0.851\nsamples = 41\nvalue = [10, 3, 3, 2, 8, 1, 7, 1, 0, 3, 0, 1, 0, 2]"] ;
135 -> 136 ;
137 [label="X[114] <= 2.702\ngini = 0.764\nsamples = 24\nvalue = [5, 0, 3, 0, 7, 0, 7, 0, 0, 0, 0, 0, 0, 2]"] ;
136 -> 137 ;
138 [label="X[105] <= 0.22\ngini = 0.727\nsamples = 22\nvalue = [5, 0, 3, 0, 7, 0, 7, 0, 0, 0, 0, 0, 0, 0]"] ;
137 -> 138 ;
139 [label="X[87] <= 0.139\ngini = 0.56\nsamples = 10\nvalue = [2, 0, 0, 0, 2, 0, 6, 0, 0, 0, 0, 0, 0, 0]"] ;
138 -> 139 ;
140 [label="gini = 0.667\nsamples = 6\nvalue = [2, 0, 0, 0, 2, 0, 2, 0, 0, 0, 0, 0, 0, 0]"] ;
139 -> 140 ;
141 [label="gini = 0.0\nsamples = 4\nvalue = [0, 0, 0, 0, 0, 0, 4, 0, 0, 0, 0, 0, 0, 0]"] ;
139 -> 141 ;
142 [label="X[100] <= 0.121\ngini = 0.694\nsamples = 12\nvalue = [3, 0, 3, 0, 5, 0, 1, 0, 0, 0, 0, 0, 0, 0]"] ;
138 -> 142 ;
143 [label="gini = 0.56\nsamples = 5\nvalue = [1, 0, 3, 0, 0, 0, 1, 0, 0, 0, 0, 0, 0, 0]"] ;
142 -> 143 ;
144 [label="gini = 0.408\nsamples = 7\nvalue = [2, 0, 0, 0, 5, 0, 0, 0, 0, 0, 0, 0, 0, 0]"] ;
142 -> 144 ;
145 [label="gini = 0.0\nsamples = 2\nvalue = [0, 0, 0, 0, 0, 0, 0, 0, 0, 0, 0, 0, 0, 2]"] ;
137 -> 145 ;
146 [label="X[58] <= 21.5\ngini = 0.824\nsamples = 17\nvalue = [5, 3, 0, 2, 1, 1, 0, 1, 0, 3, 0, 1, 0, 0]"] ;
136 -> 146 ;
147 [label="gini = 0.0\nsamples = 3\nvalue = [3, 0, 0, 0, 0, 0, 0, 0, 0, 0, 0, 0, 0, 0]"] ;
146 -> 147 ;
148 [label="X[94] <= 0.176\ngini = 0.847\nsamples = 14\nvalue = [2, 3, 0, 2, 1, 1, 0, 1, 0, 3, 0, 1, 0, 0]"] ;
146 -> 148 ;
149 [label="X[86] <= 0.286\ngini = 0.8\nsamples = 10\nvalue = [2, 3, 0, 2, 1, 1, 0, 1, 0, 0, 0, 0, 0, 0]"] ;
148 -> 149 ;
150 [label="gini = 0.72\nsamples = 5\nvalue = [0, 0, 0, 2, 1, 1, 0, 1, 0, 0, 0, 0, 0, 0]"] ;
149 -> 150 ;
151 [label="gini = 0.48\nsamples = 5\nvalue = [2, 3, 0, 0, 0, 0, 0, 0, 0, 0, 0, 0, 0, 0]"] ;
149 -> 151 ;
152 [label="X[60] <= 364.0\ngini = 0.375\nsamples = 4\nvalue = [0, 0, 0, 0, 0, 0, 0, 0, 0, 3, 0, 1, 0, 0]"] ;
148 -> 152 ;
153 [label="gini = 0.0\nsamples = 3\nvalue = [0, 0, 0, 0, 0, 0, 0, 0, 0, 3, 0, 0, 0, 0]"] ;
152 -> 153 ;
154 [label="gini = 0.0\nsamples = 1\nvalue = [0, 0, 0, 0, 0, 0, 0, 0, 0, 0, 0, 1, 0, 0]"] ;
152 -> 154 ;
155 [label="gini = 0.0\nsamples = 4\nvalue = [0, 0, 0, 0, 4, 0, 0, 0, 0, 0, 0, 0, 0, 0]"] ;
135 -> 155 ;
156 [label="X[86] <= 0.22\ngini = 0.853\nsamples = 15\nvalue = [1, 3, 0, 0, 1, 1, 0, 0, 3, 0, 1, 1, 3, 1]"] ;
134 -> 156 ;
157 [label="gini = 0.0\nsamples = 3\nvalue = [0, 3, 0, 0, 0, 0, 0, 0, 0, 0, 0, 0, 0, 0]"] ;
156 -> 157 ;
158 [label="X[33] <= 40.5\ngini = 0.833\nsamples = 12\nvalue = [1, 0, 0, 0, 1, 1, 0, 0, 3, 0, 1, 1, 3, 1]"] ;
156 -> 158 ;
159 [label="gini = 0.0\nsamples = 3\nvalue = [0, 0, 0, 0, 0, 0, 0, 0, 0, 0, 0, 0, 3, 0]"] ;
158 -> 159 ;
160 [label="X[98] <= 0.22\ngini = 0.815\nsamples = 9\nvalue = [1, 0, 0, 0, 1, 1, 0, 0, 3, 0, 1, 1, 0, 1]"] ;
158 -> 160 ;
161 [label="X[35] <= 147.0\ngini = 0.56\nsamples = 5\nvalue = [1, 0, 0, 0, 0, 1, 0, 0, 3, 0, 0, 0, 0, 0]"] ;
160 -> 161 ;
162 [label="X[110] <= 0.101\ngini = 0.375\nsamples = 4\nvalue = [1, 0, 0, 0, 0, 0, 0, 0, 3, 0, 0, 0, 0, 0]"] ;
161 -> 162 ;
163 [label="gini = 0.0\nsamples = 2\nvalue = [0, 0, 0, 0, 0, 0, 0, 0, 2, 0, 0, 0, 0, 0]"] ;
162 -> 163 ;
164 [label="gini = 0.5\nsamples = 2\nvalue = [1, 0, 0, 0, 0, 0, 0, 0, 1, 0, 0, 0, 0, 0]"] ;
162 -> 164 ;
165 [label="gini = 0.0\nsamples = 1\nvalue = [0, 0, 0, 0, 0, 1, 0, 0, 0, 0, 0, 0, 0, 0]"] ;
161 -> 165 ;
166 [label="X[18] <= 1.0\ngini = 0.75\nsamples = 4\nvalue = [0, 0, 0, 0, 1, 0, 0, 0, 0, 0, 1, 1, 0, 1]"] ;
160 -> 166 ;
167 [label="X[60] <= 1443.5\ngini = 0.667\nsamples = 3\nvalue = [0, 0, 0, 0, 1, 0, 0, 0, 0, 0, 0, 1, 0, 1]"] ;
166 -> 167 ;
168 [label="gini = 0.0\nsamples = 1\nvalue = [0, 0, 0, 0, 0, 0, 0, 0, 0, 0, 0, 1, 0, 0]"] ;
167 -> 168 ;
169 [label="gini = 0.5\nsamples = 2\nvalue = [0, 0, 0, 0, 1, 0, 0, 0, 0, 0, 0, 0, 0, 1]"] ;
167 -> 169 ;
170 [label="gini = 0.0\nsamples = 1\nvalue = [0, 0, 0, 0, 0, 0, 0, 0, 0, 0, 1, 0, 0, 0]"] ;
166 -> 170 ;
171 [label="X[77] <= 0.439\ngini = 0.18\nsamples = 10\nvalue = [9, 1, 0, 0, 0, 0, 0, 0, 0, 0, 0, 0, 0, 0]"] ;
1 -> 171 ;
172 [label="gini = 0.0\nsamples = 9\nvalue = [9, 0, 0, 0, 0, 0, 0, 0, 0, 0, 0, 0, 0, 0]"] ;
171 -> 172 ;
173 [label="gini = 0.0\nsamples = 1\nvalue = [0, 1, 0, 0, 0, 0, 0, 0, 0, 0, 0, 0, 0, 0]"] ;
171 -> 173 ;
174 [label="X[20] <= 85.5\ngini = 0.454\nsamples = 52\nvalue = [38, 0, 0, 0, 4, 0, 2, 1, 2, 1, 0, 1, 1, 2]"] ;
0 -> 174 [labeldistance=2.5, labelangle=-45, headlabel="False"] ;
175 [label="X[63] <= 2908.38\ngini = 0.722\nsamples = 6\nvalue = [1, 0, 0, 0, 2, 0, 1, 0, 0, 0, 0, 0, 0, 2]"] ;
174 -> 175 ;
176 [label="gini = 0.0\nsamples = 2\nvalue = [0, 0, 0, 0, 2, 0, 0, 0, 0, 0, 0, 0, 0, 0]"] ;
175 -> 176 ;
177 [label="X[33] <= 5.5\ngini = 0.625\nsamples = 4\nvalue = [1, 0, 0, 0, 0, 0, 1, 0, 0, 0, 0, 0, 0, 2]"] ;
175 -> 177 ;
178 [label="gini = 0.0\nsamples = 2\nvalue = [0, 0, 0, 0, 0, 0, 0, 0, 0, 0, 0, 0, 0, 2]"] ;
177 -> 178 ;
179 [label="X[20] <= 72.5\ngini = 0.5\nsamples = 2\nvalue = [1, 0, 0, 0, 0, 0, 1, 0, 0, 0, 0, 0, 0, 0]"] ;
177 -> 179 ;
180 [label="gini = 0.0\nsamples = 1\nvalue = [1, 0, 0, 0, 0, 0, 0, 0, 0, 0, 0, 0, 0, 0]"] ;
179 -> 180 ;
181 [label="gini = 0.0\nsamples = 1\nvalue = [0, 0, 0, 0, 0, 0, 1, 0, 0, 0, 0, 0, 0, 0]"] ;
179 -> 181 ;
182 [label="X[104] <= 0.011\ngini = 0.347\nsamples = 46\nvalue = [37, 0, 0, 0, 2, 0, 1, 1, 2, 1, 0, 1, 1, 0]"] ;
174 -> 182 ;
183 [label="X[75] <= 0.063\ngini = 0.288\nsamples = 44\nvalue = [37, 0, 0, 0, 0, 0, 1, 1, 2, 1, 0, 1, 1, 0]"] ;
182 -> 183 ;
184 [label="X[53] <= 5.5\ngini = 0.255\nsamples = 43\nvalue = [37, 0, 0, 0, 0, 0, 1, 1, 2, 0, 0, 1, 1, 0]"] ;
183 -> 184 ;
185 [label="gini = 0.0\nsamples = 1\nvalue = [0, 0, 0, 0, 0, 0, 1, 0, 0, 0, 0, 0, 0, 0]"] ;
184 -> 185 ;
186 [label="X[1] <= 74.0\ngini = 0.22\nsamples = 42\nvalue = [37, 0, 0, 0, 0, 0, 0, 1, 2, 0, 0, 1, 1, 0]"] ;
184 -> 186 ;
187 [label="X[114] <= 2.152\ngini = 0.183\nsamples = 41\nvalue = [37, 0, 0, 0, 0, 0, 0, 1, 1, 0, 0, 1, 1, 0]"] ;
186 -> 187 ;
188 [label="gini = 0.0\nsamples = 1\nvalue = [0, 0, 0, 0, 0, 0, 0, 0, 1, 0, 0, 0, 0, 0]"] ;
187 -> 188 ;
189 [label="X[86] <= 0.168\ngini = 0.142\nsamples = 40\nvalue = [37, 0, 0, 0, 0, 0, 0, 1, 0, 0, 0, 1, 1, 0]"] ;
187 -> 189 ;
190 [label="X[62] <= 28.123\ngini = 0.056\nsamples = 35\nvalue = [34, 0, 0, 0, 0, 0, 0, 0, 0, 0, 0, 0, 1, 0]"] ;
189 -> 190 ;
191 [label="X[110] <= 0.021\ngini = 0.444\nsamples = 3\nvalue = [2, 0, 0, 0, 0, 0, 0, 0, 0, 0, 0, 0, 1, 0]"] ;
190 -> 191 ;
192 [label="gini = 0.0\nsamples = 2\nvalue = [2, 0, 0, 0, 0, 0, 0, 0, 0, 0, 0, 0, 0, 0]"] ;
191 -> 192 ;
193 [label="gini = 0.0\nsamples = 1\nvalue = [0, 0, 0, 0, 0, 0, 0, 0, 0, 0, 0, 0, 1, 0]"] ;
191 -> 193 ;
194 [label="gini = 0.0\nsamples = 32\nvalue = [32, 0, 0, 0, 0, 0, 0, 0, 0, 0, 0, 0, 0, 0]"] ;
190 -> 194 ;
195 [label="X[21] <= 71.5\ngini = 0.56\nsamples = 5\nvalue = [3, 0, 0, 0, 0, 0, 0, 1, 0, 0, 0, 1, 0, 0]"] ;
189 -> 195 ;
196 [label="X[98] <= 0.033\ngini = 0.5\nsamples = 2\nvalue = [0, 0, 0, 0, 0, 0, 0, 1, 0, 0, 0, 1, 0, 0]"] ;
195 -> 196 ;
197 [label="gini = 0.0\nsamples = 1\nvalue = [0, 0, 0, 0, 0, 0, 0, 1, 0, 0, 0, 0, 0, 0]"] ;
196 -> 197 ;
198 [label="gini = 0.0\nsamples = 1\nvalue = [0, 0, 0, 0, 0, 0, 0, 0, 0, 0, 0, 1, 0, 0]"] ;
196 -> 198 ;
199 [label="gini = 0.0\nsamples = 3\nvalue = [3, 0, 0, 0, 0, 0, 0, 0, 0, 0, 0, 0, 0, 0]"] ;
195 -> 199 ;
200 [label="gini = 0.0\nsamples = 1\nvalue = [0, 0, 0, 0, 0, 0, 0, 0, 1, 0, 0, 0, 0, 0]"] ;
186 -> 200 ;
201 [label="gini = 0.0\nsamples = 1\nvalue = [0, 0, 0, 0, 0, 0, 0, 0, 0, 1, 0, 0, 0, 0]"] ;
183 -> 201 ;
202 [label="gini = 0.0\nsamples = 2\nvalue = [0, 0, 0, 0, 2, 0, 0, 0, 0, 0, 0, 0, 0, 0]"] ;
182 -> 202 ;
}