digraph Tree {
node [shape=box] ;
0 [label="X[22] <= 13.5\ngini = 0.828\nsamples = 303\nvalue = [87, 32, 24, 16, 76, 8, 13, 10, 10, 9, 2, 4, 6\n6]"] ;
1 [label="X[83] <= 0.054\ngini = 0.843\nsamples = 251\nvalue = [49, 32, 24, 16, 72, 8, 11, 9, 8, 8, 2, 3, 5\n4]"] ;
0 -> 1 [labeldistance=2.5, labelangle=45, headlabel="True"] ;
2 [label="X[25] <= 0.408\ngini = 0.845\nsamples = 241\nvalue = [40, 31, 24, 16, 72, 8, 11, 9, 8, 8, 2, 3, 5\n4]"] ;
1 -> 2 ;
3 [label="X[62] <= 10.635\ngini = 0.756\nsamples = 55\nvalue = [0, 14, 11, 1, 20, 1, 0, 3, 3, 1, 0, 0, 1, 0]"] ;
2 -> 3 ;
4 [label="X[53] <= 1.5\ngini = 0.747\nsamples = 17\nvalue = [0, 0, 7, 1, 3, 1, 0, 3, 2, 0, 0, 0, 0, 0]"] ;
3 -> 4 ;
5 [label="X[89] <= 0.333\ngini = 0.611\nsamples = 6\nvalue = [0, 0, 0, 1, 0, 0, 0, 3, 2, 0, 0, 0, 0, 0]"] ;
4 -> 5 ;
6 [label="gini = 0.0\nsamples = 2\nvalue = [0, 0, 0, 0, 0, 0, 0, 0, 2, 0, 0, 0, 0, 0]"] ;
5 -> 6 ;
7 [label="X[22] <= 0.5\ngini = 0.375\nsamples = 4\nvalue = [0, 0, 0, 1, 0, 0, 0, 3, 0, 0, 0, 0, 0, 0]"] ;
5 -> 7 ;
8 [label="gini = 0.0\nsamples = 3\nvalue = [0, 0, 0, 0, 0, 0, 0, 3, 0, 0, 0, 0, 0, 0]"] ;
7 -> 8 ;
9 [label="gini = 0.0\nsamples = 1\nvalue = [0, 0, 0, 1, 0, 0, 0, 0, 0, 0, 0, 0, 0, 0]"] ;
7 -> 9 ;
10 [label="X[85] <= 0.586\ngini = 0.512\nsamples = 11\nvalue = [0, 0, 7, 0, 3, 1, 0, 0, 0, 0, 0, 0, 0, 0]"] ;
4 -> 10 ;
11 [label="X[94] <= 0.396\ngini = 0.5\nsamples = 2\nvalue = [0, 0, 0, 0, 1, 1, 0, 0, 0, 0, 0, 0, 0, 0]"] ;
10 -> 11 ;
12 [label="gini = 0.0\nsamples = 1\nvalue = [0, 0, 0, 0, 1, 0, 0, 0, 0, 0, 0, 0, 0, 0]"] ;
11 -> 12 ;
13 [label="gini = 0.0\nsamples = 1\nvalue = [0, 0, 0, 0, 0, 1, 0, 0, 0, 0, 0, 0, 0, 0]"] ;
11 -> 13 ;
14 [label="X[92] <= 0.148\ngini = 0.346\nsamples = 9\nvalue = [0, 0, 7, 0, 2, 0, 0, 0, 0, 0, 0, 0, 0, 0]"] ;
10 -> 14 ;
15 [label="X[112] <= 0.275\ngini = 0.219\nsamples = 8\nvalue = [0, 0, 7, 0, 1, 0, 0, 0, 0, 0, 0, 0, 0, 0]"] ;
14 -> 15 ;
16 [label="gini = 0.0\nsamples = 7\nvalue = [0, 0, 7, 0, 0, 0, 0, 0, 0, 0, 0, 0, 0, 0]"] ;
15 -> 16 ;
17 [label="gini = 0.0\nsamples = 1\nvalue = [0, 0, 0, 0, 1, 0, 0, 0, 0, 0, 0, 0, 0, 0]"] ;
15 -> 17 ;
18 [label="gini = 0.0\nsamples = 1\nvalue = [0, 0, 0, 0, 1, 0, 0, 0, 0, 0, 0, 0, 0, 0]"] ;
14 -> 18 ;
19 [label="X[66] <= 0.117\ngini = 0.651\nsamples = 38\nvalue = [0, 14, 4, 0, 17, 0, 0, 0, 1, 1, 0, 0, 1, 0]"] ;
3 -> 19 ;
20 [label="X[94] <= 0.134\ngini = 0.298\nsamples = 11\nvalue = [0, 2, 0, 0, 9, 0, 0, 0, 0, 0, 0, 0, 0, 0]"] ;
19 -> 20 ;
21 [label="X[118] <= 0.17\ngini = 0.444\nsamples = 3\nvalue = [0, 2, 0, 0, 1, 0, 0, 0, 0, 0, 0, 0, 0, 0]"] ;
20 -> 21 ;
22 [label="gini = 0.0\nsamples = 1\nvalue = [0, 0, 0, 0, 1, 0, 0, 0, 0, 0, 0, 0, 0, 0]"] ;
21 -> 22 ;
23 [label="gini = 0.0\nsamples = 2\nvalue = [0, 2, 0, 0, 0, 0, 0, 0, 0, 0, 0, 0, 0, 0]"] ;
21 -> 23 ;
24 [label="gini = 0.0\nsamples = 8\nvalue = [0, 0, 0, 0, 8, 0, 0, 0, 0, 0, 0, 0, 0, 0]"] ;
20 -> 24 ;
25 [label="X[86] <= 0.354\ngini = 0.689\nsamples = 27\nvalue = [0, 12, 4, 0, 8, 0, 0, 0, 1, 1, 0, 0, 1, 0]"] ;
19 -> 25 ;
26 [label="X[114] <= 2.096\ngini = 0.656\nsamples = 25\nvalue = [0, 12, 2, 0, 8, 0, 0, 0, 1, 1, 0, 0, 1, 0]"] ;
25 -> 26 ;
27 [label="X[70] <= 0.036\ngini = 0.597\nsamples = 23\nvalue = [0, 12, 2, 0, 8, 0, 0, 0, 0, 1, 0, 0, 0, 0]"] ;
26 -> 27 ;
28 [label="gini = 0.0\nsamples = 2\nvalue = [0, 0, 0, 0, 2, 0, 0, 0, 0, 0, 0, 0, 0, 0]"] ;
27 -> 28 ;
29 [label="X[86] <= 0.178\ngini = 0.58\nsamples = 21\nvalue = [0, 12, 2, 0, 6, 0, 0, 0, 0, 1, 0, 0, 0, 0]"] ;
27 -> 29 ;
30 [label="X[72] <= 0.171\ngini = 0.278\nsamples = 6\nvalue = [0, 5, 0, 0, 0, 0, 0, 0, 0, 1, 0, 0, 0, 0]"] ;
29 -> 30 ;
31 [label="gini = 0.0\nsamples = 5\nvalue = [0, 5, 0, 0, 0, 0, 0, 0, 0, 0, 0, 0, 0, 0]"] ;
30 -> 31 ;
32 [label="gini = 0.0\nsamples = 1\nvalue = [0, 0, 0, 0, 0, 0, 0, 0, 0, 1, 0, 0, 0, 0]"] ;
30 -> 32 ;
33 [label="X[85] <= 0.715\ngini = 0.604\nsamples = 15\nvalue = [0, 7, 2, 0, 6, 0, 0, 0, 0, 0, 0, 0, 0, 0]"] ;
29 -> 33 ;
34 [label="gini = 0.594\nsamples = 8\nvalue = [0, 4, 1, 0, 3, 0, 0, 0, 0, 0, 0, 0, 0, 0]"] ;
33 -> 34 ;
35 [label="gini = 0.612\nsamples = 7\nvalue = [0, 3, 1, 0, 3, 0, 0, 0, 0, 0, 0, 0, 0, 0]"] ;
33 -> 35 ;
36 [label="X[64] <= 146825.094\ngini = 0.5\nsamples = 2\nvalue = [0, 0, 0, 0, 0, 0, 0, 0, 1, 0, 0, 0, 1, 0]"] ;
26 -> 36 ;
37 [label="gini = 0.0\nsamples = 1\nvalue = [0, 0, 0, 0, 0, 0, 0, 0, 1, 0, 0, 0, 0, 0]"] ;
36 -> 37 ;
38 [label="gini = 0.0\nsamples = 1\nvalue = [0, 0, 0, 0, 0, 0, 0, 0, 0, 0, 0, 0, 1, 0]"] ;
36 -> 38 ;
39 [label="gini = 0.0\nsamples = 2\nvalue = [0, 0, 2, 0, 0, 0, 0, 0, 0, 0, 0, 0, 0, 0]"] ;
25 -> 39 ;
40 [label="X[62] <= 21.094\ngini = 0.846\nsamples = 186\nvalue = [40, 17, 13, 15, 52, 7, 11, 6, 5, 7, 2, 3, 4\n4]"] ;
2 -> 40 ;
41 [label="X[70] <= 0.16\ngini = 0.73\nsamples = 80\nvalue = [14, 5, 4, 10, 37, 1, 1, 3, 2, 2, 0, 0, 0, 1]"] ;
40 -> 41 ;
42 [label="X[114] <= 2.365\ngini = 0.691\nsamples = 71\nvalue = [14, 5, 2, 4, 36, 1, 1, 3, 2, 2, 0, 0, 0, 1]"] ;
41 -> 42 ;
43 [label="X[112] <= 0.128\ngini = 0.76\nsamples = 59\nvalue = [14, 5, 2, 4, 24, 1, 1, 3, 2, 2, 0, 0, 0, 1]"] ;
42 -> 43 ;
44 [label="X[111] <= 0.321\ngini = 0.772\nsamples = 43\nvalue = [14, 2, 2, 3, 14, 1, 1, 2, 1, 2, 0, 0, 0, 1]"] ;
43 -> 44 ;
45 [label="X[59] <= 22.5\ngini = 0.766\nsamples = 34\nvalue = [7, 2, 2, 3, 14, 1, 0, 1, 1, 2, 0, 0, 0, 1]"] ;
44 -> 45 ;
46 [label="X[100] <= 0.031\ngini = 0.815\nsamples = 9\nvalue = [0, 2, 2, 0, 1, 1, 0, 1, 0, 2, 0, 0, 0, 0]"] ;
45 -> 46 ;
47 [label="gini = 0.0\nsamples = 2\nvalue = [0, 0, 2, 0, 0, 0, 0, 0, 0, 0, 0, 0, 0, 0]"] ;
46 -> 47 ;
48 [label="X[87] <= 0.16\ngini = 0.776\nsamples = 7\nvalue = [0, 2, 0, 0, 1, 1, 0, 1, 0, 2, 0, 0, 0, 0]"] ;
46 -> 48 ;
49 [label="X[90] <= 0.076\ngini = 0.72\nsamples = 5\nvalue = [0, 2, 0, 0, 1, 1, 0, 1, 0, 0, 0, 0, 0, 0]"] ;
48 -> 49 ;
50 [label="X[0] <= 6.5\ngini = 0.667\nsamples = 3\nvalue = [0, 0, 0, 0, 1, 1, 0, 1, 0, 0, 0, 0, 0, 0]"] ;
49 -> 50 ;
51 [label="X[70] <= 0.08\ngini = 0.5\nsamples = 2\nvalue = [0, 0, 0, 0, 1, 1, 0, 0, 0, 0, 0, 0, 0, 0]"] ;
50 -> 51 ;
52 [label="gini = 0.0\nsamples = 1\nvalue = [0, 0, 0, 0, 1, 0, 0, 0, 0, 0, 0, 0, 0, 0]"] ;
51 -> 52 ;
53 [label="gini = 0.0\nsamples = 1\nvalue = [0, 0, 0, 0, 0, 1, 0, 0, 0, 0, 0, 0, 0, 0]"] ;
51 -> 53 ;
54 [label="gini = 0.0\nsamples = 1\nvalue = [0, 0, 0, 0, 0, 0, 0, 1, 0, 0, 0, 0, 0, 0]"] ;
50 -> 54 ;
55 [label="gini = 0.0\nsamples = 2\nvalue = [0, 2, 0, 0, 0, 0, 0, 0, 0, 0, 0, 0, 0, 0]"] ;
49 -> 55 ;
56 [label="gini = 0.0\nsamples = 2\nvalue = [0, 0, 0, 0, 0, 0, 0, 0, 0, 2, 0, 0, 0, 0]"] ;
48 -> 56 ;
57 [label="X[64] <= 10203.75\ngini = 0.634\nsamples = 25\nvalue = [7, 0, 0, 3, 13, 0, 0, 0, 1, 0, 0, 0, 0, 1]"] ;
45 -> 57 ;
58 [label="gini = 0.0\nsamples = 3\nvalue = [3, 0, 0, 0, 0, 0, 0, 0, 0, 0, 0, 0, 0, 0]"] ;
57 -> 58 ;
59 [label="X[116] <= 0.675\ngini = 0.595\nsamples = 22\nvalue = [4, 0, 0, 3, 13, 0, 0, 0, 1, 0, 0, 0, 0, 1]"] ;
57 -> 59 ;
60 [label="gini = 0.0\nsamples = 6\nvalue = [0, 0, 0, 0, 6, 0, 0, 0, 0, 0, 0, 0, 0, 0]"] ;
59 -> 60 ;
61 [label="X[62] <= 16.371\ngini = 0.703\nsamples = 16\nvalue = [4, 0, 0, 3, 7, 0, 0, 0, 1, 0, 0, 0, 0, 1]"] ;
59 -> 61 ;
62 [label="X[25] <= 0.9\ngini = 0.278\nsamples = 6\nvalue = [0, 0, 0, 1, 5, 0, 0, 0, 0, 0, 0, 0, 0, 0]"] ;
61 -> 62 ;
63 [label="gini = 0.0\nsamples = 4\nvalue = [0, 0, 0, 0, 4, 0, 0, 0, 0, 0, 0, 0, 0, 0]"] ;
62 -> 63 ;
64 [label="gini = 0.5\nsamples = 2\nvalue = [0, 0, 0, 1, 1, 0, 0, 0, 0, 0, 0, 0, 0, 0]"] ;
62 -> 64 ;
65 [label="X[114] <= 2.193\ngini = 0.74\nsamples = 10\nvalue = [4, 0, 0, 2, 2, 0, 0, 0, 1, 0, 0, 0, 0, 1]"] ;
61 -> 65 ;
66 [label="X[25] <= 0.757\ngini = 0.444\nsamples = 6\nvalue = [4, 0, 0, 0, 2, 0, 0, 0, 0, 0, 0, 0, 0, 0]"] ;
65 -> 66 ;
67 [label="gini = 0.444\nsamples = 3\nvalue = [1, 0, 0, 0, 2, 0, 0, 0, 0, 0, 0, 0, 0, 0]"] ;
66 -> 67 ;
68 [label="gini = 0.0\nsamples = 3\nvalue = [3, 0, 0, 0, 0, 0, 0, 0, 0, 0, 0, 0, 0, 0]"] ;
66 -> 68 ;
69 [label="X[72] <= 0.097\ngini = 0.625\nsamples = 4\nvalue = [0, 0, 0, 2, 0, 0, 0, 0, 1, 0, 0, 0, 0, 1]"] ;
65 -> 69 ;
70 [label="gini = 0.0\nsamples = 2\nvalue = [0, 0, 0, 2, 0, 0, 0, 0, 0, 0, 0, 0, 0, 0]"] ;
69 -> 70 ;
71 [label="gini = 0.5\nsamples = 2\nvalue = [0, 0, 0, 0, 0, 0, 0, 0, 1, 0, 0, 0, 0, 1]"] ;
69 -> 71 ;
72 [label="X[113] <= 0.056\ngini = 0.37\nsamples = 9\nvalue = [7, 0, 0, 0, 0, 0, 1, 1, 0, 0, 0, 0, 0, 0]"] ;
44 -> 72 ;
73 [label="X[23] <= 31.0\ngini = 0.5\nsamples = 2\nvalue = [0, 0, 0, 0, 0, 0, 1, 1, 0, 0, 0, 0, 0, 0]"] ;
72 -> 73 ;
74 [label="gini = 0.0\nsamples = 1\nvalue = [0, 0, 0, 0, 0, 0, 1, 0, 0, 0, 0, 0, 0, 0]"] ;
73 -> 74 ;
75 [label="gini = 0.0\nsamples = 1\nvalue = [0, 0, 0, 0, 0, 0, 0, 1, 0, 0, 0, 0, 0, 0]"] ;
73 -> 75 ;
76 [label="gini = 0.0\nsamples = 7\nvalue = [7, 0, 0, 0, 0, 0, 0, 0, 0, 0, 0, 0, 0, 0]"] ;
72 -> 76 ;
77 [label="X[86] <= 0.363\ngini = 0.562\nsamples = 16\nvalue = [0, 3, 0, 1, 10, 0, 0, 1, 1, 0, 0, 0, 0, 0]"] ;
43 -> 77 ;
78 [label="X[70] <= 0.045\ngini = 0.391\nsamples = 13\nvalue = [0, 1, 0, 0, 10, 0, 0, 1, 1, 0, 0, 0, 0, 0]"] ;
77 -> 78 ;
79 [label="gini = 0.0\nsamples = 1\nvalue = [0, 0, 0, 0, 0, 0, 0, 0, 1, 0, 0, 0, 0, 0]"] ;
78 -> 79 ;
80 [label="X[90] <= 0.03\ngini = 0.292\nsamples = 12\nvalue = [0, 1, 0, 0, 10, 0, 0, 1, 0, 0, 0, 0, 0, 0]"] ;
78 -> 80 ;
81 [label="gini = 0.0\nsamples = 1\nvalue = [0, 1, 0, 0, 0, 0, 0, 0, 0, 0, 0, 0, 0, 0]"] ;
80 -> 81 ;
82 [label="X[100] <= 0.195\ngini = 0.165\nsamples = 11\nvalue = [0, 0, 0, 0, 10, 0, 0, 1, 0, 0, 0, 0, 0, 0]"] ;
80 -> 82 ;
83 [label="gini = 0.0\nsamples = 10\nvalue = [0, 0, 0, 0, 10, 0, 0, 0, 0, 0, 0, 0, 0, 0]"] ;
82 -> 83 ;
84 [label="gini = 0.0\nsamples = 1\nvalue = [0, 0, 0, 0, 0, 0, 0, 1, 0, 0, 0, 0, 0, 0]"] ;
82 -> 84 ;
85 [label="X[59] <= 16.0\ngini = 0.444\nsamples = 3\nvalue = [0, 2, 0, 1, 0, 0, 0, 0, 0, 0, 0, 0, 0, 0]"] ;
77 -> 85 ;
86 [label="gini = 0.0\nsamples = 1\nvalue = [0, 0, 0, 1, 0, 0, 0, 0, 0, 0, 0, 0, 0, 0]"] ;
85 -> 86 ;
87 [label="gini = 0.0\nsamples = 2\nvalue = [0, 2, 0, 0, 0, 0, 0, 0, 0, 0, 0, 0, 0, 0]"] ;
85 -> 87 ;
88 [label="gini = 0.0\nsamples = 12\nvalue = [0, 0, 0, 0, 12, 0, 0, 0, 0, 0, 0, 0, 0, 0]"] ;
42 -> 88 ;
89 [label="X[73] <= 0.095\ngini = 0.494\nsamples = 9\nvalue = [0, 0, 2, 6, 1, 0, 0, 0, 0, 0, 0, 0, 0, 0]"] ;
41 -> 89 ;
90 [label="X[8] <= 1.5\ngini = 0.245\nsamples = 7\nvalue = [0, 0, 0, 6, 1, 0, 0, 0, 0, 0, 0, 0, 0, 0]"] ;
89 -> 90 ;
91 [label="gini = 0.0\nsamples = 6\nvalue = [0, 0, 0, 6, 0, 0, 0, 0, 0, 0, 0, 0, 0, 0]"] ;
90 -> 91 ;
92 [label="gini = 0.0\nsamples = 1\nvalue = [0, 0, 0, 0, 1, 0, 0, 0, 0, 0, 0, 0, 0, 0]"] ;
90 -> 92 ;
93 [label="gini = 0.0\nsamples = 2\nvalue = [0, 0, 2, 0, 0, 0, 0, 0, 0, 0, 0, 0, 0, 0]"] ;
89 -> 93 ;
94 [label="X[70] <= 0.003\ngini = 0.878\nsamples = 106\nvalue = [26, 12, 9, 5, 15, 6, 10, 3, 3, 5, 2, 3, 4, 3]"] ;
40 -> 94 ;
95 [label="gini = 0.0\nsamples = 3\nvalue = [0, 0, 0, 0, 0, 3, 0, 0, 0, 0, 0, 0, 0, 0]"] ;
94 -> 95 ;
96 [label="X[34] <= 2.5\ngini = 0.874\nsamples = 103\nvalue = [26, 12, 9, 5, 15, 3, 10, 3, 3, 5, 2, 3, 4, 3]"] ;
94 -> 96 ;
97 [label="X[118] <= 0.12\ngini = 0.82\nsamples = 16\nvalue = [0, 3, 5, 2, 0, 0, 2, 1, 0, 1, 0, 1, 1, 0]"] ;
96 -> 97 ;
98 [label="X[80] <= 0.15\ngini = 0.776\nsamples = 7\nvalue = [0, 0, 0, 2, 0, 0, 2, 1, 0, 0, 0, 1, 1, 0]"] ;
97 -> 98 ;
99 [label="gini = 0.0\nsamples = 2\nvalue = [0, 0, 0, 2, 0, 0, 0, 0, 0, 0, 0, 0, 0, 0]"] ;
98 -> 99 ;
100 [label="X[113] <= 0.039\ngini = 0.72\nsamples = 5\nvalue = [0, 0, 0, 0, 0, 0, 2, 1, 0, 0, 0, 1, 1, 0]"] ;
98 -> 100 ;
101 [label="X[61] <= 13.5\ngini = 0.667\nsamples = 3\nvalue = [0, 0, 0, 0, 0, 0, 0, 1, 0, 0, 0, 1, 1, 0]"] ;
100 -> 101 ;
102 [label="gini = 0.0\nsamples = 1\nvalue = [0, 0, 0, 0, 0, 0, 0, 1, 0, 0, 0, 0, 0, 0]"] ;
101 -> 102 ;
103 [label="X[2] <= 8.0\ngini = 0.5\nsamples = 2\nvalue = [0, 0, 0, 0, 0, 0, 0, 0, 0, 0, 0, 1, 1, 0]"] ;
101 -> 103 ;
104 [label="gini = 0.0\nsamples = 1\nvalue = [0, 0, 0, 0, 0, 0, 0, 0, 0, 0, 0, 0, 1, 0]"] ;
103 -> 104 ;
105 [label="gini = 0.0\nsamples = 1\nvalue = [0, 0, 0, 0, 0, 0, 0, 0, 0, 0, 0, 1, 0, 0]"] ;
103 -> 105 ;
106 [label="gini = 0.0\nsamples = 2\nvalue = [0, 0, 0, 0, 0, 0, 2, 0, 0, 0, 0, 0, 0, 0]"] ;
100 -> 106 ;
107 [label="X[53] <= 3.5\ngini = 0.568\nsamples = 9\nvalue = [0, 3, 5, 0, 0, 0, 0, 0, 0, 1, 0, 0, 0, 0]"] ;
97 -> 107 ;
108 [label="X[92] <= 0.042\ngini = 0.444\nsamples = 3\nvalue = [0, 2, 0, 0, 0, 0, 0, 0, 0, 1, 0, 0, 0, 0]"] ;
107 -> 108 ;
109 [label="gini = 0.0\nsamples = 1\nvalue = [0, 0, 0, 0, 0, 0, 0, 0, 0, 1, 0, 0, 0, 0]"] ;
108 -> 109 ;
110 [label="gini = 0.0\nsamples = 2\nvalue = [0, 2, 0, 0, 0, 0, 0, 0, 0, 0, 0, 0, 0, 0]"] ;
108 -> 110 ;
111 [label="X[15] <= 8.0\ngini = 0.278\nsamples = 6\nvalue = [0, 1, 5, 0, 0, 0, 0, 0, 0, 0, 0, 0, 0, 0]"] ;
107 -> 111 ;
112 [label="gini = 0.5\nsamples = 2\nvalue = [0, 1, 1, 0, 0, 0, 0, 0, 0, 0, 0, 0, 0, 0]"] ;
111 -> 112 ;
113 [label="gini = 0.0\nsamples = 4\nvalue = [0, 0, 4, 0, 0, 0, 0, 0, 0, 0, 0, 0, 0, 0]"] ;
111 -> 113 ;
114 [label="X[114] <= 2.216\ngini = 0.85\nsamples = 87\nvalue = [26, 9, 4, 3, 15, 3, 8, 2, 3, 4, 2, 2, 3, 3]"] ;
96 -> 114 ;
115 [label="X[114] <= 2.028\ngini = 0.664\nsamples = 27\nvalue = [15, 3, 1, 1, 2, 1, 1, 1, 0, 1, 1, 0, 0, 0]"] ;
114 -> 115 ;
116 [label="X[81] <= 0.059\ngini = 0.72\nsamples = 5\nvalue = [0, 2, 0, 0, 1, 0, 1, 1, 0, 0, 0, 0, 0, 0]"] ;
115 -> 116 ;
117 [label="gini = 0.0\nsamples = 2\nvalue = [0, 2, 0, 0, 0, 0, 0, 0, 0, 0, 0, 0, 0, 0]"] ;
116 -> 117 ;
118 [label="X[28] <= 43.5\ngini = 0.667\nsamples = 3\nvalue = [0, 0, 0, 0, 1, 0, 1, 1, 0, 0, 0, 0, 0, 0]"] ;
116 -> 118 ;
119 [label="X[114] <= 1.974\ngini = 0.5\nsamples = 2\nvalue = [0, 0, 0, 0, 1, 0, 1, 0, 0, 0, 0, 0, 0, 0]"] ;
118 -> 119 ;
120 [label="gini = 0.0\nsamples = 1\nvalue = [0, 0, 0, 0, 0, 0, 1, 0, 0, 0, 0, 0, 0, 0]"] ;
119 -> 120 ;
121 [label="gini = 0.0\nsamples = 1\nvalue = [0, 0, 0, 0, 1, 0, 0, 0, 0, 0, 0, 0, 0, 0]"] ;
119 -> 121 ;
122 [label="gini = 0.0\nsamples = 1\nvalue = [0, 0, 0, 0, 0, 0, 0, 1, 0, 0, 0, 0, 0, 0]"] ;
118 -> 122 ;
123 [label="X[110] <= 0.024\ngini = 0.521\nsamples = 22\nvalue = [15, 1, 1, 1, 1, 1, 0, 0, 0, 1, 1, 0, 0, 0]"] ;
115 -> 123 ;
124 [label="X[25] <= 0.909\ngini = 0.667\nsamples = 3\nvalue = [0, 1, 1, 1, 0, 0, 0, 0, 0, 0, 0, 0, 0, 0]"] ;
123 -> 124 ;
125 [label="gini = 0.0\nsamples = 1\nvalue = [0, 0, 1, 0, 0, 0, 0, 0, 0, 0, 0, 0, 0, 0]"] ;
124 -> 125 ;
126 [label="X[27] <= 4.5\ngini = 0.5\nsamples = 2\nvalue = [0, 1, 0, 1, 0, 0, 0, 0, 0, 0, 0, 0, 0, 0]"] ;
124 -> 126 ;
127 [label="gini = 0.0\nsamples = 1\nvalue = [0, 1, 0, 0, 0, 0, 0, 0, 0, 0, 0, 0, 0, 0]"] ;
126 -> 127 ;
128 [label="gini = 0.0\nsamples = 1\nvalue = [0, 0, 0, 1, 0, 0, 0, 0, 0, 0, 0, 0, 0, 0]"] ;
126 -> 128 ;
129 [label="X[68] <= 0.001\ngini = 0.366\nsamples = 19\nvalue = [15, 0, 0, 0, 1, 1, 0, 0, 0, 1, 1, 0, 0, 0]"] ;
123 -> 129 ;
130 [label="X[111] <= 0.059\ngini = 0.215\nsamples = 17\nvalue = [15, 0, 0, 0, 0, 1, 0, 0, 0, 1, 0, 0, 0, 0]"] ;
129 -> 130 ;
131 [label="gini = 0.0\nsamples = 1\nvalue = [0, 0, 0, 0, 0, 1, 0, 0, 0, 0, 0, 0, 0, 0]"] ;
130 -> 131 ;
132 [label="X[118] <= 0.158\ngini = 0.117\nsamples = 16\nvalue = [15, 0, 0, 0, 0, 0, 0, 0, 0, 1, 0, 0, 0, 0]"] ;
130 -> 132 ;
133 [label="gini = 0.0\nsamples = 14\nvalue = [14, 0, 0, 0, 0, 0, 0, 0, 0, 0, 0, 0, 0, 0]"] ;
132 -> 133 ;
134 [label="X[15] <= 12.0\ngini = 0.5\nsamples = 2\nvalue = [1, 0, 0, 0, 0, 0, 0, 0, 0, 1, 0, 0, 0, 0]"] ;
132 -> 134 ;
135 [label="gini = 0.0\nsamples = 1\nvalue = [1, 0, 0, 0, 0, 0, 0, 0, 0, 0, 0, 0, 0, 0]"] ;
134 -> 135 ;
136 [label="gini = 0.0\nsamples = 1\nvalue = [0, 0, 0, 0, 0, 0, 0, 0, 0, 1, 0, 0, 0, 0]"] ;
134 -> 136 ;
137 [label="X[6] <= 1.5\ngini = 0.5\nsamples = 2\nvalue = [0, 0, 0, 0, 1, 0, 0, 0, 0, 0, 1, 0, 0, 0]"] ;
129 -> 137 ;
138 [label="gini = 0.0\nsamples = 1\nvalue = [0, 0, 0, 0, 1, 0, 0, 0, 0, 0, 0, 0, 0, 0]"] ;
137 -> 138 ;
139 [label="gini = 0.0\nsamples = 1\nvalue = [0, 0, 0, 0, 0, 0, 0, 0, 0, 0, 1, 0, 0, 0]"] ;
137 -> 139 ;
140 [label="X[47] <= 11.5\ngini = 0.879\nsamples = 60\nvalue = [11, 6, 3, 2, 13, 2, 7, 1, 3, 3, 1, 2, 3, 3]"] ;
114 -> 140 ;
141 [label="X[9] <= 2.5\ngini = 0.837\nsamples = 45\nvalue = [10, 3, 3, 2, 12, 1, 7, 1, 0, 3, 0, 1, 0, 2]"] ;
140 -> 141 ;
142 [label="X[111] <= 0.188\ngini = 0.851\nsamples = 41\nvalue = [10, 3, 3, 2, 8, 1, 7, 1, 0, 3, 0, 1, 0, 2]"] ;
141 -> 142 ;
143 [label="X[114] <= 2.702\ngini = 0.764\nsamples = 24\nvalue = [5, 0, 3, 0, 7, 0, 7, 0, 0, 0, 0, 0, 0, 2]"] ;
142 -> 143 ;
144 [label="X[105] <= 0.22\ngini = 0.727\nsamples = 22\nvalue = [5, 0, 3, 0, 7, 0, 7, 0, 0, 0, 0, 0, 0, 0]"] ;
143 -> 144 ;
145 [label="X[87] <= 0.139\ngini = 0.56\nsamples = 10\nvalue = [2, 0, 0, 0, 2, 0, 6, 0, 0, 0, 0, 0, 0, 0]"] ;
144 -> 145 ;
146 [label="X[62] <= 52.478\ngini = 0.667\nsamples = 6\nvalue = [2, 0, 0, 0, 2, 0, 2, 0, 0, 0, 0, 0, 0, 0]"] ;
145 -> 146 ;
147 [label="gini = 0.444\nsamples = 3\nvalue = [0, 0, 0, 0, 2, 0, 1, 0, 0, 0, 0, 0, 0, 0]"] ;
146 -> 147 ;
148 [label="gini = 0.444\nsamples = 3\nvalue = [2, 0, 0, 0, 0, 0, 1, 0, 0, 0, 0, 0, 0, 0]"] ;
146 -> 148 ;
149 [label="gini = 0.0\nsamples = 4\nvalue = [0, 0, 0, 0, 0, 0, 4, 0, 0, 0, 0, 0, 0, 0]"] ;
145 -> 149 ;
150 [label="X[100] <= 0.121\ngini = 0.694\nsamples = 12\nvalue = [3, 0, 3, 0, 5, 0, 1, 0, 0, 0, 0, 0, 0, 0]"] ;
144 -> 150 ;
151 [label="X[111] <= 0.139\ngini = 0.56\nsamples = 5\nvalue = [1, 0, 3, 0, 0, 0, 1, 0, 0, 0, 0, 0, 0, 0]"] ;
150 -> 151 ;
152 [label="gini = 0.5\nsamples = 2\nvalue = [1, 0, 0, 0, 0, 0, 1, 0, 0, 0, 0, 0, 0, 0]"] ;
151 -> 152 ;
153 [label="gini = 0.0\nsamples = 3\nvalue = [0, 0, 3, 0, 0, 0, 0, 0, 0, 0, 0, 0, 0, 0]"] ;
151 -> 153 ;
154 [label="X[78] <= 0.01\ngini = 0.408\nsamples = 7\nvalue = [2, 0, 0, 0, 5, 0, 0, 0, 0, 0, 0, 0, 0, 0]"] ;
150 -> 154 ;
155 [label="gini = 0.444\nsamples = 3\nvalue = [2, 0, 0, 0, 1, 0, 0, 0, 0, 0, 0, 0, 0, 0]"] ;
154 -> 155 ;
156 [label="gini = 0.0\nsamples = 4\nvalue = [0, 0, 0, 0, 4, 0, 0, 0, 0, 0, 0, 0, 0, 0]"] ;
154 -> 156 ;
157 [label="gini = 0.0\nsamples = 2\nvalue = [0, 0, 0, 0, 0, 0, 0, 0, 0, 0, 0, 0, 0, 2]"] ;
143 -> 157 ;
158 [label="X[51] <= 20.0\ngini = 0.824\nsamples = 17\nvalue = [5, 3, 0, 2, 1, 1, 0, 1, 0, 3, 0, 1, 0, 0]"] ;
142 -> 158 ;
159 [label="gini = 0.0\nsamples = 3\nvalue = [3, 0, 0, 0, 0, 0, 0, 0, 0, 0, 0, 0, 0, 0]"] ;
158 -> 159 ;
160 [label="X[65] <= 0.302\ngini = 0.847\nsamples = 14\nvalue = [2, 3, 0, 2, 1, 1, 0, 1, 0, 3, 0, 1, 0, 0]"] ;
158 -> 160 ;
161 [label="X[86] <= 0.286\ngini = 0.8\nsamples = 10\nvalue = [2, 3, 0, 2, 1, 1, 0, 1, 0, 0, 0, 0, 0, 0]"] ;
160 -> 161 ;
162 [label="X[113] <= 0.093\ngini = 0.72\nsamples = 5\nvalue = [0, 0, 0, 2, 1, 1, 0, 1, 0, 0, 0, 0, 0, 0]"] ;
161 -> 162 ;
163 [label="gini = 0.0\nsamples = 2\nvalue = [0, 0, 0, 2, 0, 0, 0, 0, 0, 0, 0, 0, 0, 0]"] ;
162 -> 163 ;
164 [label="gini = 0.667\nsamples = 3\nvalue = [0, 0, 0, 0, 1, 1, 0, 1, 0, 0, 0, 0, 0, 0]"] ;
162 -> 164 ;
165 [label="X[25] <= 1.2\ngini = 0.48\nsamples = 5\nvalue = [2, 3, 0, 0, 0, 0, 0, 0, 0, 0, 0, 0, 0, 0]"] ;
161 -> 165 ;
166 [label="gini = 0.0\nsamples = 3\nvalue = [0, 3, 0, 0, 0, 0, 0, 0, 0, 0, 0, 0, 0, 0]"] ;
165 -> 166 ;
167 [label="gini = 0.0\nsamples = 2\nvalue = [2, 0, 0, 0, 0, 0, 0, 0, 0, 0, 0, 0, 0, 0]"] ;
165 -> 167 ;
168 [label="X[57] <= 142.5\ngini = 0.375\nsamples = 4\nvalue = [0, 0, 0, 0, 0, 0, 0, 0, 0, 3, 0, 1, 0, 0]"] ;
160 -> 168 ;
169 [label="gini = 0.0\nsamples = 3\nvalue = [0, 0, 0, 0, 0, 0, 0, 0, 0, 3, 0, 0, 0, 0]"] ;
168 -> 169 ;
170 [label="gini = 0.0\nsamples = 1\nvalue = [0, 0, 0, 0, 0, 0, 0, 0, 0, 0, 0, 1, 0, 0]"] ;
168 -> 170 ;
171 [label="gini = 0.0\nsamples = 4\nvalue = [0, 0, 0, 0, 4, 0, 0, 0, 0, 0, 0, 0, 0, 0]"] ;
141 -> 171 ;
172 [label="X[86] <= 0.22\ngini = 0.853\nsamples = 15\nvalue = [1, 3, 0, 0, 1, 1, 0, 0, 3, 0, 1, 1, 3, 1]"] ;
140 -> 172 ;
173 [label="gini = 0.0\nsamples = 3\nvalue = [0, 3, 0, 0, 0, 0, 0, 0, 0, 0, 0, 0, 0, 0]"] ;
172 -> 173 ;
174 [label="X[98] <= 0.092\ngini = 0.833\nsamples = 12\nvalue = [1, 0, 0, 0, 1, 1, 0, 0, 3, 0, 1, 1, 3, 1]"] ;
172 -> 174 ;
175 [label="gini = 0.0\nsamples = 3\nvalue = [0, 0, 0, 0, 0, 0, 0, 0, 0, 0, 0, 0, 3, 0]"] ;
174 -> 175 ;
176 [label="X[98] <= 0.22\ngini = 0.815\nsamples = 9\nvalue = [1, 0, 0, 0, 1, 1, 0, 0, 3, 0, 1, 1, 0, 1]"] ;
174 -> 176 ;
177 [label="X[53] <= 53.0\ngini = 0.56\nsamples = 5\nvalue = [1, 0, 0, 0, 0, 1, 0, 0, 3, 0, 0, 0, 0, 0]"] ;
176 -> 177 ;
178 [label="X[2] <= 95.5\ngini = 0.375\nsamples = 4\nvalue = [1, 0, 0, 0, 0, 0, 0, 0, 3, 0, 0, 0, 0, 0]"] ;
177 -> 178 ;
179 [label="gini = 0.0\nsamples = 2\nvalue = [0, 0, 0, 0, 0, 0, 0, 0, 2, 0, 0, 0, 0, 0]"] ;
178 -> 179 ;
180 [label="gini = 0.5\nsamples = 2\nvalue = [1, 0, 0, 0, 0, 0, 0, 0, 1, 0, 0, 0, 0, 0]"] ;
178 -> 180 ;
181 [label="gini = 0.0\nsamples = 1\nvalue = [0, 0, 0, 0, 0, 1, 0, 0, 0, 0, 0, 0, 0, 0]"] ;
177 -> 181 ;
182 [label="X[4] <= 5.0\ngini = 0.75\nsamples = 4\nvalue = [0, 0, 0, 0, 1, 0, 0, 0, 0, 0, 1, 1, 0, 1]"] ;
176 -> 182 ;
183 [label="gini = 0.0\nsamples = 1\nvalue = [0, 0, 0, 0, 0, 0, 0, 0, 0, 0, 0, 1, 0, 0]"] ;
182 -> 183 ;
184 [label="X[15] <= 13.0\ngini = 0.667\nsamples = 3\nvalue = [0, 0, 0, 0, 1, 0, 0, 0, 0, 0, 1, 0, 0, 1]"] ;
182 -> 184 ;
185 [label="gini = 0.0\nsamples = 1\nvalue = [0, 0, 0, 0, 1, 0, 0, 0, 0, 0, 0, 0, 0, 0]"] ;
184 -> 185 ;
186 [label="X[118] <= 0.016\ngini = 0.5\nsamples = 2\nvalue = [0, 0, 0, 0, 0, 0, 0, 0, 0, 0, 1, 0, 0, 1]"] ;
184 -> 186 ;
187 [label="gini = 0.0\nsamples = 1\nvalue = [0, 0, 0, 0, 0, 0, 0, 0, 0, 0, 1, 0, 0, 0]"] ;
186 -> 187 ;
188 [label="gini = 0.0\nsamples = 1\nvalue = [0, 0, 0, 0, 0, 0, 0, 0, 0, 0, 0, 0, 0, 1]"] ;
186 -> 188 ;
189 [label="X[118] <= 0.042\ngini = 0.18\nsamples = 10\nvalue = [9, 1, 0, 0, 0, 0, 0, 0, 0, 0, 0, 0, 0, 0]"] ;
1 -> 189 ;
190 [label="gini = 0.0\nsamples = 1\nvalue = [0, 1, 0, 0, 0, 0, 0, 0, 0, 0, 0, 0, 0, 0]"] ;
189 -> 190 ;
191 [label="gini = 0.0\nsamples = 9\nvalue = [9, 0, 0, 0, 0, 0, 0, 0, 0, 0, 0, 0, 0, 0]"] ;
189 -> 191 ;
192 [label="X[59] <= 195.0\ngini = 0.454\nsamples = 52\nvalue = [38, 0, 0, 0, 4, 0, 2, 1, 2, 1, 0, 1, 1, 2]"] ;
0 -> 192 [labeldistance=2.5, labelangle=-45, headlabel="False"] ;
193 [label="X[90] <= 0.009\ngini = 0.722\nsamples = 6\nvalue = [1, 0, 0, 0, 2, 0, 1, 0, 0, 0, 0, 0, 0, 2]"] ;
192 -> 193 ;
194 [label="X[90] <= 0.007\ngini = 0.625\nsamples = 4\nvalue = [1, 0, 0, 0, 0, 0, 1, 0, 0, 0, 0, 0, 0, 2]"] ;
193 -> 194 ;
195 [label="X[56] <= 5.0\ngini = 0.5\nsamples = 2\nvalue = [1, 0, 0, 0, 0, 0, 1, 0, 0, 0, 0, 0, 0, 0]"] ;
194 -> 195 ;
196 [label="gini = 0.0\nsamples = 1\nvalue = [1, 0, 0, 0, 0, 0, 0, 0, 0, 0, 0, 0, 0, 0]"] ;
195 -> 196 ;
197 [label="gini = 0.0\nsamples = 1\nvalue = [0, 0, 0, 0, 0, 0, 1, 0, 0, 0, 0, 0, 0, 0]"] ;
195 -> 197 ;
198 [label="gini = 0.0\nsamples = 2\nvalue = [0, 0, 0, 0, 0, 0, 0, 0, 0, 0, 0, 0, 0, 2]"] ;
194 -> 198 ;
199 [label="gini = 0.0\nsamples = 2\nvalue = [0, 0, 0, 0, 2, 0, 0, 0, 0, 0, 0, 0, 0, 0]"] ;
193 -> 199 ;
200 [label="X[104] <= 0.011\ngini = 0.347\nsamples = 46\nvalue = [37, 0, 0, 0, 2, 0, 1, 1, 2, 1, 0, 1, 1, 0]"] ;
192 -> 200 ;
201 [label="X[105] <= 0.286\ngini = 0.288\nsamples = 44\nvalue = [37, 0, 0, 0, 0, 0, 1, 1, 2, 1, 0, 1, 1, 0]"] ;
200 -> 201 ;
202 [label="X[77] <= 0.19\ngini = 0.255\nsamples = 43\nvalue = [37, 0, 0, 0, 0, 0, 0, 1, 2, 1, 0, 1, 1, 0]"] ;
201 -> 202 ;
203 [label="X[10] <= 37.0\ngini = 0.22\nsamples = 42\nvalue = [37, 0, 0, 0, 0, 0, 0, 1, 2, 0, 0, 1, 1, 0]"] ;
202 -> 203 ;
204 [label="X[114] <= 2.152\ngini = 0.183\nsamples = 41\nvalue = [37, 0, 0, 0, 0, 0, 0, 1, 1, 0, 0, 1, 1, 0]"] ;
203 -> 204 ;
205 [label="gini = 0.0\nsamples = 1\nvalue = [0, 0, 0, 0, 0, 0, 0, 0, 1, 0, 0, 0, 0, 0]"] ;
204 -> 205 ;
206 [label="X[86] <= 0.168\ngini = 0.142\nsamples = 40\nvalue = [37, 0, 0, 0, 0, 0, 0, 1, 0, 0, 0, 1, 1, 0]"] ;
204 -> 206 ;
207 [label="X[116] <= 0.634\ngini = 0.056\nsamples = 35\nvalue = [34, 0, 0, 0, 0, 0, 0, 0, 0, 0, 0, 0, 1, 0]"] ;
206 -> 207 ;
208 [label="gini = 0.0\nsamples = 32\nvalue = [32, 0, 0, 0, 0, 0, 0, 0, 0, 0, 0, 0, 0, 0]"] ;
207 -> 208 ;
209 [label="X[18] <= 0.5\ngini = 0.444\nsamples = 3\nvalue = [2, 0, 0, 0, 0, 0, 0, 0, 0, 0, 0, 0, 1, 0]"] ;
207 -> 209 ;
210 [label="gini = 0.0\nsamples = 1\nvalue = [0, 0, 0, 0, 0, 0, 0, 0, 0, 0, 0, 0, 1, 0]"] ;
209 -> 210 ;
211 [label="gini = 0.0\nsamples = 2\nvalue = [2, 0, 0, 0, 0, 0, 0, 0, 0, 0, 0, 0, 0, 0]"] ;
209 -> 211 ;
212 [label="X[57] <= 1079.0\ngini = 0.56\nsamples = 5\nvalue = [3, 0, 0, 0, 0, 0, 0, 1, 0, 0, 0, 1, 0, 0]"] ;
206 -> 212 ;
213 [label="X[98] <= 0.033\ngini = 0.5\nsamples = 2\nvalue = [0, 0, 0, 0, 0, 0, 0, 1, 0, 0, 0, 1, 0, 0]"] ;
212 -> 213 ;
214 [label="gini = 0.0\nsamples = 1\nvalue = [0, 0, 0, 0, 0, 0, 0, 1, 0, 0, 0, 0, 0, 0]"] ;
213 -> 214 ;
215 [label="gini = 0.0\nsamples = 1\nvalue = [0, 0, 0, 0, 0, 0, 0, 0, 0, 0, 0, 1, 0, 0]"] ;
213 -> 215 ;
216 [label="gini = 0.0\nsamples = 3\nvalue = [3, 0, 0, 0, 0, 0, 0, 0, 0, 0, 0, 0, 0, 0]"] ;
212 -> 216 ;
217 [label="gini = 0.0\nsamples = 1\nvalue = [0, 0, 0, 0, 0, 0, 0, 0, 1, 0, 0, 0, 0, 0]"] ;
203 -> 217 ;
218 [label="gini = 0.0\nsamples = 1\nvalue = [0, 0, 0, 0, 0, 0, 0, 0, 0, 1, 0, 0, 0, 0]"] ;
202 -> 218 ;
219 [label="gini = 0.0\nsamples = 1\nvalue = [0, 0, 0, 0, 0, 0, 1, 0, 0, 0, 0, 0, 0, 0]"] ;
201 -> 219 ;
220 [label="gini = 0.0\nsamples = 2\nvalue = [0, 0, 0, 0, 2, 0, 0, 0, 0, 0, 0, 0, 0, 0]"] ;
200 -> 220 ;
}