digraph Tree {
node [shape=box] ;
0 [label="X[22] <= 13.5\ngini = 0.828\nsamples = 303\nvalue = [87, 32, 24, 16, 76, 8, 13, 10, 10, 9, 2, 4, 6\n6]"] ;
1 [label="X[83] <= 0.054\ngini = 0.843\nsamples = 251\nvalue = [49, 32, 24, 16, 72, 8, 11, 9, 8, 8, 2, 3, 5\n4]"] ;
0 -> 1 [labeldistance=2.5, labelangle=45, headlabel="True"] ;
2 [label="X[25] <= 0.408\ngini = 0.845\nsamples = 241\nvalue = [40, 31, 24, 16, 72, 8, 11, 9, 8, 8, 2, 3, 5\n4]"] ;
1 -> 2 ;
3 [label="X[62] <= 10.635\ngini = 0.756\nsamples = 55\nvalue = [0, 14, 11, 1, 20, 1, 0, 3, 3, 1, 0, 0, 1, 0]"] ;
2 -> 3 ;
4 [label="X[53] <= 1.5\ngini = 0.747\nsamples = 17\nvalue = [0, 0, 7, 1, 3, 1, 0, 3, 2, 0, 0, 0, 0, 0]"] ;
3 -> 4 ;
5 [label="X[89] <= 0.333\ngini = 0.611\nsamples = 6\nvalue = [0, 0, 0, 1, 0, 0, 0, 3, 2, 0, 0, 0, 0, 0]"] ;
4 -> 5 ;
6 [label="gini = 0.0\nsamples = 2\nvalue = [0, 0, 0, 0, 0, 0, 0, 0, 2, 0, 0, 0, 0, 0]"] ;
5 -> 6 ;
7 [label="gini = 0.375\nsamples = 4\nvalue = [0, 0, 0, 1, 0, 0, 0, 3, 0, 0, 0, 0, 0, 0]"] ;
5 -> 7 ;
8 [label="X[85] <= 0.586\ngini = 0.512\nsamples = 11\nvalue = [0, 0, 7, 0, 3, 1, 0, 0, 0, 0, 0, 0, 0, 0]"] ;
4 -> 8 ;
9 [label="gini = 0.5\nsamples = 2\nvalue = [0, 0, 0, 0, 1, 1, 0, 0, 0, 0, 0, 0, 0, 0]"] ;
8 -> 9 ;
10 [label="gini = 0.346\nsamples = 9\nvalue = [0, 0, 7, 0, 2, 0, 0, 0, 0, 0, 0, 0, 0, 0]"] ;
8 -> 10 ;
11 [label="X[77] <= 0.186\ngini = 0.651\nsamples = 38\nvalue = [0, 14, 4, 0, 17, 0, 0, 0, 1, 1, 0, 0, 1, 0]"] ;
3 -> 11 ;
12 [label="X[105] <= 0.196\ngini = 0.298\nsamples = 11\nvalue = [0, 2, 0, 0, 9, 0, 0, 0, 0, 0, 0, 0, 0, 0]"] ;
11 -> 12 ;
13 [label="gini = 0.0\nsamples = 8\nvalue = [0, 0, 0, 0, 8, 0, 0, 0, 0, 0, 0, 0, 0, 0]"] ;
12 -> 13 ;
14 [label="gini = 0.444\nsamples = 3\nvalue = [0, 2, 0, 0, 1, 0, 0, 0, 0, 0, 0, 0, 0, 0]"] ;
12 -> 14 ;
15 [label="X[90] <= 0.0\ngini = 0.689\nsamples = 27\nvalue = [0, 12, 4, 0, 8, 0, 0, 0, 1, 1, 0, 0, 1, 0]"] ;
11 -> 15 ;
16 [label="gini = 0.0\nsamples = 2\nvalue = [0, 0, 2, 0, 0, 0, 0, 0, 0, 0, 0, 0, 0, 0]"] ;
15 -> 16 ;
17 [label="gini = 0.656\nsamples = 25\nvalue = [0, 12, 2, 0, 8, 0, 0, 0, 1, 1, 0, 0, 1, 0]"] ;
15 -> 17 ;
18 [label="X[62] <= 21.094\ngini = 0.846\nsamples = 186\nvalue = [40, 17, 13, 15, 52, 7, 11, 6, 5, 7, 2, 3, 4\n4]"] ;
2 -> 18 ;
19 [label="X[70] <= 0.16\ngini = 0.73\nsamples = 80\nvalue = [14, 5, 4, 10, 37, 1, 1, 3, 2, 2, 0, 0, 0, 1]"] ;
18 -> 19 ;
20 [label="X[114] <= 2.365\ngini = 0.691\nsamples = 71\nvalue = [14, 5, 2, 4, 36, 1, 1, 3, 2, 2, 0, 0, 0, 1]"] ;
19 -> 20 ;
21 [label="gini = 0.76\nsamples = 59\nvalue = [14, 5, 2, 4, 24, 1, 1, 3, 2, 2, 0, 0, 0, 1]"] ;
20 -> 21 ;
22 [label="gini = 0.0\nsamples = 12\nvalue = [0, 0, 0, 0, 12, 0, 0, 0, 0, 0, 0, 0, 0, 0]"] ;
20 -> 22 ;
23 [label="X[73] <= 0.095\ngini = 0.494\nsamples = 9\nvalue = [0, 0, 2, 6, 1, 0, 0, 0, 0, 0, 0, 0, 0, 0]"] ;
19 -> 23 ;
24 [label="gini = 0.245\nsamples = 7\nvalue = [0, 0, 0, 6, 1, 0, 0, 0, 0, 0, 0, 0, 0, 0]"] ;
23 -> 24 ;
25 [label="gini = 0.0\nsamples = 2\nvalue = [0, 0, 2, 0, 0, 0, 0, 0, 0, 0, 0, 0, 0, 0]"] ;
23 -> 25 ;
26 [label="X[96] <= 0.003\ngini = 0.878\nsamples = 106\nvalue = [26, 12, 9, 5, 15, 6, 10, 3, 3, 5, 2, 3, 4, 3]"] ;
18 -> 26 ;
27 [label="gini = 0.0\nsamples = 3\nvalue = [0, 0, 0, 0, 0, 3, 0, 0, 0, 0, 0, 0, 0, 0]"] ;
26 -> 27 ;
28 [label="X[34] <= 2.5\ngini = 0.874\nsamples = 103\nvalue = [26, 12, 9, 5, 15, 3, 10, 3, 3, 5, 2, 3, 4, 3]"] ;
26 -> 28 ;
29 [label="gini = 0.82\nsamples = 16\nvalue = [0, 3, 5, 2, 0, 0, 2, 1, 0, 1, 0, 1, 1, 0]"] ;
28 -> 29 ;
30 [label="gini = 0.85\nsamples = 87\nvalue = [26, 9, 4, 3, 15, 3, 8, 2, 3, 4, 2, 2, 3, 3]"] ;
28 -> 30 ;
31 [label="X[39] <= 2.5\ngini = 0.18\nsamples = 10\nvalue = [9, 1, 0, 0, 0, 0, 0, 0, 0, 0, 0, 0, 0, 0]"] ;
1 -> 31 ;
32 [label="gini = 0.0\nsamples = 9\nvalue = [9, 0, 0, 0, 0, 0, 0, 0, 0, 0, 0, 0, 0, 0]"] ;
31 -> 32 ;
33 [label="gini = 0.0\nsamples = 1\nvalue = [0, 1, 0, 0, 0, 0, 0, 0, 0, 0, 0, 0, 0, 0]"] ;
31 -> 33 ;
34 [label="X[59] <= 195.0\ngini = 0.454\nsamples = 52\nvalue = [38, 0, 0, 0, 4, 0, 2, 1, 2, 1, 0, 1, 1, 2]"] ;
0 -> 34 [labeldistance=2.5, labelangle=-45, headlabel="False"] ;
35 [label="X[89] <= 0.208\ngini = 0.722\nsamples = 6\nvalue = [1, 0, 0, 0, 2, 0, 1, 0, 0, 0, 0, 0, 0, 2]"] ;
34 -> 35 ;
36 [label="X[112] <= 0.033\ngini = 0.625\nsamples = 4\nvalue = [1, 0, 0, 0, 0, 0, 1, 0, 0, 0, 0, 0, 0, 2]"] ;
35 -> 36 ;
37 [label="X[29] <= 8.5\ngini = 0.5\nsamples = 2\nvalue = [1, 0, 0, 0, 0, 0, 1, 0, 0, 0, 0, 0, 0, 0]"] ;
36 -> 37 ;
38 [label="gini = 0.0\nsamples = 1\nvalue = [1, 0, 0, 0, 0, 0, 0, 0, 0, 0, 0, 0, 0, 0]"] ;
37 -> 38 ;
39 [label="gini = 0.0\nsamples = 1\nvalue = [0, 0, 0, 0, 0, 0, 1, 0, 0, 0, 0, 0, 0, 0]"] ;
37 -> 39 ;
40 [label="gini = 0.0\nsamples = 2\nvalue = [0, 0, 0, 0, 0, 0, 0, 0, 0, 0, 0, 0, 0, 2]"] ;
36 -> 40 ;
41 [label="gini = 0.0\nsamples = 2\nvalue = [0, 0, 0, 0, 2, 0, 0, 0, 0, 0, 0, 0, 0, 0]"] ;
35 -> 41 ;
42 [label="X[104] <= 0.011\ngini = 0.347\nsamples = 46\nvalue = [37, 0, 0, 0, 2, 0, 1, 1, 2, 1, 0, 1, 1, 0]"] ;
34 -> 42 ;
43 [label="X[65] <= 0.217\ngini = 0.288\nsamples = 44\nvalue = [37, 0, 0, 0, 0, 0, 1, 1, 2, 1, 0, 1, 1, 0]"] ;
42 -> 43 ;
44 [label="X[113] <= 0.279\ngini = 0.255\nsamples = 43\nvalue = [37, 0, 0, 0, 0, 0, 1, 1, 2, 0, 0, 1, 1, 0]"] ;
43 -> 44 ;
45 [label="X[5] <= 37.0\ngini = 0.22\nsamples = 42\nvalue = [37, 0, 0, 0, 0, 0, 0, 1, 2, 0, 0, 1, 1, 0]"] ;
44 -> 45 ;
46 [label="gini = 0.183\nsamples = 41\nvalue = [37, 0, 0, 0, 0, 0, 0, 1, 1, 0, 0, 1, 1, 0]"] ;
45 -> 46 ;
47 [label="gini = 0.0\nsamples = 1\nvalue = [0, 0, 0, 0, 0, 0, 0, 0, 1, 0, 0, 0, 0, 0]"] ;
45 -> 47 ;
48 [label="gini = 0.0\nsamples = 1\nvalue = [0, 0, 0, 0, 0, 0, 1, 0, 0, 0, 0, 0, 0, 0]"] ;
44 -> 48 ;
49 [label="gini = 0.0\nsamples = 1\nvalue = [0, 0, 0, 0, 0, 0, 0, 0, 0, 1, 0, 0, 0, 0]"] ;
43 -> 49 ;
50 [label="gini = 0.0\nsamples = 2\nvalue = [0, 0, 0, 0, 2, 0, 0, 0, 0, 0, 0, 0, 0, 0]"] ;
42 -> 50 ;
}