digraph Tree {
node [shape=box] ;
0 [label="X[22] <= 13.5\ngini = 0.828\nsamples = 303\nvalue = [87, 32, 24, 16, 76, 8, 13, 10, 10, 9, 2, 4, 6\n6]"] ;
1 [label="X[83] <= 0.054\ngini = 0.843\nsamples = 251\nvalue = [49, 32, 24, 16, 72, 8, 11, 9, 8, 8, 2, 3, 5\n4]"] ;
0 -> 1 [labeldistance=2.5, labelangle=45, headlabel="True"] ;
2 [label="X[25] <= 0.408\ngini = 0.845\nsamples = 241\nvalue = [40, 31, 24, 16, 72, 8, 11, 9, 8, 8, 2, 3, 5\n4]"] ;
1 -> 2 ;
3 [label="X[62] <= 10.635\ngini = 0.756\nsamples = 55\nvalue = [0, 14, 11, 1, 20, 1, 0, 3, 3, 1, 0, 0, 1, 0]"] ;
2 -> 3 ;
4 [label="X[53] <= 1.5\ngini = 0.747\nsamples = 17\nvalue = [0, 0, 7, 1, 3, 1, 0, 3, 2, 0, 0, 0, 0, 0]"] ;
3 -> 4 ;
5 [label="X[89] <= 0.333\ngini = 0.611\nsamples = 6\nvalue = [0, 0, 0, 1, 0, 0, 0, 3, 2, 0, 0, 0, 0, 0]"] ;
4 -> 5 ;
6 [label="gini = 0.0\nsamples = 2\nvalue = [0, 0, 0, 0, 0, 0, 0, 0, 2, 0, 0, 0, 0, 0]"] ;
5 -> 6 ;
7 [label="X[87] <= 0.1\ngini = 0.375\nsamples = 4\nvalue = [0, 0, 0, 1, 0, 0, 0, 3, 0, 0, 0, 0, 0, 0]"] ;
5 -> 7 ;
8 [label="gini = 0.0\nsamples = 3\nvalue = [0, 0, 0, 0, 0, 0, 0, 3, 0, 0, 0, 0, 0, 0]"] ;
7 -> 8 ;
9 [label="gini = 0.0\nsamples = 1\nvalue = [0, 0, 0, 1, 0, 0, 0, 0, 0, 0, 0, 0, 0, 0]"] ;
7 -> 9 ;
10 [label="X[85] <= 0.586\ngini = 0.512\nsamples = 11\nvalue = [0, 0, 7, 0, 3, 1, 0, 0, 0, 0, 0, 0, 0, 0]"] ;
4 -> 10 ;
11 [label="X[89] <= 0.267\ngini = 0.5\nsamples = 2\nvalue = [0, 0, 0, 0, 1, 1, 0, 0, 0, 0, 0, 0, 0, 0]"] ;
10 -> 11 ;
12 [label="gini = 0.0\nsamples = 1\nvalue = [0, 0, 0, 0, 1, 0, 0, 0, 0, 0, 0, 0, 0, 0]"] ;
11 -> 12 ;
13 [label="gini = 0.0\nsamples = 1\nvalue = [0, 0, 0, 0, 0, 1, 0, 0, 0, 0, 0, 0, 0, 0]"] ;
11 -> 13 ;
14 [label="X[111] <= 0.397\ngini = 0.346\nsamples = 9\nvalue = [0, 0, 7, 0, 2, 0, 0, 0, 0, 0, 0, 0, 0, 0]"] ;
10 -> 14 ;
15 [label="X[47] <= 2.5\ngini = 0.219\nsamples = 8\nvalue = [0, 0, 7, 0, 1, 0, 0, 0, 0, 0, 0, 0, 0, 0]"] ;
14 -> 15 ;
16 [label="gini = 0.0\nsamples = 7\nvalue = [0, 0, 7, 0, 0, 0, 0, 0, 0, 0, 0, 0, 0, 0]"] ;
15 -> 16 ;
17 [label="gini = 0.0\nsamples = 1\nvalue = [0, 0, 0, 0, 1, 0, 0, 0, 0, 0, 0, 0, 0, 0]"] ;
15 -> 17 ;
18 [label="gini = 0.0\nsamples = 1\nvalue = [0, 0, 0, 0, 1, 0, 0, 0, 0, 0, 0, 0, 0, 0]"] ;
14 -> 18 ;
19 [label="X[66] <= 0.117\ngini = 0.651\nsamples = 38\nvalue = [0, 14, 4, 0, 17, 0, 0, 0, 1, 1, 0, 0, 1, 0]"] ;
3 -> 19 ;
20 [label="X[94] <= 0.134\ngini = 0.298\nsamples = 11\nvalue = [0, 2, 0, 0, 9, 0, 0, 0, 0, 0, 0, 0, 0, 0]"] ;
19 -> 20 ;
21 [label="X[39] <= 1.5\ngini = 0.444\nsamples = 3\nvalue = [0, 2, 0, 0, 1, 0, 0, 0, 0, 0, 0, 0, 0, 0]"] ;
20 -> 21 ;
22 [label="gini = 0.0\nsamples = 2\nvalue = [0, 2, 0, 0, 0, 0, 0, 0, 0, 0, 0, 0, 0, 0]"] ;
21 -> 22 ;
23 [label="gini = 0.0\nsamples = 1\nvalue = [0, 0, 0, 0, 1, 0, 0, 0, 0, 0, 0, 0, 0, 0]"] ;
21 -> 23 ;
24 [label="gini = 0.0\nsamples = 8\nvalue = [0, 0, 0, 0, 8, 0, 0, 0, 0, 0, 0, 0, 0, 0]"] ;
20 -> 24 ;
25 [label="X[86] <= 0.354\ngini = 0.689\nsamples = 27\nvalue = [0, 12, 4, 0, 8, 0, 0, 0, 1, 1, 0, 0, 1, 0]"] ;
19 -> 25 ;
26 [label="X[114] <= 2.096\ngini = 0.656\nsamples = 25\nvalue = [0, 12, 2, 0, 8, 0, 0, 0, 1, 1, 0, 0, 1, 0]"] ;
25 -> 26 ;
27 [label="X[70] <= 0.036\ngini = 0.597\nsamples = 23\nvalue = [0, 12, 2, 0, 8, 0, 0, 0, 0, 1, 0, 0, 0, 0]"] ;
26 -> 27 ;
28 [label="gini = 0.0\nsamples = 2\nvalue = [0, 0, 0, 0, 2, 0, 0, 0, 0, 0, 0, 0, 0, 0]"] ;
27 -> 28 ;
29 [label="X[86] <= 0.178\ngini = 0.58\nsamples = 21\nvalue = [0, 12, 2, 0, 6, 0, 0, 0, 0, 1, 0, 0, 0, 0]"] ;
27 -> 29 ;
30 [label="gini = 0.278\nsamples = 6\nvalue = [0, 5, 0, 0, 0, 0, 0, 0, 0, 1, 0, 0, 0, 0]"] ;
29 -> 30 ;
31 [label="gini = 0.604\nsamples = 15\nvalue = [0, 7, 2, 0, 6, 0, 0, 0, 0, 0, 0, 0, 0, 0]"] ;
29 -> 31 ;
32 [label="X[71] <= 0.034\ngini = 0.5\nsamples = 2\nvalue = [0, 0, 0, 0, 0, 0, 0, 0, 1, 0, 0, 0, 1, 0]"] ;
26 -> 32 ;
33 [label="gini = 0.0\nsamples = 1\nvalue = [0, 0, 0, 0, 0, 0, 0, 0, 0, 0, 0, 0, 1, 0]"] ;
32 -> 33 ;
34 [label="gini = 0.0\nsamples = 1\nvalue = [0, 0, 0, 0, 0, 0, 0, 0, 1, 0, 0, 0, 0, 0]"] ;
32 -> 34 ;
35 [label="gini = 0.0\nsamples = 2\nvalue = [0, 0, 2, 0, 0, 0, 0, 0, 0, 0, 0, 0, 0, 0]"] ;
25 -> 35 ;
36 [label="X[62] <= 21.094\ngini = 0.846\nsamples = 186\nvalue = [40, 17, 13, 15, 52, 7, 11, 6, 5, 7, 2, 3, 4\n4]"] ;
2 -> 36 ;
37 [label="X[70] <= 0.16\ngini = 0.73\nsamples = 80\nvalue = [14, 5, 4, 10, 37, 1, 1, 3, 2, 2, 0, 0, 0, 1]"] ;
36 -> 37 ;
38 [label="X[114] <= 2.365\ngini = 0.691\nsamples = 71\nvalue = [14, 5, 2, 4, 36, 1, 1, 3, 2, 2, 0, 0, 0, 1]"] ;
37 -> 38 ;
39 [label="X[112] <= 0.128\ngini = 0.76\nsamples = 59\nvalue = [14, 5, 2, 4, 24, 1, 1, 3, 2, 2, 0, 0, 0, 1]"] ;
38 -> 39 ;
40 [label="X[111] <= 0.321\ngini = 0.772\nsamples = 43\nvalue = [14, 2, 2, 3, 14, 1, 1, 2, 1, 2, 0, 0, 0, 1]"] ;
39 -> 40 ;
41 [label="X[59] <= 22.5\ngini = 0.766\nsamples = 34\nvalue = [7, 2, 2, 3, 14, 1, 0, 1, 1, 2, 0, 0, 0, 1]"] ;
40 -> 41 ;
42 [label="gini = 0.815\nsamples = 9\nvalue = [0, 2, 2, 0, 1, 1, 0, 1, 0, 2, 0, 0, 0, 0]"] ;
41 -> 42 ;
43 [label="gini = 0.634\nsamples = 25\nvalue = [7, 0, 0, 3, 13, 0, 0, 0, 1, 0, 0, 0, 0, 1]"] ;
41 -> 43 ;
44 [label="X[113] <= 0.056\ngini = 0.37\nsamples = 9\nvalue = [7, 0, 0, 0, 0, 0, 1, 1, 0, 0, 0, 0, 0, 0]"] ;
40 -> 44 ;
45 [label="gini = 0.5\nsamples = 2\nvalue = [0, 0, 0, 0, 0, 0, 1, 1, 0, 0, 0, 0, 0, 0]"] ;
44 -> 45 ;
46 [label="gini = 0.0\nsamples = 7\nvalue = [7, 0, 0, 0, 0, 0, 0, 0, 0, 0, 0, 0, 0, 0]"] ;
44 -> 46 ;
47 [label="X[111] <= 0.467\ngini = 0.562\nsamples = 16\nvalue = [0, 3, 0, 1, 10, 0, 0, 1, 1, 0, 0, 0, 0, 0]"] ;
39 -> 47 ;
48 [label="X[78] <= 0.039\ngini = 0.391\nsamples = 13\nvalue = [0, 1, 0, 0, 10, 0, 0, 1, 1, 0, 0, 0, 0, 0]"] ;
47 -> 48 ;
49 [label="gini = 0.292\nsamples = 12\nvalue = [0, 1, 0, 0, 10, 0, 0, 1, 0, 0, 0, 0, 0, 0]"] ;
48 -> 49 ;
50 [label="gini = 0.0\nsamples = 1\nvalue = [0, 0, 0, 0, 0, 0, 0, 0, 1, 0, 0, 0, 0, 0]"] ;
48 -> 50 ;
51 [label="X[51] <= 9.5\ngini = 0.444\nsamples = 3\nvalue = [0, 2, 0, 1, 0, 0, 0, 0, 0, 0, 0, 0, 0, 0]"] ;
47 -> 51 ;
52 [label="gini = 0.0\nsamples = 1\nvalue = [0, 0, 0, 1, 0, 0, 0, 0, 0, 0, 0, 0, 0, 0]"] ;
51 -> 52 ;
53 [label="gini = 0.0\nsamples = 2\nvalue = [0, 2, 0, 0, 0, 0, 0, 0, 0, 0, 0, 0, 0, 0]"] ;
51 -> 53 ;
54 [label="gini = 0.0\nsamples = 12\nvalue = [0, 0, 0, 0, 12, 0, 0, 0, 0, 0, 0, 0, 0, 0]"] ;
38 -> 54 ;
55 [label="X[73] <= 0.095\ngini = 0.494\nsamples = 9\nvalue = [0, 0, 2, 6, 1, 0, 0, 0, 0, 0, 0, 0, 0, 0]"] ;
37 -> 55 ;
56 [label="X[4] <= 6.0\ngini = 0.245\nsamples = 7\nvalue = [0, 0, 0, 6, 1, 0, 0, 0, 0, 0, 0, 0, 0, 0]"] ;
55 -> 56 ;
57 [label="gini = 0.0\nsamples = 6\nvalue = [0, 0, 0, 6, 0, 0, 0, 0, 0, 0, 0, 0, 0, 0]"] ;
56 -> 57 ;
58 [label="gini = 0.0\nsamples = 1\nvalue = [0, 0, 0, 0, 1, 0, 0, 0, 0, 0, 0, 0, 0, 0]"] ;
56 -> 58 ;
59 [label="gini = 0.0\nsamples = 2\nvalue = [0, 0, 2, 0, 0, 0, 0, 0, 0, 0, 0, 0, 0, 0]"] ;
55 -> 59 ;
60 [label="X[96] <= 0.003\ngini = 0.878\nsamples = 106\nvalue = [26, 12, 9, 5, 15, 6, 10, 3, 3, 5, 2, 3, 4, 3]"] ;
36 -> 60 ;
61 [label="gini = 0.0\nsamples = 3\nvalue = [0, 0, 0, 0, 0, 3, 0, 0, 0, 0, 0, 0, 0, 0]"] ;
60 -> 61 ;
62 [label="X[34] <= 2.5\ngini = 0.874\nsamples = 103\nvalue = [26, 12, 9, 5, 15, 3, 10, 3, 3, 5, 2, 3, 4, 3]"] ;
60 -> 62 ;
63 [label="X[118] <= 0.12\ngini = 0.82\nsamples = 16\nvalue = [0, 3, 5, 2, 0, 0, 2, 1, 0, 1, 0, 1, 1, 0]"] ;
62 -> 63 ;
64 [label="X[90] <= 0.013\ngini = 0.776\nsamples = 7\nvalue = [0, 0, 0, 2, 0, 0, 2, 1, 0, 0, 0, 1, 1, 0]"] ;
63 -> 64 ;
65 [label="gini = 0.0\nsamples = 2\nvalue = [0, 0, 0, 2, 0, 0, 0, 0, 0, 0, 0, 0, 0, 0]"] ;
64 -> 65 ;
66 [label="X[113] <= 0.039\ngini = 0.72\nsamples = 5\nvalue = [0, 0, 0, 0, 0, 0, 2, 1, 0, 0, 0, 1, 1, 0]"] ;
64 -> 66 ;
67 [label="gini = 0.667\nsamples = 3\nvalue = [0, 0, 0, 0, 0, 0, 0, 1, 0, 0, 0, 1, 1, 0]"] ;
66 -> 67 ;
68 [label="gini = 0.0\nsamples = 2\nvalue = [0, 0, 0, 0, 0, 0, 2, 0, 0, 0, 0, 0, 0, 0]"] ;
66 -> 68 ;
69 [label="X[53] <= 3.5\ngini = 0.568\nsamples = 9\nvalue = [0, 3, 5, 0, 0, 0, 0, 0, 0, 1, 0, 0, 0, 0]"] ;
63 -> 69 ;
70 [label="X[19] <= 1.5\ngini = 0.444\nsamples = 3\nvalue = [0, 2, 0, 0, 0, 0, 0, 0, 0, 1, 0, 0, 0, 0]"] ;
69 -> 70 ;
71 [label="gini = 0.0\nsamples = 1\nvalue = [0, 0, 0, 0, 0, 0, 0, 0, 0, 1, 0, 0, 0, 0]"] ;
70 -> 71 ;
72 [label="gini = 0.0\nsamples = 2\nvalue = [0, 2, 0, 0, 0, 0, 0, 0, 0, 0, 0, 0, 0, 0]"] ;
70 -> 72 ;
73 [label="X[96] <= 0.059\ngini = 0.278\nsamples = 6\nvalue = [0, 1, 5, 0, 0, 0, 0, 0, 0, 0, 0, 0, 0, 0]"] ;
69 -> 73 ;
74 [label="gini = 0.5\nsamples = 2\nvalue = [0, 1, 1, 0, 0, 0, 0, 0, 0, 0, 0, 0, 0, 0]"] ;
73 -> 74 ;
75 [label="gini = 0.0\nsamples = 4\nvalue = [0, 0, 4, 0, 0, 0, 0, 0, 0, 0, 0, 0, 0, 0]"] ;
73 -> 75 ;
76 [label="X[114] <= 2.216\ngini = 0.85\nsamples = 87\nvalue = [26, 9, 4, 3, 15, 3, 8, 2, 3, 4, 2, 2, 3, 3]"] ;
62 -> 76 ;
77 [label="X[114] <= 2.028\ngini = 0.664\nsamples = 27\nvalue = [15, 3, 1, 1, 2, 1, 1, 1, 0, 1, 1, 0, 0, 0]"] ;
76 -> 77 ;
78 [label="X[114] <= 1.919\ngini = 0.72\nsamples = 5\nvalue = [0, 2, 0, 0, 1, 0, 1, 1, 0, 0, 0, 0, 0, 0]"] ;
77 -> 78 ;
79 [label="gini = 0.0\nsamples = 2\nvalue = [0, 2, 0, 0, 0, 0, 0, 0, 0, 0, 0, 0, 0, 0]"] ;
78 -> 79 ;
80 [label="gini = 0.667\nsamples = 3\nvalue = [0, 0, 0, 0, 1, 0, 1, 1, 0, 0, 0, 0, 0, 0]"] ;
78 -> 80 ;
81 [label="X[110] <= 0.024\ngini = 0.521\nsamples = 22\nvalue = [15, 1, 1, 1, 1, 1, 0, 0, 0, 1, 1, 0, 0, 0]"] ;
77 -> 81 ;
82 [label="gini = 0.667\nsamples = 3\nvalue = [0, 1, 1, 1, 0, 0, 0, 0, 0, 0, 0, 0, 0, 0]"] ;
81 -> 82 ;
83 [label="gini = 0.366\nsamples = 19\nvalue = [15, 0, 0, 0, 1, 1, 0, 0, 0, 1, 1, 0, 0, 0]"] ;
81 -> 83 ;
84 [label="X[47] <= 11.5\ngini = 0.879\nsamples = 60\nvalue = [11, 6, 3, 2, 13, 2, 7, 1, 3, 3, 1, 2, 3, 3]"] ;
76 -> 84 ;
85 [label="X[9] <= 2.5\ngini = 0.837\nsamples = 45\nvalue = [10, 3, 3, 2, 12, 1, 7, 1, 0, 3, 0, 1, 0, 2]"] ;
84 -> 85 ;
86 [label="gini = 0.851\nsamples = 41\nvalue = [10, 3, 3, 2, 8, 1, 7, 1, 0, 3, 0, 1, 0, 2]"] ;
85 -> 86 ;
87 [label="gini = 0.0\nsamples = 4\nvalue = [0, 0, 0, 0, 4, 0, 0, 0, 0, 0, 0, 0, 0, 0]"] ;
85 -> 87 ;
88 [label="X[86] <= 0.22\ngini = 0.853\nsamples = 15\nvalue = [1, 3, 0, 0, 1, 1, 0, 0, 3, 0, 1, 1, 3, 1]"] ;
84 -> 88 ;
89 [label="gini = 0.0\nsamples = 3\nvalue = [0, 3, 0, 0, 0, 0, 0, 0, 0, 0, 0, 0, 0, 0]"] ;
88 -> 89 ;
90 [label="gini = 0.833\nsamples = 12\nvalue = [1, 0, 0, 0, 1, 1, 0, 0, 3, 0, 1, 1, 3, 1]"] ;
88 -> 90 ;
91 [label="X[94] <= 0.293\ngini = 0.18\nsamples = 10\nvalue = [9, 1, 0, 0, 0, 0, 0, 0, 0, 0, 0, 0, 0, 0]"] ;
1 -> 91 ;
92 [label="gini = 0.0\nsamples = 9\nvalue = [9, 0, 0, 0, 0, 0, 0, 0, 0, 0, 0, 0, 0, 0]"] ;
91 -> 92 ;
93 [label="gini = 0.0\nsamples = 1\nvalue = [0, 1, 0, 0, 0, 0, 0, 0, 0, 0, 0, 0, 0, 0]"] ;
91 -> 93 ;
94 [label="X[60] <= 502.0\ngini = 0.454\nsamples = 52\nvalue = [38, 0, 0, 0, 4, 0, 2, 1, 2, 1, 0, 1, 1, 2]"] ;
0 -> 94 [labeldistance=2.5, labelangle=-45, headlabel="False"] ;
95 [label="X[91] <= 0.035\ngini = 0.722\nsamples = 6\nvalue = [1, 0, 0, 0, 2, 0, 1, 0, 0, 0, 0, 0, 0, 2]"] ;
94 -> 95 ;
96 [label="X[58] <= 47.5\ngini = 0.625\nsamples = 4\nvalue = [1, 0, 0, 0, 0, 0, 1, 0, 0, 0, 0, 0, 0, 2]"] ;
95 -> 96 ;
97 [label="gini = 0.0\nsamples = 2\nvalue = [0, 0, 0, 0, 0, 0, 0, 0, 0, 0, 0, 0, 0, 2]"] ;
96 -> 97 ;
98 [label="X[118] <= 0.096\ngini = 0.5\nsamples = 2\nvalue = [1, 0, 0, 0, 0, 0, 1, 0, 0, 0, 0, 0, 0, 0]"] ;
96 -> 98 ;
99 [label="gini = 0.0\nsamples = 1\nvalue = [1, 0, 0, 0, 0, 0, 0, 0, 0, 0, 0, 0, 0, 0]"] ;
98 -> 99 ;
100 [label="gini = 0.0\nsamples = 1\nvalue = [0, 0, 0, 0, 0, 0, 1, 0, 0, 0, 0, 0, 0, 0]"] ;
98 -> 100 ;
101 [label="gini = 0.0\nsamples = 2\nvalue = [0, 0, 0, 0, 2, 0, 0, 0, 0, 0, 0, 0, 0, 0]"] ;
95 -> 101 ;
102 [label="X[104] <= 0.011\ngini = 0.347\nsamples = 46\nvalue = [37, 0, 0, 0, 2, 0, 1, 1, 2, 1, 0, 1, 1, 0]"] ;
94 -> 102 ;
103 [label="X[66] <= 0.134\ngini = 0.288\nsamples = 44\nvalue = [37, 0, 0, 0, 0, 0, 1, 1, 2, 1, 0, 1, 1, 0]"] ;
102 -> 103 ;
104 [label="X[105] <= 0.286\ngini = 0.255\nsamples = 43\nvalue = [37, 0, 0, 0, 0, 0, 1, 1, 2, 0, 0, 1, 1, 0]"] ;
103 -> 104 ;
105 [label="X[12] <= 107.0\ngini = 0.22\nsamples = 42\nvalue = [37, 0, 0, 0, 0, 0, 0, 1, 2, 0, 0, 1, 1, 0]"] ;
104 -> 105 ;
106 [label="X[114] <= 2.152\ngini = 0.183\nsamples = 41\nvalue = [37, 0, 0, 0, 0, 0, 0, 1, 1, 0, 0, 1, 1, 0]"] ;
105 -> 106 ;
107 [label="gini = 0.0\nsamples = 1\nvalue = [0, 0, 0, 0, 0, 0, 0, 0, 1, 0, 0, 0, 0, 0]"] ;
106 -> 107 ;
108 [label="X[86] <= 0.168\ngini = 0.142\nsamples = 40\nvalue = [37, 0, 0, 0, 0, 0, 0, 1, 0, 0, 0, 1, 1, 0]"] ;
106 -> 108 ;
109 [label="X[62] <= 28.123\ngini = 0.056\nsamples = 35\nvalue = [34, 0, 0, 0, 0, 0, 0, 0, 0, 0, 0, 0, 1, 0]"] ;
108 -> 109 ;
110 [label="gini = 0.444\nsamples = 3\nvalue = [2, 0, 0, 0, 0, 0, 0, 0, 0, 0, 0, 0, 1, 0]"] ;
109 -> 110 ;
111 [label="gini = 0.0\nsamples = 32\nvalue = [32, 0, 0, 0, 0, 0, 0, 0, 0, 0, 0, 0, 0, 0]"] ;
109 -> 111 ;
112 [label="X[45] <= 5.5\ngini = 0.56\nsamples = 5\nvalue = [3, 0, 0, 0, 0, 0, 0, 1, 0, 0, 0, 1, 0, 0]"] ;
108 -> 112 ;
113 [label="gini = 0.5\nsamples = 2\nvalue = [0, 0, 0, 0, 0, 0, 0, 1, 0, 0, 0, 1, 0, 0]"] ;
112 -> 113 ;
114 [label="gini = 0.0\nsamples = 3\nvalue = [3, 0, 0, 0, 0, 0, 0, 0, 0, 0, 0, 0, 0, 0]"] ;
112 -> 114 ;
115 [label="gini = 0.0\nsamples = 1\nvalue = [0, 0, 0, 0, 0, 0, 0, 0, 1, 0, 0, 0, 0, 0]"] ;
105 -> 115 ;
116 [label="gini = 0.0\nsamples = 1\nvalue = [0, 0, 0, 0, 0, 0, 1, 0, 0, 0, 0, 0, 0, 0]"] ;
104 -> 116 ;
117 [label="gini = 0.0\nsamples = 1\nvalue = [0, 0, 0, 0, 0, 0, 0, 0, 0, 1, 0, 0, 0, 0]"] ;
103 -> 117 ;
118 [label="gini = 0.0\nsamples = 2\nvalue = [0, 0, 0, 0, 2, 0, 0, 0, 0, 0, 0, 0, 0, 0]"] ;
102 -> 118 ;
}